%YAML:1.0
my_svm: !!opencv-ml-svm
   svm_type: C_SVC
   kernel: { type:RBF, gamma:6.2500000000000000e-02 }
   C: 64.
   term_criteria: { epsilon:1.0000000474974513e-03, iterations:2147483647 }
   var_all: 180
   var_count: 180
   class_count: 2
   class_labels: !!opencv-matrix
      rows: 1
      cols: 2
      dt: i
      data: [ 0, 1 ]
   sv_total: 890
   support_vectors:
      - [ -2.26206422e-01, -3.81861091e-01, -8.25897336e-01,
          -8.82004499e-01, -6.75206065e-01, -9.05290127e-01,
          -9.23764408e-01, -8.42622817e-01, -1.57833099e-02,
          3.46665859e-01, 1.07420444e-01, 7.94336796e-02,
          -6.85775399e-01, -7.91619420e-01, -8.48302901e-01,
          -9.10742879e-01, -8.74031067e-01, -2.87824869e-01,
          3.31205606e-01, -2.13303149e-01, -5.15540838e-01,
          -7.53619850e-01, -5.64561486e-01, -8.91783476e-01,
          -9.12687361e-01, -9.54183340e-01, -9.48644698e-01,
          -3.30245495e-02, -5.25458932e-01, -4.24485683e-01,
          -8.07350278e-01, -7.62979507e-01, -8.44080865e-01,
          -8.79444718e-01, -8.71794760e-01, -3.74446988e-01,
          -4.40628290e-01, -6.42002106e-01, -7.56537676e-01,
          -7.46255040e-01, -9.01409984e-01, -9.53265727e-01,
          -8.98972511e-01, -2.57886052e-02, -9.39122021e-01,
          -5.35342693e-02, -5.68445683e-01, -8.73723149e-01,
          -9.88118768e-01, -9.22493696e-01, -9.39962566e-01,
          -8.31417799e-01, -1., -9.69121099e-01, -1.74053609e-01,
          -4.93210077e-01, -7.54985690e-01, -8.74509752e-01,
          -6.43311262e-01, -9.56735492e-01, -9.68810976e-01,
          -9.81418908e-01, -9.76105154e-01, -3.74252796e-02,
          -3.16739857e-01, -7.60158420e-01, -9.28994119e-01,
          -9.32291687e-01, -9.70186353e-01, -9.88654792e-01,
          -9.91202354e-01, -9.41659093e-01, 4.54544187e-01,
          -4.18762147e-01, -7.96051681e-01, -8.90565991e-01,
          -8.89502764e-01, -9.75678205e-01, -9.74683523e-01,
          -9.98219073e-01, -9.78552282e-01, 1.17785335e-01,
          -7.34238446e-01, -1., -9.18791234e-01, -9.66731906e-01, -1.,
          -9.84361410e-01, -9.89235699e-01, -9.94987488e-01,
          -3.28741491e-01, -8.90909255e-01, -9.98098850e-01,
          -9.47252631e-01, -9.94139194e-01, -1., -9.98226941e-01, -1.,
          -1., -1.99247420e-01, -6.97109818e-01, -9.50757563e-01,
          -9.92565036e-01, -9.85785365e-01, -9.98120308e-01,
          -9.92779732e-01, -1., -1., -4.14442658e-01, -9.89517808e-01,
          -8.19885075e-01, -8.74538898e-01, -9.95433807e-01,
          -9.56368744e-01, -8.51393461e-01, -1., -8.80184233e-01,
          -4.91844773e-01, -9.71321702e-01, -7.31387138e-01, -1.,
          -9.19112206e-01, -1., -9.71450031e-01, -1., -9.59514260e-01,
          -8.91060770e-01, -9.98553872e-01, -7.35271692e-01, -1., -1.,
          -9.41799164e-01, -1., -1., -1., -8.26936245e-01,
          -7.27932215e-01, -1., -7.80626714e-01, -1., -7.99443185e-01,
          -1., -9.82990801e-01, -1., -5.16051650e-01, -9.92797136e-01,
          -8.56725097e-01, -1., -9.83379483e-01, -1., -1., -1., -1.,
          -5.24466872e-01, -9.98761594e-01, -9.54692483e-01, -1., -1.,
          -1., -1., -1., -1., -5.91023445e-01, -9.98804569e-01,
          -9.44055974e-01, -1., -9.86885309e-01, -1., -1., -1., -1.,
          -3.72548640e-01, -9.61716950e-01, -8.97510827e-01, -1.,
          -9.89027917e-01, -1., -1., -1., -9.94065285e-01 ]
      - [ -1.84827149e-01, -3.01233947e-01, -6.89832866e-01,
          -4.63125408e-01, -5.32755852e-01, -8.75578046e-01,
          -8.68614316e-01, 4.73225117e-01, -8.96007299e-01,
          -2.85333693e-01, -2.44739652e-01, -1.44599378e-01,
          -5.07431567e-01, -8.34654570e-01, -8.58282983e-01,
          -8.89562786e-01, 4.28294182e-01, -7.56460190e-01,
          2.78876185e-01, -1.67431593e-01, -6.67738199e-01,
          -8.25003445e-01, -6.91143632e-01, -9.05811548e-01,
          -9.43732381e-01, -9.62151408e-01, -8.03138077e-01,
          -3.11756253e-01, -5.11202216e-01, -3.91832709e-01,
          -6.14699006e-01, -8.62302363e-01, -9.01828706e-01,
          -9.04174268e-01, 5.21979451e-01, -4.97795463e-01,
          -3.91987383e-01, -2.92001367e-01, -8.28674674e-01,
          -7.50251055e-01, -9.19518650e-01, -8.84537220e-01,
          4.46918964e-01, -8.64374518e-01, -9.65848088e-01,
          3.68144512e-01, -4.08352911e-01, -8.01299632e-01,
          -7.70296395e-01, -9.49452400e-01, -9.64352787e-01,
          -9.31034565e-01, -9.86473441e-01, -9.95249391e-01,
          1.38084888e-01, -1.94567740e-01, -6.60018921e-01,
          -7.92156756e-01, -6.94266796e-01, -9.25270379e-01,
          -9.64912295e-01, -9.88175690e-01, -8.44683528e-01,
          -3.61785233e-01, -6.49318814e-01, -8.21605444e-01,
          -8.99408340e-01, -9.46180582e-01, -9.50310647e-01,
          -9.77309585e-01, -9.09090877e-01, 5.97082615e-01,
          1.63874149e-01, -4.85123575e-01, -7.72519171e-01,
          -9.05660331e-01, -8.50828767e-01, -9.73807335e-01,
          -9.87341762e-01, -9.94657159e-01, -8.76675665e-01,
          -1.82568073e-01, -7.78855383e-01, -9.52380896e-01, -1.,
          -9.86301363e-01, -1., -9.98262405e-01, -1., -1.,
          9.20473337e-02, -6.40404582e-01, -8.80228043e-01,
          -9.12087739e-01, -9.97069597e-01, -9.82716024e-01,
          -9.91134763e-01, -9.61977065e-01, -9.96515691e-01,
          2.81955600e-01, -4.38150227e-01, -8.06818008e-01,
          -8.32713425e-01, -9.78678048e-01, -9.71804500e-01,
          -9.71118987e-01, -9.90950227e-01, -9.90730047e-01,
          1.99740171e-01, -5.80712199e-01, -8.94738853e-01,
          -9.92619932e-01, -9.08675790e-01, -9.90147769e-01,
          -9.31888700e-01, -1., -9.53917027e-01, -2.27101684e-01,
          -9.95012462e-01, -7.45985627e-01, -9.97260273e-01,
          -9.59556103e-01, -9.55665052e-01, -1., -9.92932856e-01, -1.,
          -7.78568089e-01, -8.32248747e-01, -1., -1., -9.41787899e-01,
          -1., -1., -9.96409357e-01, -1., -2.00488329e-01, -1.,
          -9.10160542e-01, -1., -9.88944948e-01, -1., -9.70149279e-01,
          -9.97165143e-01, -9.90338206e-01, -1.37930214e-01, -1.,
          -7.60233879e-01, -1., -9.59372163e-01, -9.39024150e-01, -1.,
          -9.44751382e-01, -1., 7.15255737e-07, -9.98761594e-01,
          -7.31391251e-01, -9.44543839e-01, -9.95918393e-01,
          -9.51661825e-01, -9.90028501e-01, -1., -9.98153269e-01,
          -2.20699370e-01, -9.90436316e-01, -7.90209830e-01,
          -9.81916785e-01, -9.93442655e-01, -9.69581604e-01, -1., -1.,
          -1., -4.57305133e-01, -1., -9.61932600e-01, -1., -1., -1., -1.,
          -1., -1. ]
      - [ -1.44827068e-01, -2.02689648e-01, -6.80328012e-02,
          -6.95180535e-01, -4.41587746e-01, -2.86906600e-01,
          -9.23764408e-01, -9.01639283e-01, -4.42896187e-01,
          -1.57333791e-01, -1.05204523e-01, -1.85332656e-01,
          2.76007414e-01, -7.44054317e-01, -8.00398707e-01,
          -8.78972769e-01, -2.48062193e-01, -8.19190919e-01,
          -4.15444195e-01, -4.15138066e-01, -6.80599928e-01,
          5.37233710e-01, -5.64561486e-01, -9.05811548e-01,
          -8.85522902e-01, -2.33068526e-01, -8.88730228e-01,
          -3.65917444e-01, -4.39918995e-01, -4.12240803e-01,
          7.53721237e-01, -8.37471664e-01, -9.09528375e-01,
          -9.35086191e-01, -3.05860221e-01, -6.91628814e-01,
          -3.39054585e-01, -4.42001700e-01, 3.72406244e-01,
          -7.98203111e-01, -8.18914890e-01, -4.35052633e-01,
          -9.22945142e-01, -9.40783203e-01, -5.64957321e-01,
          -2.01584518e-01, -5.29002547e-01, -7.93871582e-01,
          -5.80196857e-01, 5.09688497e-01, -8.44277859e-01,
          -8.00766528e-01, -9.55555558e-01, -9.26365674e-01,
          -4.92614865e-01, -5.27146697e-01, -7.66381741e-01,
          6.72549963e-01, -5.92355728e-01, -9.52802360e-01,
          -9.23976719e-01, -2.87162364e-01, -9.33094442e-01,
          -4.90478754e-01, -5.06784916e-01, -7.60158420e-01,
          7.85009265e-01, -9.13194478e-01, -9.32919323e-01,
          -9.57860589e-01, -4.25219715e-01, -9.65360105e-01,
          -5.69379449e-01, -5.42331696e-01, -7.27415204e-01,
          7.62265086e-01, -5.69060802e-01, -9.23292875e-01,
          -9.27667201e-01, -3.17898929e-01, -9.35656846e-01,
          -4.24028575e-01, -6.52764082e-01, -7.64172077e-01,
          -8.28139544e-01, 7.80820251e-01, -6.64473653e-01,
          -9.66985226e-01, -9.67707157e-01, -9.59899724e-01,
          -3.29993844e-01, -6.74747944e-01, -8.57414305e-01,
          -6.26372874e-01, 4.08058286e-01, -8.79012227e-01,
          -9.89361703e-01, -9.46767867e-01, -9.72125471e-01,
          -2.59397864e-01, -6.25433505e-01, -8.52272630e-01,
          -7.43493915e-01, 2.83582926e-01, -8.87217999e-01,
          -9.49458241e-01, -9.94570136e-01, -9.42062676e-01,
          -2.98632741e-01, -8.25995564e-01, -8.69007826e-01,
          -9.48339581e-01, -7.53424644e-01, 3.87756348e-01,
          -6.90403104e-01, -1., -1., -5.39523602e-01, -7.58104801e-01,
          -8.62773836e-01, -8.27397048e-01, -9.49926615e-01,
          -5.86207390e-01, 2.80241251e-01, -5.75972557e-01,
          -8.38057160e-01, -2.78274417e-02, -7.94649363e-01,
          -8.83703172e-01, -9.53333259e-01, -9.95841980e-01,
          -9.10053194e-01, -9.53198135e-01, -9.78456020e-01,
          -9.31034565e-01, -6.28276706e-01, -8.96009684e-01,
          -9.14438605e-01, -9.31623936e-01, -9.94472444e-01,
          -9.94428992e-01, -6.56716585e-01, 2.57264972e-01,
          -4.49276805e-01, -6.12365663e-01, -8.52340996e-01,
          -9.41520452e-01, -9.35732603e-01, -9.98153269e-01,
          -7.74389446e-01, 3.24636936e-01, -5.13812184e-01, -1.,
          -5.59598625e-01, -8.14241529e-01, -9.35275018e-01,
          -9.44543839e-01, -9.75510240e-01, -6.67675018e-01,
          2.45014548e-01, -9.08898234e-01, -9.96306539e-01,
          -5.53617001e-01, -8.06335986e-01, -9.23076928e-01,
          -9.43942070e-01, -9.34426427e-01, -5.66538215e-01,
          1.52687192e-01, -8.88280451e-01, -9.96383369e-01,
          -6.20493054e-01, -7.69141674e-01, -8.65299940e-01,
          -8.29855621e-01, -9.61597681e-01, -7.06214190e-01,
          1.35415912e-01, -3.89605045e-01, -9.52522278e-01 ]
      - [ 2.17931867e-01, 1.19819045e-01, -4.71837103e-01,
          -6.12584591e-01, -7.69153237e-02, -7.62300611e-01,
          -8.19952488e-01, -8.64480793e-01, -8.73723149e-01,
          1.35999322e-01, 1.67221189e-01, 4.17519927e-01,
          -4.98938978e-01, -9.66024935e-01, -6.96606219e-01,
          -7.94252515e-01, -7.69379914e-01, -6.45758927e-01,
          2.27823257e-01, 1.81192398e-01, -9.76420105e-01,
          -3.19369555e-01, 6.32860661e-02, -9.61923838e-01,
          -7.55521715e-01, -7.76892662e-01, -8.03138077e-01,
          2.40422964e-01, 1.85336947e-01, 2.65308619e-01,
          -6.14699006e-01, -9.81941283e-01, -7.70933628e-01,
          -8.28440011e-01, -8.73626232e-01, -5.41848481e-01,
          2.66095281e-01, -7.60008693e-02, -4.13886964e-01,
          -5.96404672e-01, -6.92154229e-01, -8.62544060e-01,
          -8.63013625e-01, -8.89207363e-01, -8.81215572e-01,
          4.72572803e-01, -9.65197206e-01, -2.72050977e-01,
          -2.31680930e-01, -9.96630132e-01, -8.04878294e-01,
          -9.31034565e-01, -8.97584498e-01, -8.97862077e-01,
          3.38470340e-01, 1.67423010e-01, -9.86704648e-01,
          -5.68627179e-01, -2.16558635e-01, -9.60668623e-01,
          -8.40156138e-01, -9.07094598e-01, -8.80525768e-01,
          2.89561152e-01, 1.80997252e-01, -4.50941145e-01,
          -9.64497030e-01, -6.92708492e-01, -7.39130795e-01,
          -8.49270642e-01, -9.95601177e-01, -9.16134953e-01,
          1.42343163e-01, 1.30436182e-01, -9.82350647e-01,
          -4.64150667e-01, 3.86739969e-02, -9.75678205e-01,
          -7.88426518e-01, -8.25467587e-01, -8.12332511e-01,
          3.05064440e-01, -9.72841859e-01, 4.53525782e-02,
          -9.96222854e-01, -5.20548344e-01, -9.86842096e-01,
          -7.82797575e-01, -9.87082839e-01, -9.11445200e-01,
          3.96367788e-01, -9.73737419e-01, -1.00759506e-01,
          -9.73626316e-01, -6.90842569e-01, -7.53086209e-01,
          -9.98226941e-01, -5.74142814e-01, -9.98257816e-01,
          4.24812794e-01, -9.83815014e-01, -1.70453906e-01,
          -2.49069035e-01, -1., -7.63157845e-01, -9.35017705e-01,
          -9.09502327e-01, -9.07300234e-01, 4.86011744e-01,
          -8.78406525e-01, -2.25733519e-01, -9.98154998e-01,
          -4.29223716e-01, -1., -6.47059560e-01, -9.98212695e-01,
          -6.40552759e-01, -7.82936692e-01, 1.03491068e-01,
          -9.88321185e-01, -3.53423774e-01, -9.90370512e-01,
          -9.95073915e-01, -8.49736929e-01, -1., -5.70851386e-01,
          -7.15808988e-01, -9.62400556e-01, -9.00535583e-01,
          -2.58332491e-01, -1., -1., -9.56318259e-01, -8.27647984e-01,
          -1., -8.09873462e-01, 1.20919108e-01, -9.87165809e-01,
          -9.94301975e-01, -6.79403305e-01, -1., -5.22388279e-01,
          -9.95747685e-01, -1., -7.96670139e-01, 1.76470160e-01,
          -9.91228044e-01, -4.67866182e-01, -9.90766406e-01,
          -9.87804830e-01, -8.81159484e-01, -1., -8.12298417e-01,
          -8.04266453e-01, 3.02785993e-01, -9.96763766e-01,
          -3.95348608e-01, -1., -3.53476882e-01, -1., -8.98304999e-01,
          -9.96306539e-01, -8.09227884e-01, 2.73161650e-01,
          -9.93007004e-01, -4.14104223e-01, -1., -6.46352172e-02, -1.,
          -9.10186291e-01, -1., -8.74762595e-01, 2.42458820e-01,
          -9.88286972e-01, -1.07544541e-01, -9.90856588e-01,
          -9.88700569e-01, -8.45238209e-01, -1., -7.68546224e-01 ]
      - [ 1.24138594e-01, -7.27902651e-02, -7.05926538e-01,
          -7.22712457e-01, -4.24493730e-01, -7.73442626e-01,
          -8.02109838e-01, -6.56830370e-01, -7.70646334e-02,
          1.66665912e-01, 8.74868631e-02, 1.64973617e-01,
          -5.69002628e-01, -5.80973864e-01, -7.00598240e-01,
          -8.19971144e-01, -7.48062134e-01, -4.09596264e-01,
          9.38092470e-02, 8.02749395e-02, -3.05465698e-01,
          -5.41451931e-01, -1.13928914e-01, -7.29458690e-01,
          -7.26416945e-01, -8.04781079e-01, -7.46076703e-01,
          2.69485116e-01, -1.89409316e-01, 1.46941543e-01,
          -6.30587757e-01, -6.07223153e-01, -7.30510116e-01,
          -7.97528028e-01, -7.83882618e-01, 2.15863585e-01,
          -1.20170593e-01, -4.62001741e-01, -5.67178071e-01,
          -5.22478521e-01, -7.40444005e-01, -8.46049190e-01,
          -7.31164157e-01, 5.25302887e-02, -8.67852569e-01,
          2.21416235e-01, -1.39215589e-02, -5.78458071e-01,
          -7.58415163e-01, -6.98399305e-01, -8.25516224e-01,
          -4.86590624e-01, -9.45893705e-01, -9.23990369e-01,
          1.18817210e-01, -1.94567740e-01, -4.64387298e-01,
          -6.50980175e-01, 1.27413273e-02, -7.81710863e-01,
          -8.30409527e-01, -8.63175690e-01, -8.61409903e-01,
          1.55614853e-01, -1.22169852e-01, -4.74727094e-01,
          -5.62130332e-01, -6.80555761e-01, -7.14286089e-01,
          -8.63857329e-01, -9.00293231e-01, -7.57520556e-01,
          3.58837843e-02, 1.14432573e-02, -4.29336905e-01,
          -6.16980910e-01, -2.15469658e-01, -7.94200361e-01,
          -8.55334401e-01, -9.02048171e-01, -8.36461186e-01,
          1.42520189e-01, -9.40828919e-02, -9.16099668e-01,
          -6.01510406e-01, -7.71037400e-01, -5.85526228e-01,
          -9.39183295e-01, -9.31108654e-01, -9.68253970e-01,
          1.78459287e-01, -2.00001180e-01, -8.99239421e-01,
          5.05516529e-02, -7.83150196e-01, -7.99999833e-01,
          -9.37943220e-01, -6.12165809e-01, -9.51219559e-01,
          1.59148693e-01, -3.58380675e-02, -5.71969390e-01,
          -8.14126015e-01, -8.03837836e-01, -7.78195441e-01,
          -4.15159464e-01, -9.60180998e-01, -9.35110152e-01,
          2.03643799e-01, -6.37316048e-01, -5.11113405e-01,
          -5.27675867e-01, -6.30136967e-01, -9.28219497e-01,
          -4.17957842e-01, -9.49955344e-01, -8.61751080e-01,
          1.51819706e-01, -8.10473859e-01, 1.60573721e-02,
          -9.69862998e-01, -7.09189236e-01, -9.95073915e-01,
          -8.88805330e-01, -9.92932856e-01, -7.08502829e-01,
          -6.30551398e-01, -7.93203235e-01, -9.94658470e-03,
          -9.86666679e-01, -9.50103879e-01, -2.53970742e-01, -1., -1.,
          -7.73399293e-01, -5.53931713e-01, -1.22128069e-01,
          -9.25133765e-01, -2.16524005e-01, -9.64992285e-01,
          -4.09471631e-01, -9.70149279e-01, -9.50389743e-01,
          -9.90338206e-01, 8.44242573e-02, -8.48739564e-01,
          6.14036322e-02, -9.74293053e-01, -6.93444252e-01,
          -9.69512105e-01, -8.92753661e-01, -9.88950253e-01,
          -8.51133227e-01, 1.75659657e-01, -9.41795707e-01,
          2.39483833e-01, -9.83899832e-01, -3.26532125e-01,
          -7.88520455e-01, -9.15954411e-01, -9.30084705e-01,
          -9.88919675e-01, 2.76806712e-01, -9.41422582e-01,
          3.42657328e-01, -9.76491809e-01, 4.26203012e-02,
          -8.78326535e-01, -9.18279648e-01, -9.38663781e-01,
          -9.96383369e-01, 2.46047497e-01, -8.44547629e-01,
          -7.17410445e-02, -9.67897296e-01, -8.13474417e-01,
          -9.94350255e-01, -9.59821463e-01, -9.87012863e-01,
          -9.64391708e-01 ]
      - [ -1.37923956e-02, -1.98210359e-01, -6.70813084e-01,
          -3.82496059e-01, -2.93439567e-01, -7.67871618e-01,
          -7.92377472e-01, 1.69399738e-01, -7.95728624e-01,
          -2.00005770e-02, -2.33665466e-01, 4.68471050e-02,
          -3.20595205e-01, -7.05549240e-01, -7.26546347e-01,
          -8.07868242e-01, -9.88374949e-02, -5.83028197e-01,
          -3.63758206e-02, 3.66969109e-02, -1.78991854e-01,
          -5.01794338e-01, -2.53665447e-03, -6.45290256e-01,
          -7.47760415e-01, -7.50996292e-01, -6.89015269e-01,
          -1.62482917e-01, -4.19552386e-01, -2.85682678e-02,
          -2.45285094e-01, -6.34311199e-01, -8.07507217e-01,
          -7.97528028e-01, 1.92308784e-01, -2.15856075e-01,
          -1.88840032e-01, -4.60008383e-02, -6.91614389e-01,
          -4.38562334e-01, -7.34407783e-01, -8.19932342e-01,
          2.73981094e-02, -8.10888350e-01, -8.44096065e-01,
          7.86534548e-02, 1.16008759e-01, -4.09469962e-01,
          -1.32670820e-01, -7.00084209e-01, -7.35460043e-01,
          -5.09579182e-01, -8.93719792e-01, -9.07363296e-01,
          -1.92791224e-03, -1.22169554e-01, -4.07407284e-01,
          -4.82352614e-01, 1.52868986e-01, -6.99115038e-01,
          -7.42690325e-01, -8.44594598e-01, -7.92114854e-01,
          -3.01378131e-01, -2.85065651e-01, -4.37065959e-01,
          -6.07495189e-01, -7.15277970e-01, -6.44720972e-01,
          -8.33063185e-01, -8.41642141e-01, 2.23336101e-01,
          -1.72250271e-01, 1.39589429e-01, -2.80297697e-01,
          -4.52829897e-01, 9.39226151e-02, -7.64265895e-01,
          -8.26401234e-01, -8.77114952e-01, -7.39946485e-01,
          7.06710815e-02, 4.17076349e-02, -2.76643157e-01,
          -9.79225636e-01, -6.08610928e-01, -2.43420959e-01,
          -8.85317087e-01, -9.93541420e-01, -9.33166206e-01,
          1.02066040e-01, 1.61601305e-02, -3.25094342e-01,
          1.34068131e-01, -9.85347986e-01, -6.02468789e-01,
          -7.90779948e-01, -5.81747413e-01, -9.52961683e-01,
          1.50382519e-02, 4.97111082e-02, -3.33332777e-01,
          -6.69125915e-02, -7.65458286e-01, -7.44360805e-01,
          -4.65701222e-01, -9.11312282e-01, -9.18887734e-01,
          2.38777041e-01, -2.51559019e-02, -2.98248053e-01,
          -9.61254656e-01, -2.73972750e-02, -8.08585346e-01,
          -5.41796684e-01, -1., -6.03686333e-01, 3.71393323e-01,
          -9.93765593e-01, 5.03648043e-01, -9.91780818e-01,
          -5.14673471e-01, -3.94089401e-01, -1., -6.67845130e-01, -1.,
          -8.62641573e-01, 4.82284665e-01, -9.90818679e-01, -1.,
          -1.01870418e-01, -1., -1., -9.29982007e-01, -1.,
          3.67458701e-01, -9.96372402e-01, -2.67388821e-02,
          -9.97151017e-01, -6.22285485e-01, -1., -4.55224097e-01, -1.,
          -7.87440181e-01, 2.97266245e-01, -9.95198071e-01,
          3.62573385e-01, -9.92287934e-01, -5.77100873e-01,
          -2.49997377e-01, -1., -4.25414383e-01, -9.93527532e-01,
          3.51318598e-01, -9.75232184e-01, 5.82526445e-01,
          -5.18783331e-01, -9.46938872e-01, -1.05743706e-01,
          -8.88888836e-01, -9.91525412e-01, -9.33518052e-01,
          3.94013762e-01, -9.66527224e-01, 7.16783047e-01,
          -4.70162153e-01, -9.14754331e-01, 2.66199112e-02,
          -9.19713318e-01, -9.97809410e-01, -9.60216939e-01,
          4.67426419e-01, -9.95359659e-01, 3.47000360e-01,
          -9.93579447e-01, -6.70837224e-01, -6.38417482e-01, -1.,
          -7.92205989e-01, -1. ]
      - [ 1.41697526e-01, -4.10940945e-01, -5.44943571e-01,
          -6.11804187e-01, -4.63023067e-01, 1.65554762e-01,
          -8.26157510e-01, -9.20097113e-01, -8.75314832e-01,
          1.06115818e-01, -4.66048181e-01, -6.02879524e-02,
          -6.74890101e-01, -7.83709884e-01, 3.97682071e-01,
          -8.32626343e-01, -9.27710116e-01, -8.44025493e-01,
          -4.94009018e-01, -3.89763057e-01, -8.83257508e-01,
          -8.46154094e-01, -8.35085630e-01, -8.46009374e-01,
          1.00000262e+00, -8.73679996e-01, -9.34017062e-01,
          -8.49840641e-02, -7.19426870e-01, -3.50433409e-01,
          -8.00477743e-01, -7.72653818e-01, 7.37629175e-01,
          -8.73556733e-01, -9.71306443e-01, -7.83091307e-01,
          -4.13185358e-03, -5.36065340e-01, -7.91461110e-01,
          -7.69469976e-01, 8.29293728e-01, -8.88573647e-01,
          -9.59121525e-01, -9.47271883e-01, -9.60875273e-01,
          -5.75507879e-01, -7.33436584e-01, -8.96095693e-01,
          -7.57723689e-01, -9.63546872e-01, -9.74805713e-01,
          -6.11263633e-01, 9.11571622e-01, -8.60008121e-01,
          -5.77964187e-01, -5.25171518e-01, -8.89476776e-01,
          -8.50793540e-01, -7.86168694e-01, -8.95834327e-01,
          9.60330486e-01, -8.85322869e-01, -9.78608429e-01,
          -5.06612301e-01, -5.88879287e-01, -8.84657025e-01,
          -8.77868593e-01, -9.68915343e-01, -8.44306648e-01,
          6.04512691e-01, -9.25615549e-01, -9.75517631e-01,
          -6.33403182e-01, -6.22168899e-01, -9.22461033e-01,
          -9.26804423e-01, -9.34052467e-01, -8.96714151e-01,
          9.15671468e-01, -8.93708825e-01, -9.77999091e-01,
          -7.37693489e-01, -9.16062355e-01, -9.30640936e-01,
          -9.64776576e-01, -9.82480705e-01, -9.50918972e-01,
          -9.89629447e-01, -8.79542649e-01, 5.36938787e-01,
          -6.06782556e-01, -8.67372334e-01, -9.46104109e-01,
          -8.91784191e-01, -9.77045178e-01, -9.81579423e-01,
          -9.92063463e-01, -7.56049514e-01, 6.53226495e-01,
          -5.80955744e-01, -8.08532894e-01, -9.05333042e-01,
          -8.41918588e-01, -9.74548995e-01, -9.85976815e-01,
          -6.49874985e-01, 7.63469100e-01, -8.97993505e-01,
          2.52594948e-01, -6.05869412e-01, -8.67968202e-01,
          -9.35307264e-01, -9.14836526e-01, -9.91599917e-01,
          -9.63044941e-01, -9.97333229e-01, -5.39316416e-01,
          1.17205620e-01, -8.74421120e-01, -8.75843048e-01,
          -9.44814026e-01, -1., -9.48549628e-01, -9.94394958e-01, -1.,
          -1., -7.91593552e-01, -6.18083596e-01, -9.96575236e-01,
          -9.86322761e-01, -1., -1., -1., -1., -1., -4.00168896e-02,
          -9.12496865e-01, -9.77658987e-01, -9.97874558e-01,
          -9.87628877e-01, -9.91687655e-01, -9.94432628e-01, -1., -1.,
          2.76702642e-02, -8.91632915e-01, -9.08382058e-01,
          -9.69314873e-01, -1., -9.81804013e-01, -9.97837603e-01,
          -9.91756558e-01, -9.90342677e-01, 2.21685410e-01,
          -8.60494375e-01, -8.86525750e-01, -9.66635406e-01,
          -9.60414708e-01, -9.68445897e-01, -9.97874558e-01,
          -9.98419404e-01, -9.98622298e-01, 2.46980548e-01,
          -8.70681942e-01, -8.85225892e-01, -9.79764044e-01,
          -9.51080024e-01, -9.82980192e-01, -9.96791244e-01,
          -9.96731520e-01, -9.98650908e-01, 3.32827568e-02,
          -9.21242595e-01, -9.51939344e-01, -9.76050377e-01, -1.,
          -9.87355351e-01, -9.95559335e-01, -1., -1. ]
      - [ 1.94483638e-01, 7.95055628e-02, -5.52305341e-01,
          -6.26350522e-01, -3.27627599e-01, -8.57007980e-01,
          -9.15654123e-01, -8.97267699e-01, -9.33147550e-01,
          9.33326483e-02, 3.87603045e-02, 1.77193642e-01,
          -6.68790281e-01, -9.75084901e-01, -8.36326838e-01,
          -9.33435798e-01, -9.37984526e-01, -9.15132046e-01,
          3.06955338e-01, -2.27064610e-01, -9.91425514e-01,
          -8.38883579e-01, -8.88611853e-01, -9.97995973e-01,
          -9.68956530e-01, -9.84063745e-01, -9.94293869e-01,
          2.66843081e-01, 8.14712048e-03, -2.08159626e-01,
          -8.58988762e-01, -9.81941283e-01, -9.49951887e-01,
          -9.76817310e-01, -9.52380896e-01, -8.85462105e-01,
          2.31760621e-01, -8.00009370e-02, -6.17673993e-01,
          -7.70231068e-01, -8.83301318e-01, -9.62887704e-01,
          -9.58904088e-01, -9.52244520e-01, -8.66367757e-01,
          6.06082439e-01, -9.76798177e-01, -5.95171213e-01,
          -8.49504530e-01, -1., -9.68105078e-01, -9.92337167e-01,
          -9.98067617e-01, -9.92874086e-01, 2.74244189e-01,
          -2.48866379e-01, -9.92402673e-01, -8.27450871e-01,
          -8.59872282e-01, -9.94100273e-01, -9.66861665e-01,
          -9.89864886e-01, -9.95221019e-01, 3.27643871e-01,
          -3.21264744e-01, -8.47373545e-01, -9.94082868e-01,
          -9.39236164e-01, -9.70186353e-01, -9.96758521e-01, -1.,
          -9.98176873e-01, 2.59568095e-01, -5.72080016e-01,
          -9.98038948e-01, -9.16981101e-01, -9.55801129e-01, -1.,
          -9.92766738e-01, -9.96438086e-01, -1., -6.83160424e-02,
          -9.84481096e-01, -9.00226653e-01, -1., -9.92172241e-01, -1.,
          -1., -1., -1., 1.42141223e-01, -9.77777839e-01,
          -8.04182291e-01, -9.95604396e-01, -9.88278389e-01,
          -9.95061696e-01, -1., -1., -1., 2.69424319e-01,
          -9.81502891e-01, -6.83711886e-01, -9.10780489e-01, -1.,
          -9.86842096e-01, -1., -9.96380091e-01, -1., 2.34873414e-01,
          -9.26624656e-01, -7.73101449e-01, -9.98154998e-01,
          -9.72602725e-01, -1., -9.81424212e-01, -1., -1.,
          -7.79172540e-01, -2.43142307e-01, -9.94160593e-01,
          -9.39725935e-01, -1., -1., -9.96994734e-01, -1., -1.,
          -6.99231148e-01, -8.09110641e-01, -9.77046669e-01,
          -8.66666496e-01, -1., -1., -1., -1., -1., -7.03840435e-01,
          -4.93349373e-01, -9.97860968e-01, -9.97151017e-01,
          -9.88944948e-01, -1., -1., -1., -1., -7.40784287e-01,
          -3.10924709e-01, -1., -9.51156795e-01, -1., -1.,
          -9.98550713e-01, -1., -1., -7.76662886e-01, -2.02476978e-01,
          -9.96763766e-01, -9.57066178e-01, -1., -9.93957758e-01, -1.,
          -9.97881353e-01, -1., -7.60599494e-01, -3.60430539e-01,
          -9.96503472e-01, -9.69258547e-01, -1., -9.84790802e-01, -1.,
          -1., -1., -8.00126255e-01, -5.61485112e-01, -1.,
          -9.80738401e-01, -1., -9.94350255e-01, -9.98511910e-01, -1.,
          -1. ]
      - [ 1.97242141e-01, -3.86340380e-01, -7.74690270e-01,
          -7.73843229e-01, -4.75775778e-01, -8.77435029e-01,
          -8.62126112e-01, -8.40437055e-01, -6.41596556e-01,
          3.09332609e-01, -2.84606814e-01, -4.13439095e-01,
          -7.91932464e-01, -7.98414469e-01, -8.58282983e-01,
          -8.98639977e-01, -9.05038774e-01, -8.56091380e-01,
          -2.72495806e-01, -5.25229931e-01, -7.21328855e-01,
          -9.67770636e-01, -5.49371600e-01, -8.31663191e-01,
          -9.06866372e-01, -9.92031872e-01, -9.42938566e-01,
          -2.61558115e-01, -5.68228841e-01, -5.75505733e-01,
          -8.33169520e-01, -8.39729011e-01, -8.72954786e-01,
          -9.38177407e-01, -9.34065878e-01, -7.18060613e-01,
          -4.52073216e-01, -7.00002253e-01, -7.99819827e-01,
          -8.56145263e-01, -9.07446206e-01, -9.32647169e-01,
          -9.19520497e-01, -9.00668621e-01, -4.10540104e-01,
          2.57784128e-02, -5.84686995e-01, -9.72144783e-01,
          -7.18811035e-01, -9.29233372e-01, -9.79362130e-01,
          -9.31034565e-01, -9.69082117e-01, -9.78622317e-01,
          -4.33526874e-01, -5.65608144e-01, -8.42355132e-01,
          -9.68627453e-01, -7.57961214e-01, -9.50835764e-01,
          -9.78557527e-01, -9.89864886e-01, -9.83273625e-01,
          -4.37950730e-01, -6.44793868e-01, -7.99801648e-01,
          -8.38264346e-01, -9.65277791e-01, -9.40372765e-01,
          -9.52998400e-01, -9.66275632e-01, -9.56244290e-01,
          -3.13398600e-01, -4.25627112e-01, -8.31350446e-01,
          -9.67924535e-01, -7.79005527e-01, -9.42001939e-01,
          -9.63833570e-01, -9.89314318e-01, -9.78552282e-01,
          -5.54770589e-01, -9.51503396e-01, -7.34693587e-01,
          -9.30122674e-01, -9.90215302e-01, -8.55263114e-01,
          -9.82623816e-01, -9.93541420e-01, -9.96658325e-01,
          -3.26236784e-01, -8.84848654e-01, -7.90874302e-01,
          -7.01098323e-01, -9.82417583e-01, -9.50617254e-01,
          -9.57446754e-01, -9.69581604e-01, -9.89547014e-01,
          -4.58645999e-01, -6.36994183e-01, -9.54545438e-01,
          -7.50928879e-01, -9.63041902e-01, -9.77443576e-01,
          -9.20577228e-01, -9.83710408e-01, -9.79142547e-01,
          -4.71696913e-01, -9.58071232e-01, -7.91814923e-01,
          -9.76014793e-01, -8.72146130e-01, -9.85925376e-01, -1.,
          -9.92850780e-01, -9.90783393e-01, -6.38645411e-01,
          -5.44887900e-01, -9.56204414e-01, -8.13698351e-01,
          -9.88444626e-01, -9.21182394e-01, -9.98497367e-01,
          -9.57597256e-01, -1., -7.00415254e-01, -9.49385405e-01,
          -7.68936515e-01, -9.93333340e-01, -9.75051939e-01,
          -9.84127045e-01, -9.68798757e-01, -1., -9.90147769e-01,
          -8.09873462e-01, -7.30350614e-01, -9.74331558e-01,
          -8.51851821e-01, -9.94472444e-01, -9.77715909e-01, -1., -1.,
          -1., -8.10938895e-01, -7.35894442e-01, -9.59064305e-01,
          -8.81748021e-01, -9.92613137e-01, -9.75609660e-01, -1.,
          -9.88950253e-01, -1., -7.42785811e-01, -7.04024792e-01,
          -8.80258739e-01, -8.64042878e-01, -9.34694052e-01,
          -8.97281349e-01, -9.92877483e-01, -9.76694882e-01,
          -9.96306539e-01, -7.68080771e-01, -6.87985778e-01,
          -8.77622366e-01, -9.11392272e-01, -9.08196926e-01,
          -9.23954070e-01, -9.85663116e-01, -9.89047110e-01,
          -9.89150047e-01, -6.00252688e-01, -6.35730982e-01,
          -9.76573884e-01, -8.49117279e-01, -9.96342659e-01,
          -9.32203293e-01, -9.98511910e-01, -9.22077239e-01, -1. ]
      - [ -5.44827461e-01, -6.21502995e-01, -9.18070078e-01,
          -8.99703622e-01, -7.60676146e-01, -9.49858308e-01,
          -9.62693930e-01, -8.84152889e-01, -8.07787180e-02,
          1.35999322e-01, -2.58028746e-01, -4.50099051e-01,
          -8.70488644e-01, -8.77689660e-01, -9.16167200e-01,
          -9.54615831e-01, -9.41860497e-01, -3.69005740e-01,
          1.55072808e-01, -5.06881237e-01, -7.79206693e-01,
          -9.04318571e-01, -8.48105550e-01, -9.45891738e-01,
          -9.57314610e-01, -9.72111583e-01, -9.08701718e-01,
          -2.36459076e-01, -6.19145453e-01, -6.69383109e-01,
          -9.16585565e-01, -9.11963820e-01, -9.42252159e-01,
          -9.64452505e-01, -9.67032909e-01, -5.68280339e-01,
          -6.05148911e-01, -7.82002449e-01, -9.04418468e-01,
          -8.48153293e-01, -9.65796351e-01, -9.68385994e-01,
          -9.14383471e-01, -2.16810465e-01, -9.55454588e-01,
          -3.36415946e-01, -7.23898053e-01, -8.64438057e-01,
          -9.88118768e-01, -9.34288144e-01, -9.41838741e-01,
          -8.92720461e-01, -1., -9.59619880e-01, -3.84715080e-01,
          -6.62893176e-01, -8.68945837e-01, -9.11764622e-01,
          -8.02547336e-01, -9.60668623e-01, -9.62962985e-01,
          -9.83108103e-01, -9.80884135e-01, -2.50163436e-01,
          -6.49318814e-01, -8.63230824e-01, -9.01380718e-01,
          -9.53125000e-01, -9.42857206e-01, -9.77309585e-01,
          -9.79472160e-01, -9.30720150e-01, 1.02869511e-01,
          -6.45306468e-01, -8.64688158e-01, -8.90565991e-01,
          -8.61878455e-01, -9.56969142e-01, -9.65641916e-01,
          -9.73285854e-01, -9.67828453e-01, -1.49588048e-01,
          -7.38118172e-01, -9.97732401e-01, -8.98016870e-01,
          -9.29549992e-01, -9.73684192e-01, -9.70460474e-01,
          -9.74165738e-01, -9.88304079e-01, -4.06387091e-01,
          -7.65656948e-01, -9.98098850e-01, -7.93406129e-01,
          -9.75091577e-01, -9.92592573e-01, -9.76950347e-01,
          -9.01140332e-01, -9.96515691e-01, -3.84711146e-01,
          -7.22543359e-01, -8.95833254e-01, -9.96282518e-01,
          -9.70149219e-01, -9.54887211e-01, -8.70035410e-01, -1.,
          -9.88412559e-01, -4.41768527e-01, -9.76939142e-01,
          -8.05850029e-01, -8.87454033e-01, -9.72602725e-01,
          -9.61998582e-01, -8.82353187e-01, -9.98212695e-01,
          -9.17050600e-01, -5.42032957e-01, -9.52618480e-01,
          -7.34306812e-01, -9.94520545e-01, -9.22964036e-01, -1.,
          -9.69947398e-01, -1., -9.19028580e-01, -9.06454504e-01,
          -9.89877105e-01, -6.84774339e-01, -1., -1., -8.35979402e-01,
          -1., -1., -9.60591197e-01, -8.97624969e-01, -6.92865729e-01,
          -9.91443872e-01, -8.20512772e-01, -1., -8.60724449e-01, -1.,
          -9.68816400e-01, -1., -5.58857858e-01, -9.75990415e-01,
          -7.63157845e-01, -1., -9.57525432e-01, -1., -9.78260875e-01,
          -1., -9.67637658e-01, -5.21957457e-01, -9.93808031e-01,
          -7.73462474e-01, -1., -8.97959411e-01, -1., -9.75783467e-01,
          -9.97881353e-01, -9.77839351e-01, -5.08729219e-01,
          -9.95218158e-01, -7.62237787e-01, -9.98191655e-01,
          -8.75410140e-01, -1., -9.79928315e-01, -1., -9.92766738e-01,
          -4.48449969e-01, -9.76798177e-01, -7.83308625e-01,
          -9.96789753e-01, -9.28681374e-01, -1., -9.86607134e-01, -1.,
          -9.88130569e-01 ]
      - [ -5.50344706e-01, -8.52186322e-01, -8.39064896e-01,
          -8.74138236e-01, -6.63810015e-01, 2.79480696e-01,
          -8.08598042e-01, -9.71584678e-01, -9.46146607e-01,
          -4.52000201e-01, -7.98450470e-01, -4.98978972e-01,
          -8.40764642e-01, -8.14269483e-01, 3.51298690e-01,
          -3.67625415e-01, -9.68992233e-01, -9.11441982e-01,
          -7.88130939e-01, -7.36239135e-01, -9.54983890e-01,
          -8.96387041e-01, -8.02535951e-01, -8.43687236e-01,
          6.91127777e-02, -8.44621658e-01, -9.51497793e-01,
          -7.31835306e-01, -8.98168445e-01, -7.67342091e-01,
          -9.04668987e-01, -8.12640965e-01, 1.54956579e-01,
          -9.14993405e-01, -9.83516455e-01, -8.94272745e-01,
          -7.26751208e-01, -8.02002430e-01, -8.46708894e-01,
          -7.76225090e-01, 1.81086183e-01, -9.27148879e-01,
          -9.67465758e-01, -9.75167155e-01, -9.76241529e-01,
          -7.01254010e-01, -7.47099876e-01, -8.97864282e-01,
          -8.61385763e-01, -9.69671428e-01, -9.77485955e-01,
          -6.78161323e-01, -3.44927371e-01, -9.14489210e-01,
          -8.30443978e-01, -8.09951901e-01, -9.33523238e-01,
          -9.31372523e-01, -9.04458404e-01, -9.27236974e-01,
          -1.83236837e-01, -9.42567587e-01, -9.76105154e-01,
          -8.42415869e-01, -8.71038079e-01, -9.44499493e-01,
          -9.34911251e-01, -9.79166687e-01, -9.00621235e-01,
          -2.62560606e-01, -9.50146616e-01, -9.85414743e-01,
          -4.15073216e-01, -7.71164358e-01, -9.01947916e-01,
          -9.20754671e-01, -9.17127073e-01, -9.17680144e-01,
          -9.22231078e-02, -9.18076634e-01, -9.62466478e-01,
          -8.68080258e-01, -8.93307388e-01, -9.07029390e-01,
          -9.45231259e-01, -9.56947207e-01, -9.21052635e-01,
          -9.89574254e-01, -9.26802933e-01, -5.22138298e-01,
          -8.40951681e-01, -9.25252616e-01, -9.56273735e-01,
          -9.25274551e-01, -9.83882785e-01, -9.87654328e-01,
          -9.91134763e-01, -8.32698941e-01, -4.80836451e-01,
          -8.38345289e-01, -9.21387255e-01, -9.37499940e-01,
          -8.81040633e-01, -9.77256536e-01, -9.84962404e-01,
          -7.68951893e-01, -4.15385008e-01, -9.51332629e-01,
          -5.40662408e-01, -8.38574171e-01, -9.29826498e-01,
          -9.61254656e-01, -9.40639257e-01, -9.88740325e-01,
          -9.69040334e-01, -9.89276171e-01, -8.24884653e-01,
          -5.23212433e-01, -8.62842917e-01, -9.21167970e-01,
          -9.45205390e-01, -9.92296398e-01, -9.01477933e-01,
          -9.92486835e-01, -9.36395884e-01, -9.35222864e-01,
          -7.44228244e-01, -7.19450474e-01, -9.89288449e-01,
          -9.43333268e-01, -9.83367980e-01, -9.31217194e-01,
          -9.84399378e-01, -9.82046664e-01, -9.70443368e-01,
          -6.13651395e-01, -9.44377244e-01, -9.37967956e-01,
          -9.91452992e-01, -9.81574893e-01, -9.72144902e-01,
          -9.77611959e-01, -9.98582542e-01, -9.90338206e-01,
          -6.18310928e-01, -9.44777966e-01, -8.97660792e-01,
          -9.74293053e-01, -9.94459808e-01, -1., -1., -1., -1.,
          -5.57089210e-01, -9.25696611e-01, -9.41747487e-01,
          -9.78533089e-01, -9.71428633e-01, -9.75830913e-01, -1.,
          -9.91525412e-01, -9.98153269e-01, -6.19701743e-01,
          -9.46204424e-01, -9.23076928e-01, -9.74683523e-01,
          -9.14754331e-01, -9.77186203e-01, -9.92831528e-01,
          -9.84665930e-01, -9.96383369e-01, -1.81530178e-01,
          -8.88631105e-01, -8.82869542e-01, -9.06902134e-01,
          -9.90856588e-01, -9.71751392e-01, -9.85119045e-01,
          -9.35064375e-01, -9.88130569e-01 ]
      - [ -7.79310405e-01, -7.44683385e-01, 1.00000024e+00,
          -7.05013335e-01, -6.69508040e-01, -3.99246216e-02,
          -9.15654123e-01, -9.27868783e-01, -7.88300574e-01,
          -9.21333253e-01, -9.11407471e-01, -7.80038655e-01,
          6.60295844e-01, -8.84484649e-01, -9.72055495e-01,
          -9.80334520e-01, -8.62403154e-01, -9.59412575e-01,
          -9.31079268e-01, -8.89908910e-01, -9.46409404e-01,
          -5.19640207e-01, -9.13928270e-01, -9.67935860e-01,
          -9.68956530e-01, -9.00398493e-01, -9.68616247e-01,
          -8.26947570e-01, -9.02241766e-01, -7.95913458e-01,
          -4.57797408e-01, -9.07449126e-01, -9.49951887e-01,
          -9.81454074e-01, -8.79120767e-01, -9.11893964e-01,
          -6.86684847e-02, -2.78001308e-01, -1.23535573e-01,
          -7.92209148e-01, -9.27566946e-01, -8.88660908e-01,
          -9.76027369e-01, -9.63705838e-01, -9.49515462e-01,
          -2.20090806e-01, -6.31090641e-01, -9.23862457e-01,
          -7.98019230e-01, -6.02358818e-01, -9.24953222e-01,
          -7.77778029e-01, -9.67149734e-01, -9.66745794e-01,
          -8.30443978e-01, -8.91399801e-01, -8.97435844e-01,
          -4.78431046e-01, -8.02547336e-01, -9.66568351e-01,
          -9.66861665e-01, -8.93581092e-01, -9.95221019e-01,
          -9.04136181e-01, -9.59273338e-01, -9.20713544e-01,
          -5.16765475e-01, -9.42708373e-01, -9.55279589e-01,
          -9.82171774e-01, -9.26686168e-01, -9.89061058e-01,
          -9.22250330e-01, -9.15328920e-01, -9.31363523e-01,
          -6.15094125e-01, -8.67403328e-01, -9.66323674e-01,
          -9.81916785e-01, -9.05610025e-01, -9.83914196e-01,
          -8.38633895e-01, -9.20465529e-01, -9.41043019e-01,
          -9.41454113e-01, -7.10372090e-01, -9.07894731e-01,
          -9.87836659e-01, -9.84930038e-01, -9.93316591e-01,
          -8.92297924e-01, -9.15151656e-01, -9.37262297e-01,
          -8.76922846e-01, -7.90476203e-01, -9.35802400e-01,
          -9.87588644e-01, -9.54372466e-01, -9.89547014e-01,
          -7.09272623e-01, -9.21387255e-01, -9.37499940e-01,
          -8.95910561e-01, -7.66879737e-01, -9.71804500e-01,
          -9.42237973e-01, -9.87330317e-01, -9.90730047e-01,
          -8.42548847e-01, -9.22431767e-01, -9.29826498e-01,
          -9.53874588e-01, -8.90410960e-01, -7.81843543e-01,
          -9.07120943e-01, -9.92850780e-01, -9.72350180e-01,
          -1.48055196e-01, -9.02743161e-01, -9.18248236e-01,
          -9.04109478e-01, -9.76889193e-01, -9.16256249e-01,
          -7.74605393e-01, -8.30389023e-01, -8.38057160e-01,
          -1.84133053e-01, -7.38250256e-01, -9.35730696e-01,
          -9.51666594e-01, -9.79209960e-01, -8.99471223e-01,
          -9.65678632e-01, -9.82046664e-01, -9.11330163e-01,
          -8.20842385e-01, -9.48004842e-01, -9.50802207e-01,
          -9.37321901e-01, -9.88944948e-01, -9.77715909e-01,
          -9.32835817e-01, -8.34160089e-01, -9.13043737e-01,
          -8.54934216e-01, -9.48379397e-01, -9.53216374e-01,
          -9.40874040e-01, -9.90766406e-01, -9.45121765e-01,
          -8.21739197e-01, -8.67403328e-01, -9.93527532e-01,
          -6.32371604e-01, -9.39318895e-01, -9.54692483e-01,
          -9.67799604e-01, -9.59183753e-01, -9.51661825e-01,
          -8.53276312e-01, -9.93644059e-01, -9.94459808e-01,
          -8.47881258e-01, -9.40227151e-01, -9.33566451e-01,
          -9.74683523e-01, -9.60655808e-01, -9.16349471e-01,
          -8.52329850e-01, -9.86856520e-01, -9.96383369e-01,
          -9.12713289e-01, -9.53596294e-01, -9.61932600e-01,
          -9.61476743e-01, -9.81713176e-01, -9.37852979e-01,
          -8.54166746e-01, -9.09090102e-01, -9.88130569e-01 ]
      - [ 2.13793993e-01, 1.42215610e-01, -5.40600896e-01,
          -6.06684864e-01, -1.45291388e-01, -8.19867790e-01,
          -8.71858478e-01, -8.38251233e-01, -7.95728624e-01,
          6.93327188e-02, 8.30571651e-02, 2.74953485e-01,
          -6.05096102e-01, -6.89694166e-01, -7.56486475e-01,
          -8.47202659e-01, -8.46899271e-01, -7.49080122e-01,
          2.91639566e-01, 8.48621130e-02, -4.70524728e-01,
          -9.71736431e-01, -3.11397076e-01, -8.33667159e-01,
          -8.73880982e-01, -9.96015966e-01, -8.60199511e-01,
          2.69485116e-01, -6.51727915e-02, 4.49008942e-02,
          -7.19962060e-01, -7.87810206e-01, -8.55630398e-01,
          -9.24266994e-01, -9.34065878e-01, -7.35681832e-01,
          -1.61658466e-01, -4.60001707e-01, -7.07845211e-01,
          -7.90211141e-01, -8.24951172e-01, -9.12028611e-01,
          -9.04109478e-01, -8.22349668e-01, 1.75948262e-01,
          3.90616417e-01, -2.90023506e-01, -9.79572833e-01,
          -3.26730728e-01, -8.51727009e-01, -9.88743007e-01,
          -5.32567620e-01, -9.24637675e-01, -9.21615124e-01,
          3.42323899e-01, -1.44793928e-01, -6.98005617e-01,
          -9.80392158e-01, -6.05094612e-01, -9.25270379e-01,
          -9.35672581e-01, -9.98310804e-01, -9.76105154e-01,
          3.44715357e-01, -4.97717857e-02, -5.79781651e-01,
          -7.79092789e-01, -9.84375000e-01, -8.40994000e-01,
          -9.33549404e-01, -9.57477987e-01, -9.61713791e-01,
          1.72247410e-01, -1.57892942e-01, -6.31324172e-01,
          -9.75471675e-01, -2.76243150e-01, -8.52198482e-01,
          -9.00542378e-01, -9.87533391e-01, -8.65951777e-01,
          1.17785335e-01, -9.65082407e-01, -3.28797460e-01,
          -7.52596498e-01, -9.96086121e-01, -4.47368383e-01,
          -9.84361410e-01, -8.90204370e-01, -9.29824531e-01,
          2.52347827e-01, -9.47474837e-01, -4.27756011e-01,
          -3.97800982e-01, -9.85347986e-01, -8.69135678e-01,
          -9.39716220e-01, -9.39163268e-01, -9.72125471e-01,
          3.40852857e-01, -3.17919016e-01, -9.88636374e-01,
          -5.83642244e-01, -9.53091621e-01, -9.90601480e-01,
          -9.13356960e-01, -9.72850680e-01, -9.60602582e-01,
          2.79115319e-01, -9.85324919e-01, -4.64329839e-01,
          -9.77859795e-01, -7.57990837e-01, -9.54961240e-01,
          -9.75232244e-01, -9.82126892e-01, -9.90783393e-01,
          -7.91719615e-01, -1.22194707e-01, -9.88321185e-01,
          -5.04108906e-01, -9.98074114e-01, -6.84729457e-01,
          -9.98497367e-01, -7.10247874e-01, -1., -7.57253647e-01,
          -9.89877105e-01, -4.09334421e-01, -9.93333340e-01,
          -9.87526000e-01, -9.94709015e-01, -8.09672475e-01, -1., -1.,
          -7.97685742e-01, -3.10761750e-01, -9.91443872e-01,
          -7.43589640e-01, -9.98157501e-01, -8.38440359e-01,
          -9.85074639e-01, -9.95747685e-01, -9.51690972e-01,
          -7.93102980e-01, -1.65666640e-01, -9.85380113e-01,
          -7.42930532e-01, -9.98153269e-01, -8.17072511e-01, -1.,
          -9.55801129e-01, -9.93527532e-01, -7.74153471e-01,
          -3.77711058e-02, -9.28802490e-01, -7.87119806e-01,
          -9.46938872e-01, -8.12689543e-01, -9.94301975e-01,
          -9.66101646e-01, -9.96306539e-01, -7.64340103e-01,
          -4.96117473e-02, -9.05594409e-01, -6.90777183e-01,
          -9.08196926e-01, -5.66538215e-01, -9.88530457e-01,
          -9.32092071e-01, -9.96383369e-01, -8.15306544e-01,
          -1.33411050e-01, -9.70717371e-01, -4.15730655e-01, -1.,
          -4.40676987e-01, -1., -3.37656498e-01, -1. ]
      - [ -4.31723893e-01, -3.84100795e-01, -7.64448881e-01,
          -5.88985801e-01, -6.46715999e-01, -9.09004152e-01,
          -9.01055574e-01, 1.91257715e-01, -8.88579249e-01,
          -3.70666981e-01, -3.75415385e-01, -5.09127975e-02,
          -5.15924096e-01, -8.50509584e-01, -8.94211113e-01,
          -8.56279850e-01, -6.39537573e-02, -7.12179720e-01,
          -8.99814963e-02, -1.97248101e-01, -5.62700629e-01,
          -7.51636982e-01, -6.25320911e-01, -8.87775421e-01,
          -9.30150211e-01, -9.36255038e-01, -7.51782775e-01,
          -4.24041569e-01, -6.02852106e-01, -5.55097640e-01,
          -7.89475441e-01, -9.05191779e-01, -9.24927831e-01,
          -9.16539013e-01, 1.00733519e-01, -6.21143937e-01,
          -4.67809916e-01, -4.32001710e-01, -8.35888386e-01,
          -7.58243084e-01, -8.77265096e-01, -9.17526901e-01,
          -1.11300647e-01, -8.83476675e-01, -9.49515462e-01,
          -7.33624101e-02, -4.29234624e-01, -7.90157557e-01,
          -7.66335964e-01, -9.44397628e-01, -9.54971910e-01,
          -7.85440862e-01, -9.72946882e-01, -9.52494025e-01,
          -1.71484590e-01, -5.42983770e-01, -7.96771049e-01,
          -8.45097959e-01, -6.87897325e-01, -9.21337247e-01,
          -9.33723271e-01, -9.64527011e-01, -9.04420614e-01,
          -5.44319868e-01, -6.53843701e-01, -8.59266520e-01,
          -9.01380718e-01, -9.46180582e-01, -9.08074677e-01,
          -9.48136151e-01, -9.23753619e-01, 1.21239543e-01,
          -1.55516267e-02, -3.52400720e-01, -7.23493099e-01,
          -8.60377312e-01, -6.35359168e-01, -9.19551075e-01,
          -9.42133725e-01, -9.60819244e-01, -7.77480006e-01,
          -1.56655192e-01, -5.71289778e-01, -8.11791182e-01,
          -9.84891415e-01, -9.02152717e-01, -7.82894731e-01,
          -9.79148567e-01, -9.95694280e-01, -9.86633241e-01,
          -1.35879934e-01, -6.54545963e-01, -8.55513155e-01,
          -8.15384269e-01, -9.95604396e-01, -9.62962925e-01,
          -9.87588644e-01, -9.16349471e-01, -9.75609779e-01,
          -1.66666031e-01, -5.72254300e-01, -8.21969509e-01,
          -7.95538604e-01, -9.68727767e-01, -9.58646595e-01,
          -8.41154456e-01, -9.85520363e-01, -9.76825058e-01,
          -1.30773544e-01, -7.12787867e-01, -8.22224259e-01,
          -9.87084866e-01, -8.40182662e-01, -9.71850812e-01,
          -8.88545156e-01, -9.98212695e-01, -9.26267207e-01,
          -2.92346418e-01, -9.71321702e-01, -5.97080708e-01,
          -9.91780818e-01, -9.19112206e-01, -8.76847446e-01, -1.,
          -9.36395884e-01, -1., -8.37774754e-01, -6.83297276e-01,
          -9.78576899e-01, -9.91666675e-01, -8.79417777e-01,
          -9.94709015e-01, -1., -9.91023362e-01, -1., -3.93054008e-01,
          -9.80652988e-01, -8.45989466e-01, -1., -9.55779791e-01,
          -9.77715909e-01, -9.55223918e-01, -9.98582542e-01,
          -9.51690972e-01, -3.34125280e-01, -9.81992781e-01,
          -7.04678297e-01, -9.92287934e-01, -9.39058185e-01,
          -9.45121765e-01, -9.98550713e-01, -9.66850817e-01,
          -9.93527532e-01, -2.84817874e-01, -9.75232184e-01,
          -7.28155017e-01, -9.30232525e-01, -9.87755120e-01,
          -9.81873155e-01, -9.85754967e-01, -9.93644059e-01,
          -9.92613137e-01, -1.75811589e-01, -9.67722654e-01,
          -6.88811183e-01, -9.43942070e-01, -9.47541118e-01,
          -9.46767867e-01, -9.92831528e-01, -1., -9.98191655e-01,
          -2.05565631e-01, -9.75638092e-01, -7.51097739e-01,
          -9.83948648e-01, -9.45139527e-01, -9.15254116e-01,
          -9.98511910e-01, -9.09090102e-01, -1. ]
      - [ -2.16551304e-01, 8.17451477e-02, -7.67374992e-01,
          -6.08651459e-01, -4.41587746e-01, -8.45865905e-01,
          1.53284311e-01, -8.27322304e-01, -8.77437174e-01,
          -1.77333772e-01, 2.60244608e-01, -2.23995447e-02,
          -4.03397679e-01, -7.14609265e-01, -7.48502433e-01,
          -2.69289434e-01, -8.35271358e-01, -6.82659388e-01,
          -2.57179976e-01, -1.55963719e-01, -4.98391867e-01,
          -3.92736018e-01, -4.78485584e-01, -8.09619069e-01,
          -7.38058865e-01, 3.34659934e-01, -8.17403436e-01,
          -2.64200151e-01, 8.14712048e-03, -3.14281821e-01,
          -5.43199539e-01, -8.26184988e-01, -7.94032753e-01,
          1.22102022e-01, -8.73626232e-01, -5.59469700e-01,
          1.11588955e-01, -6.20002031e-01, -5.22092462e-01,
          -6.80320859e-01, -8.24951172e-01, 8.45350027e-02,
          -8.57876599e-01, -9.52244520e-01, -9.70302403e-01,
          4.10444617e-01, -5.10445237e-02, -6.17455363e-01,
          -5.08909464e-01, -8.61836553e-01, -8.96810651e-01,
          -7.31801093e-01, -9.57487941e-01, -8.64607871e-01,
          -4.11690056e-01, -3.89137745e-01, -6.75213575e-01,
          -5.52940905e-01, -5.60508490e-01, -8.95771861e-01,
          -8.53801370e-01, 4.94932175e-01, -8.61409903e-01,
          -3.36834490e-01, -3.59726250e-01, -5.81763864e-01,
          -4.89152014e-01, -8.40277910e-01, -8.23602736e-01,
          -8.54132891e-01, 2.36070871e-01, -8.96080256e-01,
          -3.91149759e-01, -2.28831053e-01, -5.60726643e-01,
          -4.47169542e-01, -3.70165765e-01, -8.67165685e-01,
          -7.93851495e-01, 2.60907531e-01, -8.12332511e-01,
          4.35804129e-02, -5.14058471e-02, -3.10656846e-01,
          -5.73181748e-01, -7.41683245e-01, -3.88157845e-01,
          -8.66203308e-01, -9.09580112e-01, -9.18128610e-01,
          1.65935874e-01, -2.42438912e-02, -5.13307452e-01,
          -2.26372063e-01, -8.15384626e-01, -7.99999833e-01,
          -8.68794203e-01, -7.41443872e-01, -8.65853727e-01,
          2.55639791e-01, 3.12138796e-02, -4.96211708e-01,
          -4.05203223e-01, -8.73489618e-01, -8.96616518e-01,
          -6.31767035e-01, -9.60180998e-01, -8.23870480e-01,
          4.32661176e-01, -1.00627661e-01, -5.22809327e-01,
          -7.85978138e-01, -6.75799072e-01, -9.36664283e-01,
          -8.45201552e-01, -9.82126892e-01, -9.26267207e-01,
          4.57968116e-01, -5.84788084e-01, -1., -6.27396703e-01,
          -8.72890651e-01, -9.80295599e-01, -9.62434232e-01,
          -9.22261655e-01, -9.19028580e-01, -8.53168488e-01,
          1.10628963e-01, -1., -7.96666443e-01, -1., -1.,
          -9.00156021e-01, -1., -9.40886736e-01, 3.90615344e-01,
          -9.97581601e-01, -4.16043341e-01, -6.78062558e-01,
          -9.96315002e-01, -7.15877831e-01, -9.92537320e-01,
          -9.82990801e-01, -9.61352766e-01, 3.38883519e-01,
          -5.59423983e-01, -1., -5.37274897e-01, -8.74422967e-01,
          -9.81707275e-01, -9.42028999e-01, -7.79005527e-01,
          -9.80582595e-01, 3.65120292e-01, -4.62538838e-01,
          -3.26859951e-01, -9.92844343e-01, -5.22450030e-01,
          -5.34745038e-01, -9.51566935e-01, -1., -9.75992620e-01,
          4.22692060e-01, -4.53676224e-01, -2.06293762e-01,
          -9.72875178e-01, -1.73772573e-01, -3.84028077e-01,
          -9.36917603e-01, -9.93428290e-01, -9.51175332e-01,
          2.65022755e-01, -4.30394709e-01, -9.97071743e-01,
          -7.54418373e-02, -7.38498449e-01, -9.26553547e-01,
          -8.77976298e-01, -1.03888273e-01, -7.56676793e-01 ]
      - [ 1.94483638e-01, -3.28109682e-01, -4.13314760e-01,
          -4.70991671e-01, -2.87741601e-01, -1.68058097e-01,
          -7.92377472e-01, -8.66666555e-01, -8.10584664e-01,
          3.59994173e-02, -4.44075525e-01, 5.72306395e-01,
          -3.69427443e-01, -6.60249114e-01, -1.47703707e-01,
          -7.03480780e-01, -8.68217111e-01, -5.12917399e-01,
          -4.53733921e-01, 4.99999881e-01, -4.53375757e-01,
          -2.55917370e-01, -2.40511119e-01, -7.29458690e-01,
          3.80676985e-02, -8.70518088e-01, -8.45934153e-01,
          1.62483931e-01, -4.64358985e-01, 8.28572869e-01,
          -4.65741754e-01, -6.88487351e-01, -6.64101243e-02,
          -7.77435303e-01, -9.01098788e-01, -2.59909153e-01,
          8.58379602e-02, -7.15255737e-07, -4.24707532e-01,
          -5.18482566e-01, 1.00598335e-02, -8.06186676e-01,
          -8.21917653e-01, -8.45272303e-01, -8.87154698e-01,
          -2.12159514e-01, -1.50812447e-01, -5.00463605e-01,
          2.83171892e-01, -8.09603989e-01, -8.29268515e-01,
          -2.03066051e-01, 3.15942407e-01, -8.62232566e-01,
          -3.52602065e-01, 4.77377534e-01, -5.80246806e-01,
          -4.17646706e-01, -2.86622465e-01, -7.60078669e-01,
          1.36450887e-01, -8.76689196e-01, -8.51851940e-01,
          -3.55219245e-01, 4.72852230e-01, -5.38156271e-01,
          -2.89941072e-01, -7.81250119e-01, -7.24223971e-01,
          -9.40030813e-02, -9.09090877e-01, -8.85141313e-01,
          -4.82058883e-01, 6.33867979e-01, -5.46999335e-01,
          -4.30188417e-01, -5.46961367e-01, -8.33489418e-01,
          1.15733624e-01, -8.80676806e-01, -8.82037580e-01,
          -2.72085130e-01, -2.68670797e-01, -4.82992649e-01,
          -7.35599279e-01, -8.04305434e-01, -5.52631497e-01,
          -9.23544765e-01, -8.36382985e-01, 2.78196454e-01,
          -2.18534887e-01, -1.69698238e-01, -4.65778887e-01,
          -2.70328224e-01, -8.35897446e-01, -8.32098603e-01,
          -9.13120508e-01, -5.43724477e-01, 2.78745174e-01,
          -3.23307633e-01, -8.90172720e-02, -4.94317770e-01,
          2.30485797e-01, -8.56432021e-01, -8.62781942e-01,
          -3.35736692e-01, 2.81447053e-01, -8.86442780e-01,
          1.00846291e-01, 2.01259613e-01, -1.95324183e-01,
          -5.73801279e-01, -1.82648361e-01, -8.47994208e-01,
          -5.23220837e-01, -9.17783737e-01, -3.54838192e-01,
          3.43789816e-01, -2.84289479e-01, -1.97081149e-01,
          -4.73971844e-01, -9.90370512e-01, -4.48276520e-01,
          -8.60255361e-01, -6.60778046e-01, -7.57085681e-01,
          -8.17644477e-01, 7.04988837e-01, -9.73986208e-01,
          -5.14999449e-01, -9.54261899e-01, -4.33864355e-01,
          -9.93759751e-01, -9.19210017e-01, -9.60591197e-01,
          3.33333135e-01, -3.21644425e-01, -3.92513931e-01,
          -9.51566935e-01, -7.05198467e-01, -5.54318190e-01,
          -7.08955348e-01, -1., -7.39131093e-01, 2.24733472e-01,
          -2.65306473e-01, -2.33916640e-02, -4.83290315e-01,
          -9.94459808e-01, -4.45119977e-01, -8.97101521e-01,
          -6.02209926e-01, -8.83495569e-01, 2.77290821e-01,
          -2.75542021e-01, 1.39160156e-01, -6.51162684e-01,
          -5.06123543e-01, -5.64956427e-01, -9.31623936e-01,
          -9.49152529e-01, -9.74145889e-01, 3.34163427e-01,
          -2.99462259e-01, 1.32866979e-01, -6.72693968e-01,
          -3.70493352e-01, -5.96956611e-01, -9.68458831e-01,
          -9.62760150e-01, -9.92766738e-01, 5.21822453e-01,
          -3.25986385e-01, -3.64567220e-01, -6.21187985e-01,
          -9.96342659e-01, -7.34462798e-01, -9.65773821e-01,
          -8.31167340e-01, -9.58456993e-01 ]
      - [ 7.37829208e-02, -1.38593078e-01, -2.29503453e-01,
          -7.10101485e-01, -3.90757918e-01, -3.77516866e-01,
          -8.98764074e-01, -8.58131588e-01, -4.47229266e-01,
          -2.47005701e-01, -2.36372411e-01, -4.03676033e-01,
          4.75043416e-01, -7.54983842e-01, -8.59106719e-01,
          -9.34204221e-01, -1.22400880e-01, -8.16496611e-01,
          -5.97796559e-01, -5.77982187e-01, -7.48923719e-01,
          9.99999523e-01, -6.00888550e-01, -9.26742315e-01,
          -9.48383033e-01, -2.55455136e-01, -9.36145544e-01,
          -3.84579182e-01, -4.38334942e-01, -3.50433409e-01,
          6.98993325e-01, -7.87810206e-01, -8.56394291e-01,
          -9.11607862e-01, -2.96324730e-01, -7.04215407e-01,
          -3.46729994e-01, -5.15176415e-01, 3.72320294e-01,
          -7.54564166e-01, -8.18883002e-01, -3.72760653e-01,
          -8.96526337e-01, -9.00244117e-01, -6.29674911e-01,
          -2.13586271e-01, -5.63805282e-01, -8.10201526e-01,
          -5.89312077e-01, 6.10222101e-01, -8.47434640e-01,
          -8.57082188e-01, -9.74051058e-01, -9.29118037e-01,
          -5.27174592e-01, -4.64408815e-01, -7.36444592e-01,
          7.87551641e-01, -5.10563970e-01, -9.22242522e-01,
          -9.31650221e-01, -4.55598593e-01, -9.34042633e-01,
          -5.67352951e-01, -6.19260669e-01, -7.61920333e-01,
          9.20258522e-01, -8.51052761e-01, -8.81376505e-01,
          -9.51634884e-01, -5.18689036e-01, -9.60556209e-01,
          -7.40489006e-01, -7.51913369e-01, -8.25903058e-01,
          9.04493213e-01, -6.70262218e-01, -9.81855154e-01,
          -9.74367797e-01, -3.59595597e-01, -9.51997995e-01,
          -6.14673018e-01, -8.75540733e-01, -9.67858016e-01,
          -8.70377719e-01, 9.81143117e-01, -7.10421801e-01,
          -9.97407377e-01, -9.98393893e-01, -9.70083892e-01,
          -4.65704620e-01, -7.52830267e-01, -8.79443407e-01,
          -6.55676961e-01, 3.49961877e-01, -8.72898161e-01,
          -9.96031761e-01, -9.77306902e-01, -9.83103812e-01,
          -3.96785021e-01, -6.53289258e-01, -8.38924825e-01,
          -6.53330266e-01, 3.45721245e-01, -8.85010123e-01,
          -8.92269254e-01, -9.75694895e-01, -9.49861228e-01,
          -3.81312788e-01, -8.07626724e-01, -7.89438605e-01,
          -8.98143411e-01, -6.72972381e-01, 2.24312186e-01,
          -6.81262612e-01, -9.83999312e-01, -9.38117146e-01,
          -6.33507133e-01, -8.00004005e-01, -8.54061127e-01,
          -8.46705616e-01, -9.66953993e-01, -6.17797017e-01,
          2.36474156e-01, -5.30765414e-01, -9.75837111e-01,
          -2.49185205e-01, -8.51117313e-01, -9.31504369e-01,
          -9.80105817e-01, -1., -9.76316512e-01, -9.76722896e-01,
          -9.95981872e-01, -9.92649913e-01, -6.30114555e-01,
          -8.98965478e-01, -9.05848503e-01, -8.74598622e-01,
          -9.89003420e-01, -9.58438396e-01, -7.43899643e-01,
          -1.12828016e-02, -5.74726939e-01, -5.96832395e-01,
          -8.19089651e-01, -8.69117200e-01, -8.75341713e-01,
          -9.71068025e-01, -7.77099490e-01, 1.21209383e-01,
          -5.21880269e-01, -9.75856662e-01, -6.05783761e-01,
          -8.05061698e-01, -9.03426170e-01, -9.21259582e-01,
          -9.69549775e-01, -8.42229545e-01, 1.39239669e-01,
          -9.22551751e-01, -9.95866835e-01, -6.59978032e-01,
          -8.71573746e-01, -9.86957490e-01, -9.91905630e-01,
          -9.85324025e-01, -6.87970281e-01, 7.92049170e-02,
          -9.26459134e-01, -1., -7.54746079e-01, -9.67977762e-01,
          -9.95630860e-01, -9.97605026e-01, -1., -7.93471098e-01,
          7.01996088e-02, -6.31825268e-01, -9.95572507e-01 ]
      - [ -2.12413371e-01, 3.93055677e-01, -5.71325064e-01,
          -3.01866770e-01, -4.07399714e-01, -6.19310975e-01,
          -9.12410021e-01, -6.63387775e-01, -8.96007299e-01,
          -4.56000209e-01, 6.78850174e-01, 2.79026747e-01,
          -1.88960373e-01, -7.25934267e-01, -6.58681989e-01,
          -9.15281415e-01, -7.71317899e-01, -8.56091380e-01,
          -4.62668180e-01, -5.52752852e-01, 1.55413628e-01,
          -8.70609641e-01, -8.22789073e-01, -5.57113886e-01,
          -9.35971141e-01, -9.10358667e-01, -5.83451629e-01,
          -2.61558115e-01, 2.97353506e-01, -4.28567290e-01,
          -4.35950339e-01, -8.35214317e-01, -6.28488958e-01,
          -9.24266994e-01, -7.93040097e-01, -6.47575736e-01,
          -3.74819994e-01, 2.35999823e-01, -7.25879431e-01,
          -5.10490537e-01, -9.01409984e-01, -7.69073248e-01,
          -9.29794490e-01, -7.49761403e-01, -9.77726340e-01,
          -5.36019444e-01, -7.65661359e-01, -1.02122426e-02,
          -8.25742066e-01, -9.61246848e-01, -5.32833636e-01,
          -8.23755026e-01, -9.51690793e-01, -5.84322453e-01,
          -4.28388834e-01, -6.47056103e-01, -6.93254471e-02,
          -8.82352889e-01, -7.51591742e-01, -5.18190682e-01,
          -9.59064364e-01, -9.61148679e-01, -6.10514045e-01,
          -4.64214683e-01, -7.19454527e-01, -3.07227373e-02,
          -8.42209101e-01, -8.88888955e-01, -3.56522620e-01,
          -9.40032423e-01, -9.53079164e-01, -7.64813185e-01,
          -6.63877130e-01, -7.25397825e-01, 5.50403595e-02,
          -8.54716897e-01, -6.85082912e-01, -6.16464376e-01,
          -9.11392272e-01, -9.66162086e-01, -6.94370091e-01,
          -7.43227541e-01, -7.86614835e-01, -8.59410286e-01,
          -2.04909325e-01, -9.41291630e-01, -8.61842096e-01,
          -9.65247631e-01, -6.92141712e-01, -9.79949832e-01,
          -6.31809652e-01, -7.05050945e-01, -5.51320314e-02,
          -7.27471948e-01, -9.22344327e-01, -5.95061421e-01,
          -9.37943220e-01, -8.70721936e-01, -8.41463447e-01,
          -4.59899127e-01, -6.48554921e-01, -1.43938720e-01,
          -7.43493915e-01, -9.55934584e-01, -5.90225458e-01,
          -9.13356960e-01, -9.85520363e-01, -7.54345655e-01,
          -5.66687107e-01, -8.25995564e-01, -8.80703747e-01,
          -4.42816615e-02, -8.44748855e-01, -9.90147769e-01,
          -9.13312852e-01, -6.38963461e-01, -8.43317866e-01,
          -6.32371902e-01, -9.01496291e-01, -8.80292118e-01,
          -8.41095686e-01, -1.64159775e-01, -8.17734182e-01,
          -9.83471036e-01, -9.71731484e-01, -8.94737124e-01,
          -7.39491701e-01, -9.37816322e-01, -9.60214257e-01,
          -9.56666589e-01, -9.66735959e-01, -9.73545074e-01,
          -9.50078011e-01, -5.11669338e-01, -7.93103695e-01,
          -5.99026203e-01, -9.45586443e-01, -9.70053494e-01,
          -9.25925910e-01, -1.61658049e-01, -8.05014193e-01,
          -9.62686598e-01, -9.98582542e-01, -9.03381884e-01,
          -4.87514198e-01, -9.12364960e-01, -9.23976600e-01,
          -9.12596345e-01, -1.46814764e-01, -8.04877400e-01,
          -9.95652199e-01, -9.55801129e-01, -9.48220253e-01,
          -5.99749207e-01, -8.43962908e-01, -7.96116233e-01,
          -2.30768979e-01, -8.77551317e-01, -9.57704067e-01,
          -9.85754967e-01, -6.97033703e-01, -9.81532812e-01,
          -5.98504782e-01, -8.33831489e-01, -7.44755268e-01,
          -3.47196341e-01, -7.83607066e-01, -8.78326535e-01,
          -9.92831528e-01, -7.02081263e-01, -9.87341762e-01,
          -5.73687196e-01, -9.33874726e-01, -9.41434741e-01,
          -8.71589184e-01, -3.67276013e-01, -8.58756781e-01,
          -9.92559552e-01, -1., -9.76261139e-01 ]
      - [ -4.74482536e-01, -3.25870037e-01, -7.74690270e-01,
          -1.97638690e-01, -3.78909647e-01, -8.14296782e-01,
          -9.20520306e-01, -5.58469653e-01, -9.20148432e-01,
          -4.81333554e-01, -4.26356792e-01, -3.40119183e-01,
          -2.56900966e-01, 4.85844016e-01, 1.07785463e-01,
          -8.89562786e-01, -9.05038774e-01, -8.26570988e-01,
          9.76381302e-02, -6.78899646e-01, -5.41264355e-01,
          -6.96116388e-01, -6.60763860e-01, -3.18636656e-01,
          -8.35074663e-01, -9.62151408e-01, -9.14407849e-01,
          -4.31967556e-01, -5.07128954e-01, -3.46934855e-01,
          -7.43795216e-01, -1.28667533e-01, -8.24831605e-01,
          -9.07265425e-01, -9.12087798e-01, -6.12333357e-01,
          -5.53646803e-01, -4.30001676e-01, -7.02434897e-01,
          -1.24875546e-01, -8.10866594e-01, -9.13403153e-01,
          -9.05821860e-01, -6.35148287e-01, -9.46545959e-01,
          -4.14406717e-01, -6.17169559e-01, -6.15598381e-01,
          -5.08909464e-01, -9.07329381e-01, -2.36398816e-01,
          -4.02299583e-01, -9.65217352e-01, -9.71496403e-01,
          -3.77007961e-01, -6.49318576e-01, -6.77112937e-01,
          -7.84313560e-01, -5.60508490e-01, -2.60570168e-01,
          -8.90838325e-01, -9.86486495e-01, -9.42652345e-01,
          -4.66841161e-01, -5.04522562e-01, -6.55103803e-01,
          -7.33727932e-01, -3.15972686e-01, -8.33540618e-01,
          -9.57860589e-01, -9.75073278e-01, -9.39835906e-01,
          -1.31593347e-02, -6.54459715e-01, -6.45051479e-01,
          -7.83018768e-01, -6.68508291e-01, -2.04865098e-01,
          -8.95117402e-01, -9.75066781e-01, -9.57104564e-01,
          -1.99058056e-01, 7.08056688e-02, -7.98185706e-01,
          -7.86590874e-01, -9.35420811e-01, -6.05263114e-01,
          -2.68462181e-01, -9.41872895e-01, -9.84962404e-01,
          -6.85660601e-01, -4.32324111e-01, -8.11786890e-01,
          -5.20878136e-01, -9.45787549e-01, -8.71604800e-01,
          -2.14538217e-01, -7.33839273e-01, -9.82578397e-01,
          -4.44861531e-01, -6.43930614e-01, -7.19696760e-01,
          -5.72489858e-01, -9.10447717e-01, -2.42481053e-01,
          -7.32850611e-01, -9.74660635e-01, -9.74507570e-01,
          -5.36758661e-01, -6.26833856e-01, -6.86551809e-01,
          -7.65682936e-01, -8.63013685e-01, -9.63406026e-01,
          -7.27554798e-01, -2.18945742e-01, -6.86635733e-01,
          -2.69761741e-01, -6.50872886e-01, -5.56204855e-01,
          -7.15068102e-01, -8.88297856e-01, -7.93103695e-01,
          -9.62434232e-01, -8.72791767e-01, -4.97977138e-01,
          -2.57549286e-01, -9.91323233e-01, -6.54169917e-01,
          -8.54999840e-01, -1., -7.35450625e-01, -9.87519503e-01,
          -9.74865317e-01, -9.40886736e-01, -2.91896105e-01,
          -7.09794402e-01, -6.44920111e-01, -7.52136707e-01,
          -9.15244579e-01, -8.83008540e-01, -8.80597055e-01,
          -9.75903630e-01, -4.29953218e-01, -2.94886231e-01,
          -7.15486288e-01, -6.14035010e-01, -7.27506340e-01,
          -8.92890155e-01, -8.41462851e-01, -9.68115985e-01,
          -8.56353581e-01, -5.98706901e-01, -5.74655116e-01,
          -8.15479934e-01, -7.31391251e-01, -8.98032188e-01,
          -8.48979950e-01, -8.12689543e-01, -9.84330475e-01,
          -8.81355882e-01, -1.80055797e-01, -5.11223018e-01,
          -8.32635999e-01, -6.85314715e-01, -9.05967355e-01,
          -8.36066008e-01, -8.70721936e-01, -9.87096786e-01,
          -9.16758001e-01, -1.68172598e-01, 4.93991852e-01,
          -6.92575574e-01, -6.31039023e-01, -7.88122058e-01,
          -9.39653516e-01, -9.20903802e-01, -9.79166687e-01,
          -8.70128751e-01, -7.56676793e-01 ]
      - [ -2.93792725e-01, 4.28889990e-01, -5.81566513e-01,
          -4.80824471e-01, -2.87741601e-01, -8.05011749e-01,
          -8.73480558e-01, -8.18579078e-01, -8.77437174e-01,
          -3.41333628e-01, 3.31119657e-01, 1.16093636e-01,
          -4.98938978e-01, -7.30464280e-01, -7.56486475e-01,
          -9.04691398e-01, -8.60465169e-01, -7.67530322e-01,
          -3.05680275e-01, -3.50917876e-01, -1.70417368e-01,
          -7.31808186e-01, -4.93675411e-01, -7.21442640e-01,
          -8.62239122e-01, -8.92430425e-01, -7.28958249e-01,
          -1.87581956e-01, 1.40530348e-01, -2.32649386e-01,
          -6.66337490e-01, -7.53950119e-01, -7.45909572e-01,
          -8.45441580e-01, -8.27838659e-01, -4.00878787e-01,
          -1.01572633e-01, 1.09999537e-01, -6.05049968e-01,
          -6.04396701e-01, -7.68613040e-01, -8.63918662e-01,
          -8.40753317e-01, -8.26170087e-01, -9.02002513e-01,
          -2.69000232e-01, -4.43155706e-01, -3.79757762e-01,
          -3.70295227e-01, -8.21398437e-01, -7.11069822e-01,
          -2.56705821e-01, -8.41545880e-01, -7.50593483e-01,
          -2.81953394e-01, -4.99997377e-01, -3.94111872e-01,
          -7.41176307e-01, -1.71972573e-01, -7.18780696e-01,
          -8.18713665e-01, -8.69932473e-01, -7.63441026e-01,
          -2.93498933e-01, -5.81445575e-01, -3.43904376e-01,
          -7.12031662e-01, -8.05555701e-01, -6.59627795e-01,
          -8.21717978e-01, -8.82697880e-01, -8.08568835e-01,
          -4.58135426e-01, -3.47824037e-01, -3.80310833e-01,
          -7.67924428e-01, -4.25414383e-01, -7.28718638e-01,
          -8.55334401e-01, -8.68210196e-01, -7.42627442e-01,
          -4.74676371e-01, -5.34432352e-01, -6.50793254e-01,
          -5.48630238e-01, -7.92563796e-01, -3.94736767e-01,
          -8.55777562e-01, -7.84714460e-01, -9.01420116e-01,
          -4.66499746e-01, -6.00000620e-01, -3.38402331e-01,
          -3.01097512e-01, -8.22710633e-01, -6.17283583e-01,
          -8.31560135e-01, -4.06841815e-01, -8.34494829e-01,
          -3.88470531e-01, -5.16762972e-01, -4.29923773e-01,
          -4.64682937e-01, -8.18052471e-01, -7.14285612e-01,
          -3.21296155e-01, -8.89592826e-01, -7.21900761e-01,
          -3.91020358e-01, -5.63940644e-01, -6.04680538e-01,
          -4.83395517e-01, -4.29223716e-01, -8.57846439e-01,
          -3.74614298e-01, -7.26541638e-01, -2.62672246e-01,
          -3.03638816e-01, -6.88279390e-01, -5.53285122e-01,
          -6.16437793e-01, -5.99412978e-01, -4.03941572e-01,
          -8.75281692e-01, -4.69965696e-01, -3.19839954e-01,
          -4.00829494e-01, -7.23788917e-01, -7.50573874e-01,
          -7.43333042e-01, -6.79833412e-01, -5.39684057e-01,
          -5.97504079e-01, -6.49909973e-01, -1.03449345e-01,
          -3.96710336e-01, -7.64207959e-01, -6.42781138e-01,
          -4.95726347e-01, -5.61482668e-01, -2.98051178e-01,
          -3.88059974e-01, -9.20623660e-01, -2.17393398e-01,
          -4.31628346e-01, -7.64705956e-01, -4.88304019e-01,
          -5.80976725e-01, -5.60480356e-01, -2.56094933e-01,
          -8.84057999e-01, -3.14917207e-01, -5.59872031e-01,
          -4.57967341e-01, -7.07740009e-01, -3.81876230e-01,
          -5.40250301e-01, -5.67347884e-01, -4.92449164e-01,
          -8.71794820e-01, -7.43643880e-01, -8.87350023e-01,
          -4.47631955e-01, -7.47758627e-01, -3.11188877e-01,
          -5.40686607e-01, -4.26253080e-02, -2.62354553e-01,
          -8.66666794e-01, -7.50274003e-01, -9.25858855e-01,
          -3.92789006e-01, -7.37819135e-01, -5.46119452e-01,
          -4.76725817e-01, -6.54379129e-01, -3.95479202e-01,
          -8.82440567e-01, -1.68823957e-01, -5.19288242e-01 ]
      - [ 3.04828525e-01, -2.20606744e-01, -7.07389593e-01,
          -7.64010429e-01, -4.13097680e-01, -8.51436973e-01,
          -9.02677655e-01, -8.90710294e-01, -9.22005475e-01,
          3.93332481e-01, -2.09302187e-01, -3.15679193e-01,
          -7.98301876e-01, -9.59229887e-01, -8.68263006e-01,
          -9.51590121e-01, -9.14728701e-01, -8.37641120e-01,
          -2.50798345e-01, -5.11468410e-01, -9.63558376e-01,
          -8.01208913e-01, -6.30384207e-01, -9.67935860e-01,
          -9.32090521e-01, -9.30278957e-01, -9.37232435e-01,
          -6.73707128e-02, -5.21385550e-01, -4.04077590e-01,
          -8.70905399e-01, -9.72911954e-01, -9.07603443e-01,
          -9.42814171e-01, -9.50549424e-01, -6.47575736e-01,
          -2.80399442e-01, -5.02001822e-01, -7.38503456e-01,
          -7.72229075e-01, -8.30987334e-01, -9.10654068e-01,
          -8.88698518e-01, -9.12129939e-01, -9.02002513e-01,
          9.18722153e-02, -9.32714641e-01, -5.61745048e-01,
          -5.60394764e-01, -9.94945228e-01, -8.49906385e-01,
          -9.08046067e-01, -9.34299469e-01, -8.83610308e-01,
          -2.65254676e-01, -4.88685191e-01, -9.81006622e-01,
          -8.03921461e-01, -6.05094612e-01, -9.66568351e-01,
          -9.35672581e-01, -9.57770288e-01, -9.47431326e-01,
          -2.14707077e-01, -6.19907022e-01, -8.57284307e-01,
          -9.62524652e-01, -9.09722269e-01, -8.83229971e-01,
          -9.64343607e-01, -9.86803532e-01, -9.63536918e-01,
          1.19602680e-02, -5.88098288e-01, -9.54896033e-01,
          -8.28301787e-01, -7.12707162e-01, -9.73807335e-01,
          -9.56600308e-01, -9.75066781e-01, -9.65147495e-01,
          -4.53474939e-01, -9.37924325e-01, -7.21088171e-01,
          -9.92445707e-01, -8.88454139e-01, -9.80263174e-01,
          -9.58297133e-01, -9.80624318e-01, -9.84962404e-01,
          -3.82592440e-01, -9.49495018e-01, -7.45246887e-01,
          -9.56043839e-01, -9.03296709e-01, -9.23456728e-01,
          -9.91134763e-01, -8.17489803e-01, -1., -3.12029421e-01,
          -9.63005781e-01, -7.82196820e-01, -7.50928879e-01,
          -9.90049720e-01, -9.13533807e-01, -9.27797437e-01,
          -9.67420816e-01, -9.67555106e-01, -2.93427825e-01,
          -8.88888717e-01, -6.23394012e-01, -9.85239863e-01,
          -6.94063902e-01, -9.97185051e-01, -6.84211195e-01,
          -9.96425390e-01, -7.88018286e-01, -8.53200257e-01,
          -3.97755742e-01, -9.76642370e-01, -5.06848633e-01,
          -9.86518681e-01, -9.90147769e-01, -9.00826395e-01,
          -9.92932856e-01, -6.35628581e-01, -7.11072445e-01,
          -6.76066577e-01, -8.91354263e-01, -5.33332765e-01,
          -9.87526000e-01, -9.94709015e-01, -9.53198135e-01,
          -8.81507993e-01, -9.90147769e-01, -8.26936245e-01,
          -4.53446150e-01, -9.82887745e-01, -9.60113943e-01,
          -8.32331598e-01, -9.94428992e-01, -7.38806069e-01,
          -9.98582542e-01, -1., -7.78834224e-01, -5.71428776e-01,
          -9.79532182e-01, -7.91773736e-01, -9.94459808e-01,
          -9.75609660e-01, -9.59420323e-01, -1., -8.96440506e-01,
          -7.96738148e-01, -5.78947425e-01, -9.64401245e-01,
          -8.33631456e-01, -9.83673513e-01, -8.30816388e-01,
          -9.97151017e-01, -9.61864352e-01, -9.96306539e-01,
          -8.06734085e-01, -5.89958310e-01, -9.58041966e-01,
          -8.30017865e-01, -9.73770559e-01, -7.56653070e-01,
          -9.98566329e-01, -9.73713040e-01, -9.96383369e-01,
          -7.86211014e-01, -3.56148779e-01, -9.76573884e-01,
          -7.97752917e-01, -9.96342659e-01, -9.66101646e-01,
          -9.68750000e-01, -9.74025726e-01, -9.58456993e-01 ]
      - [ 1.69656038e-01, 2.36280680e-01, -3.67959917e-01,
          -6.79447949e-01, -3.21929634e-01, -8.05011749e-01,
          -8.28062773e-01, -8.05464327e-01, -7.45589256e-01,
          8.53327513e-02, 2.29236841e-01, 5.96746325e-01,
          -5.49894452e-01, -7.53114343e-01, -8.12374711e-01,
          -8.50228369e-01, -8.91472876e-01, -7.19559789e-01,
          3.79705906e-01, 5.73390722e-02, -5.41264355e-01,
          -8.94404173e-01, -3.67093325e-01, -7.77554929e-01,
          -7.78805494e-01, -8.88446331e-01, -7.97431946e-01,
          1.17569685e-01, 2.76986837e-01, 2.12247491e-01,
          -7.39822984e-01, -7.47178137e-01, -8.11357081e-01,
          -8.76353502e-01, -8.58974218e-01, -3.39204550e-01,
          2.66095281e-01, -4.56001699e-01, -7.27682829e-01,
          -7.08292961e-01, -7.42456079e-01, -8.30928922e-01,
          -7.87671089e-01, -6.98185503e-01, -3.11059773e-01,
          -7.26860762e-03, -2.08817065e-01, -8.45867932e-01,
          -1.40591621e-01, -5.95619142e-01, -7.16698289e-01,
          -9.57865119e-02, -7.77777731e-01, -6.55581474e-01,
          4.94530201e-02, -1.71943307e-01, -5.72649479e-01,
          -8.64705801e-01, -1.27364993e-02, -6.81415915e-01,
          -7.25146532e-01, -8.85135174e-01, -7.94504344e-01,
          1.37230158e-01, -8.59708190e-02, -5.83745956e-01,
          -6.70611560e-01, -8.33333433e-01, -6.99379325e-01,
          -8.44408393e-01, -8.66568863e-01, -8.41385603e-01,
          9.21039581e-02, -2.47137666e-01, -6.17596865e-01,
          -8.37735772e-01, -1.43646479e-01, -7.43685901e-01,
          -7.63110042e-01, -8.30810428e-01, -6.80965304e-01,
          -1.69611692e-01, -6.29485726e-01, -3.85486841e-01,
          -4.61755693e-01, -7.88649917e-01, 9.21053886e-02,
          -8.29713285e-01, -9.05274391e-01, -9.48203802e-01,
          7.95238018e-02, -7.49495327e-01, -6.14068031e-01,
          -2.85695195e-02, -7.84615397e-01, -7.90123284e-01,
          -8.08510423e-01, -1.55890286e-01, -8.60627234e-01,
          -1.12774968e-02, -3.78034651e-01, -8.42802882e-01,
          -2.93678820e-01, -7.54086554e-01, -7.55639076e-01,
          -3.42956901e-01, -7.61086106e-01, -6.91773295e-01,
          -1.10598803e-02, -8.44863534e-01, -1.95324183e-01,
          -6.38376832e-01, -3.83561611e-01, -7.41027236e-01,
          -7.77090251e-01, -8.48078668e-01, -6.95852280e-01,
          -5.30740678e-01, -6.98256493e-02, -6.93430960e-01,
          1.15069985e-01, -9.34519410e-01, -4.23645973e-01,
          -9.90984201e-01, -9.57597256e-01, -9.91902828e-01,
          -6.87389791e-01, -7.91757107e-01, 2.25707531e-01,
          -8.41666460e-01, -8.12889695e-01, -7.30159640e-01,
          -8.75195026e-01, -9.89228010e-01, -9.70443368e-01,
          -6.30714238e-01, -1.41475141e-01, -8.71657848e-01,
          5.12822866e-02, -9.48409736e-01, -5.15321016e-01,
          -9.10447776e-01, -9.65981543e-01, -8.84058297e-01,
          -6.50415599e-01, -2.49700248e-01, -6.19883001e-01,
          -2.31362224e-01, -9.11357403e-01, 1.34150267e-01,
          -9.75362301e-01, 6.07734919e-02, -9.87055063e-01,
          -5.10665059e-01, -4.47678208e-01, -1.94173694e-01,
          -6.85151935e-01, -1.34695768e-01, -4.50153232e-01,
          -7.89173722e-01, -9.51271176e-01, -9.09510672e-01,
          -4.85038459e-01, -4.45307970e-01, 6.64335489e-02,
          -6.83543921e-01, 4.42619324e-01, -4.52469349e-01,
          -8.81003678e-01, -9.47426081e-01, -9.51175332e-01,
          -4.91460741e-01, -2.05336750e-01, -6.39823794e-01,
          5.93894720e-02, -9.21366692e-01, -6.32767737e-01,
          -9.76190507e-01, -7.66231716e-01, -9.82195854e-01 ]
      - [ -2.85516798e-01, -3.77381802e-01, -7.17630982e-01,
          -7.30578721e-01, -4.92869794e-01, -8.53293955e-01,
          -9.15654123e-01, -7.46447921e-01, 1.56918883e-01,
          5.59993982e-02, -1.18493557e-01, 3.05536985e-02,
          -6.70913458e-01, -7.44054317e-01, -8.60278964e-01,
          -8.97127092e-01, -8.68217111e-01, -5.46127796e-01,
          1.56349063e-01, -3.27982128e-01, -7.44908690e-01,
          -8.52763712e-01, -7.06333518e-01, -9.15831566e-01,
          -9.43732381e-01, -9.78087664e-01, -9.42938566e-01,
          6.86925650e-02, -3.27902496e-01, -4.08159196e-01,
          -8.11322451e-01, -8.75846386e-01, -9.32627559e-01,
          -9.50542152e-01, -9.39560413e-01, -3.48015189e-01,
          -3.99140418e-01, -6.36002064e-01, -8.05230141e-01,
          -8.10191154e-01, -9.29579020e-01, -9.46392894e-01,
          -9.05821860e-01, 2.87487268e-01, -8.88639510e-01,
          -7.07187057e-02, -6.56612694e-01, -9.12720382e-01,
          -9.68316734e-01, -9.54507172e-01, -9.68105078e-01,
          -8.31417799e-01, -9.94202912e-01, -9.71496403e-01,
          -7.38610029e-02, -5.97282410e-01, -8.49952459e-01,
          -9.23529387e-01, -7.96177864e-01, -9.60668623e-01,
          -9.62962985e-01, -9.91554081e-01, -9.66547191e-01,
          -3.74252796e-02, -5.67870855e-01, -8.49355698e-01,
          -9.09270227e-01, -9.27083373e-01, -9.45341706e-01,
          -9.74068046e-01, -9.73607004e-01, -8.99726570e-01,
          2.87067890e-02, -6.56748056e-01, -8.76454353e-01,
          -9.26415086e-01, -8.50828767e-01, -9.62581873e-01,
          -9.80108500e-01, -9.83971536e-01, -9.65147495e-01,
          -3.22732985e-01, -8.25412154e-01, -9.88662124e-01,
          -9.37676966e-01, -9.56947207e-01, -9.80263174e-01,
          -9.89574254e-01, -9.97847140e-01, -9.94987488e-01,
          -2.98685193e-01, -8.10101271e-01, -9.92395401e-01,
          -8.41757894e-01, -9.67765570e-01, -9.95061696e-01,
          -9.87588644e-01, -9.46767867e-01, -9.91289198e-01,
          -2.39347756e-01, -7.59537578e-01, -9.03409004e-01,
          -9.73977625e-01, -9.70149219e-01, -9.66165423e-01,
          -9.63898718e-01, -9.94570136e-01, -9.83777523e-01,
          -3.41573536e-01, -9.76939142e-01, -8.29241812e-01,
          -9.44649518e-01, -9.49771702e-01, -9.84517932e-01,
          -9.44272578e-01, -9.92850780e-01, -9.90783393e-01,
          -4.47930038e-01, -9.51371610e-01, -8.51095021e-01,
          -9.80821908e-01, -9.32593524e-01, -1., -9.87978935e-01, -1.,
          -9.19028580e-01, -7.59621978e-01, -9.63846684e-01,
          -8.19433868e-01, -9.95000005e-01, -1., -8.94180238e-01, -1.,
          -1., -9.70443368e-01, -7.42841125e-01, -8.01692843e-01,
          -9.95721936e-01, -8.71794820e-01, -9.98157501e-01,
          -9.10863638e-01, -1., -9.88660514e-01, -1., -5.13673544e-01,
          -9.73589420e-01, -8.50877166e-01, -9.92287934e-01,
          -9.72299159e-01, -1., -9.89855051e-01, -1., -9.74110126e-01,
          -4.50439155e-01, -9.88854468e-01, -8.34951222e-01,
          -9.98211086e-01, -9.42857265e-01, -9.93957758e-01,
          -9.87179458e-01, -9.97881353e-01, -9.92613137e-01,
          -5.03741741e-01, -9.94022727e-01, -8.60139847e-01, -1.,
          -8.55738044e-01, -9.92395401e-01, -9.88530457e-01,
          -9.97809410e-01, -1., -5.92662573e-01, -9.70997691e-01,
          -8.71156454e-01, -9.96789753e-01, -9.79884505e-01, -1.,
          -9.92559552e-01, -1., -1. ]
      - [ 1.60000801e-01, -5.03937602e-02, -5.04024386e-01,
          -5.55554152e-01, -7.69153237e-02, -2.81335592e-01,
          -7.46959746e-01, -8.60109210e-01, -8.40296924e-01,
          -1.73338056e-02, -1.16278768e-01, 1.81266904e-01,
          -5.73248923e-01, -7.03284204e-01, -1.19759560e-01,
          -8.16945434e-01, -8.60465169e-01, -7.26939917e-01,
          -1.92087412e-01, 4.81648445e-02, -5.56269765e-01,
          -6.48527265e-01, -4.63295698e-01, -7.57514834e-01,
          -2.29695976e-01, -8.06773126e-01, -7.20399022e-01,
          1.01717710e-01, -3.01425815e-01, -7.75477290e-02,
          -6.54420853e-01, -6.52369976e-01, -1.64581418e-01,
          -8.02164853e-01, -8.47985208e-01, -3.56825769e-01,
          3.10444355e-01, -1.60001099e-01, -5.81605434e-01,
          -6.56344771e-01, -1.38833702e-01, -7.89691806e-01,
          -8.08219016e-01, -8.26170087e-01, -8.32217813e-01,
          4.62841988e-03, -3.15545559e-01, -5.91457248e-01,
          9.90390778e-03, -8.02864313e-01, -7.87992775e-01,
          1.03446960e-01, -1.14975572e-01, -7.12588668e-01,
          -2.75530815e-01, -1.85517967e-01, -6.75213575e-01,
          -6.07842922e-01, -2.35666990e-01, -7.03048110e-01,
          -2.92409658e-02, -8.17567587e-01, -7.10872412e-01,
          -1.33288741e-01, -1.78730845e-01, -7.20515132e-01,
          -6.19329512e-01, -7.86458492e-01, -6.17391825e-01,
          -2.73905814e-01, -8.63636315e-01, -8.37739348e-01,
          -3.64834011e-01, -5.26298881e-02, -6.66622877e-01,
          -6.83018684e-01, -3.37016642e-01, -7.28718638e-01,
          -2.27847159e-01, -8.34372342e-01, -7.13136792e-01,
          -3.13310087e-01, -4.80116069e-01, -5.98639011e-01,
          -7.92256594e-01, -7.63209641e-01, -2.76315689e-01,
          -8.10599446e-01, -6.68460369e-01, -3.29991102e-01,
          -2.61114717e-01, -5.07071495e-01, -6.67299986e-01,
          -3.36262405e-01, -8.03663015e-01, -6.81481242e-01,
          -8.13829601e-01, 1.02665901e-01, -2.64808655e-01,
          -3.23307633e-01, -4.17340994e-01, -6.09848142e-01,
          -2.56503999e-01, -8.36531520e-01, -7.87593961e-01,
          1.04698777e-01, -1.40272141e-01, -7.84473062e-01,
          8.91351700e-02, -3.01885784e-01, -5.46201110e-01,
          -6.38376832e-01, -3.15068483e-01, -8.21252465e-01,
          -3.43654633e-01, -8.42716753e-01, 8.75583887e-02,
          2.44668007e-01, -4.96259451e-01, -3.19708705e-01,
          -5.34245968e-01, -8.53631675e-01, -3.69458914e-01,
          -8.16679060e-01, -2.79153287e-01, -2.87451386e-01,
          -2.69390643e-01, -1.48228645e-01, -7.98010707e-01,
          -5.61666131e-01, -5.71725249e-01, -2.06351876e-01,
          -7.81591356e-01, -8.16875994e-01, -5.17241955e-01,
          6.88599348e-02, -4.90931034e-01, -5.33690274e-01,
          -8.43304813e-01, -7.40206122e-01, -4.03900564e-01,
          -3.88059974e-01, -9.65981543e-01, -5.74880362e-01,
          9.53674316e-07, -5.63025355e-01, -3.42105150e-01,
          -5.75835347e-01, -8.85503292e-01, -4.75607872e-01,
          -8.69565248e-01, -1.04972482e-01, -5.72816968e-01,
          -1.63105726e-02, -5.98761737e-01, -1.97409987e-01,
          -6.58318281e-01, -4.48980749e-01, -4.44110930e-01,
          -8.84615362e-01, -8.58050764e-01, -8.79963160e-01,
          -2.74325609e-02, -6.44949317e-01, -2.16783285e-01,
          -6.78118944e-01, -6.22974038e-02, -6.46352172e-02,
          -8.66666794e-01, -8.46659482e-01, -8.57142687e-01,
          1.32832527e-02, -5.67285538e-01, -3.82136822e-01,
          -5.28090119e-01, -8.77478302e-01, -5.08473754e-01,
          -8.83928657e-01, -2.07785308e-01, -5.31157672e-01 ]
      - [ 3.31035495e-01, -1.46698475e-01, -6.89832866e-01,
          -7.01080203e-01, -4.87171829e-01, -8.60721946e-01,
          -8.75102580e-01, -8.55737567e-01, -8.84865224e-01,
          1.77332640e-01, 1.43970251e-02, -6.10625744e-03,
          -6.51805162e-01, -9.36579823e-01, -8.08382750e-01,
          -8.38125467e-01, -8.46899271e-01, -7.56460190e-01,
          2.04849482e-01, -2.50000417e-01, -9.12111402e-01,
          -6.58441663e-01, -2.91143954e-01, -9.41883743e-01,
          -8.73880982e-01, -8.92430425e-01, -8.74464869e-01,
          2.33817935e-01, -2.72912502e-01, -2.24486113e-01,
          -7.47767448e-01, -9.39051867e-01, -8.61405194e-01,
          -9.41268563e-01, -9.48717892e-01, -6.91628814e-01,
          1.60229921e-01, -3.54001522e-01, -6.95221186e-01,
          -7.68233061e-01, -8.20927024e-01, -8.98282886e-01,
          -8.83561552e-01, -8.77746046e-01, -8.23309183e-01,
          5.95021248e-03, -8.88631105e-01, -5.46888947e-01,
          -3.42572391e-01, -9.79780972e-01, -8.29268515e-01,
          -8.62069130e-01, -9.18840587e-01, -9.31116283e-01,
          1.14963531e-01, -4.57010984e-01, -9.27825212e-01,
          -7.94117510e-01, -5.85986257e-01, -9.72468019e-01,
          -9.41520572e-01, -9.52702701e-01, -9.40262914e-01,
          1.41169667e-01, -3.05427670e-01, -7.04657853e-01,
          -9.48717952e-01, -8.85416746e-01, -8.68323147e-01,
          -9.52998400e-01, -9.78005886e-01, -9.52597976e-01,
          5.02377748e-02, -3.66130650e-01, -9.15675223e-01,
          -7.01886654e-01, -4.36464131e-01, -9.62581873e-01,
          -9.31283832e-01, -9.50133622e-01, -9.24933016e-01,
          -6.94938898e-02, -8.71968865e-01, -4.51246560e-01,
          -9.71671343e-01, -8.39530468e-01, -9.53947365e-01,
          -9.53084290e-01, -9.89235699e-01, -9.74937320e-01,
          1.69064999e-02, -8.96969855e-01, -5.93155444e-01,
          -8.90109658e-01, -9.01831508e-01, -9.25925851e-01,
          -9.96453881e-01, -9.31558669e-01, -9.93031383e-01,
          6.14042282e-02, -8.82080913e-01, -6.76136136e-01,
          -7.50928879e-01, -9.82942402e-01, -9.51127827e-01,
          -9.42237973e-01, -9.85520363e-01, -9.86095011e-01,
          -6.70130253e-02, -8.42767060e-01, -6.28072381e-01,
          -9.70479727e-01, -6.89497709e-01, -9.94370162e-01,
          -9.25696731e-01, -9.96425390e-01, -9.07834053e-01,
          -7.76663184e-01, -2.09476471e-01, -9.18248236e-01,
          -4.65752721e-01, -9.86518681e-01, -9.40886736e-01,
          -9.14350033e-01, -9.92932856e-01, -8.54251385e-01,
          -6.94494605e-01, -8.98770809e-01, -8.20964098e-01,
          -4.78332698e-01, -9.79209960e-01, -9.62963104e-01,
          -9.46957886e-01, -9.35368001e-01, -9.80295599e-01,
          -7.20903277e-01, -4.15961206e-01, -9.37967956e-01,
          -9.17378902e-01, -9.11559522e-01, -9.77715909e-01,
          -8.80597055e-01, -1., -1., -6.97978079e-01, -4.48979795e-01,
          -9.61988270e-01, -7.63496041e-01, -9.81532812e-01,
          -9.14633870e-01, -9.71014500e-01, -1., -9.35275316e-01,
          -6.88833416e-01, -4.25387144e-01, -8.86731267e-01,
          -8.31842542e-01, -9.67347026e-01, -8.42900932e-01,
          -9.94301975e-01, -9.83050823e-01, -9.96306539e-01,
          -6.63342655e-01, -3.15003157e-01, -9.26573455e-01,
          -8.04701388e-01, -9.80327904e-01, -8.17489803e-01,
          -9.98566329e-01, -9.89047110e-01, -9.96383369e-01,
          -6.90069318e-01, -3.51508439e-01, -9.18008685e-01,
          -7.04655051e-01, -9.74398434e-01, -9.49152470e-01,
          -9.65773821e-01, -9.87012863e-01, -9.82195854e-01 ]
      - [ 1.64138675e-01, -1.78053558e-01, -6.91295981e-01,
          -7.14846194e-01, -3.90305698e-01, -8.45865905e-01,
          -8.97811472e-01, -8.68852377e-01, -9.20148432e-01,
          1.35999322e-01, -4.01993513e-01, -4.29732442e-01,
          -8.49257231e-01, -9.61494923e-01, -8.84231091e-01,
          -9.28897202e-01, -9.03100789e-01, -8.33951116e-01,
          -4.46075976e-01, -6.35321677e-01, -9.63558376e-01,
          -8.25003445e-01, -6.55700624e-01, -9.71943855e-01,
          -9.32090521e-01, -9.36255038e-01, -9.20114040e-01,
          -1.66445911e-01, -5.76375484e-01, -5.14281392e-01,
          -8.49058330e-01, -9.68397260e-01, -9.17228103e-01,
          -9.35086191e-01, -9.23076868e-01, -7.35681832e-01,
          -6.15153909e-02, -5.18001854e-01, -8.17854106e-01,
          -8.20181191e-01, -8.73240948e-01, -9.24399734e-01,
          -9.24657464e-01, -9.19770837e-01, -8.57459068e-01,
          3.50314379e-02, -9.00232077e-01, -7.95728624e-01,
          -7.38613129e-01, -9.94945228e-01, -9.47467208e-01,
          -9.31034565e-01, -9.80676353e-01, -9.76247013e-01,
          -3.79576981e-01, -6.47056103e-01, -9.81006622e-01,
          -8.88235211e-01, -7.00636208e-01, -9.58702087e-01,
          -9.55165744e-01, -9.61148679e-01, -9.78494644e-01,
          -5.02297521e-01, -6.49318814e-01, -8.41427028e-01,
          -9.84220922e-01, -9.35763955e-01, -9.35403824e-01,
          -9.61102068e-01, -1., -9.74475861e-01, -4.21054125e-01,
          -7.13956237e-01, -9.76467490e-01, -8.77358437e-01,
          -7.62430966e-01, -9.96258199e-01, -9.87341762e-01,
          -9.82190549e-01, -9.75871325e-01, -6.43109798e-01,
          -9.35984433e-01, -8.70748162e-01, -9.92445707e-01,
          -9.74559724e-01, -1., -9.94787157e-01, -1., -9.98329163e-01,
          -5.81715763e-01, -9.49495018e-01, -8.42205167e-01,
          -9.60439503e-01, -9.72161174e-01, -9.92592573e-01,
          -9.96453881e-01, -9.61977065e-01, -1., -4.59899127e-01,
          -9.53757226e-01, -8.20075631e-01, -8.95910561e-01,
          -9.95735586e-01, -9.77443576e-01, -9.71118987e-01,
          -9.96380091e-01, -9.93047535e-01, -4.78203118e-01,
          -9.14045990e-01, -8.29241812e-01, -9.94464934e-01,
          -8.85844707e-01, -1., -9.62848365e-01, -9.98212695e-01,
          -9.72350180e-01, -7.17691958e-01, -6.38404071e-01,
          -9.79562044e-01, -9.15068388e-01, -9.90370512e-01,
          -9.95073915e-01, -9.90984201e-01, -1., -9.91902828e-01,
          -5.84370136e-01, -5.74837387e-01, -9.64804888e-01,
          -9.58333254e-01, -9.87526000e-01, -1., -1., -1., -1.,
          -8.19623649e-01, -8.22249055e-01, -9.72192526e-01,
          -9.85754967e-01, -9.61307287e-01, -9.88857985e-01,
          -9.92537320e-01, -1., -1., -7.55053043e-01, -7.79111743e-01,
          -9.64912295e-01, -9.48586106e-01, -9.96306539e-01,
          -9.87804830e-01, -9.89855051e-01, -1., -9.87055063e-01,
          -8.10539961e-01, -7.80804992e-01, -9.61165011e-01,
          -9.55277264e-01, -9.91836727e-01, -9.87915456e-01, -1.,
          -9.91525412e-01, -1., -7.41896272e-01, -8.36222410e-01,
          -9.51048970e-01, -9.74683523e-01, -9.93442655e-01, -1., -1.,
          -1., -1., -6.97659433e-01, -7.70301700e-01, -9.73645627e-01,
          -9.64686990e-01, -9.94513929e-01, -9.94350255e-01, -1.,
          -9.87012863e-01, -1. ]
      - [ 4.45518255e-01, 7.72659779e-02, -6.91295981e-01,
          -7.60077238e-01, -6.12527966e-01, -9.03433144e-01,
          -9.22142386e-01, -9.19125617e-01, -8.60724032e-01,
          1.05332613e-01, 1.60576701e-01, 4.21593308e-01,
          -5.05308449e-01, -6.57984078e-01, -7.74450541e-01,
          -8.48715544e-01, -8.43023300e-01, -7.56460190e-01,
          2.90363193e-01, -2.98023224e-07, -4.06216025e-01,
          -9.47941840e-01, -1.49371922e-01, -7.97595024e-01,
          -8.37014973e-01, -9.84063745e-01, -7.94578910e-01,
          3.56671214e-01, -2.54582584e-01, -2.65302360e-01,
          -7.89475441e-01, -8.30699623e-01, -9.05678511e-01,
          -9.33540583e-01, -9.32234347e-01, -7.35681832e-01,
          -3.00427973e-01, -5.88002026e-01, -8.03426743e-01,
          -8.34167242e-01, -9.11470354e-01, -9.54640269e-01,
          -9.45205450e-01, -8.39541674e-01, 1.18041754e-01,
          1.77794218e-01, -4.59396958e-01, -9.83286858e-01,
          -6.39602900e-01, -8.95534933e-01, -9.79362130e-01,
          -7.62452364e-01, -9.72946882e-01, -9.54869270e-01,
          2.07449079e-01, -3.39363992e-01, -7.91073084e-01,
          -9.76470590e-01, -5.85986257e-01, -8.91838729e-01,
          -9.59064364e-01, -9.88175690e-01, -9.59378779e-01,
          2.94813871e-01, -1.85518205e-01, -6.55103803e-01,
          -8.32347155e-01, -9.70486104e-01, -8.93167853e-01,
          -9.44894612e-01, -9.63343084e-01, -9.67183232e-01,
          1.59089565e-01, 6.86657429e-03, -5.64648747e-01,
          -9.52830136e-01, -2.26519406e-01, -8.33489418e-01,
          -8.89692426e-01, -9.87533391e-01, -8.79356623e-01,
          1.69610858e-01, -9.55383122e-01, -1.72334671e-01,
          -6.52501941e-01, -9.84344423e-01, -3.42105150e-01,
          -9.79148567e-01, -9.05274391e-01, -9.41520452e-01,
          2.41076708e-01, -8.76767874e-01, -5.24714351e-01,
          -5.51647425e-01, -9.76556778e-01, -9.01234508e-01,
          -9.62765932e-01, -9.84790802e-01, -9.91289198e-01,
          1.94236279e-01, -4.08092439e-01, -9.71590877e-01,
          -7.13754058e-01, -9.20397937e-01, -9.86842096e-01,
          -8.84475946e-01, -9.63800907e-01, -9.74507570e-01,
          1.99740171e-01, -9.76939142e-01, -6.16376519e-01,
          -9.85239863e-01, -7.30593562e-01, -9.64813471e-01,
          -9.87616122e-01, -9.78552282e-01, -9.63133633e-01,
          -7.49059618e-01, -3.47880483e-01, -9.70802963e-01,
          -7.20547557e-01, -9.94222283e-01, -8.32512498e-01,
          -9.98497367e-01, -8.79858911e-01, -9.91902828e-01,
          -7.53701270e-01, -9.55169916e-01, -6.54169917e-01,
          -9.90000010e-01, -9.83367980e-01, -9.41799164e-01,
          -8.87675524e-01, -9.98204648e-01, -1., -7.51372457e-01,
          -3.89359057e-01, -9.78609622e-01, -7.32193649e-01,
          -9.98157501e-01, -8.71866465e-01, -9.47761238e-01,
          -9.94330287e-01, -9.22705531e-01, -7.64565527e-01,
          -2.59304047e-01, -9.73684192e-01, -7.48071909e-01,
          -9.94459808e-01, -8.23170125e-01, -1., -9.00552511e-01, -1.,
          -6.61229849e-01, -2.56966114e-01, -8.83494973e-01,
          -8.13953400e-01, -9.38775659e-01, -7.82478213e-01,
          -9.90028501e-01, -9.61864352e-01, -9.94459808e-01,
          -6.94514692e-01, -1.28511906e-01, -8.35664332e-01,
          -7.35985219e-01, -8.95082235e-01, -7.49048471e-01,
          -9.94265258e-01, -9.97809410e-01, -9.94575024e-01,
          -7.41935253e-01, 1.27605200e-02, -9.82430458e-01,
          -2.74478674e-01, -9.92685258e-01, -3.72880280e-01,
          -9.97023821e-01, -3.63630772e-01, -9.94065285e-01 ]
      - [ 1.37931824e-01, -1.04145229e-01, -5.77177286e-01,
          -5.18189311e-01, 2.82059193e-01, -6.73164248e-01,
          -7.30739117e-01, -6.13114476e-01, -5.74744105e-01,
          2.06665993e-01, 1.69435978e-01, 1.60900235e-01,
          -6.32696867e-01, -6.17213964e-01, -7.78442621e-01,
          -7.82149553e-01, -7.51938105e-01, -4.76016998e-01,
          2.53349781e-01, 5.73390722e-02, -4.51232135e-01,
          -5.96972466e-01, -2.81017363e-01, -7.15430617e-01,
          -7.43879795e-01, -7.11155653e-01, -5.37802458e-01,
          1.05684996e-02, 2.03716755e-03, 5.59185743e-01,
          -4.39922571e-01, -6.04965806e-01, -6.88161731e-01,
          -7.63524950e-01, -7.60073066e-01, 3.03969622e-01,
          1.11588955e-01, -1.42001092e-01, -3.92245889e-01,
          -4.60540354e-01, -6.27767861e-01, -7.71822453e-01,
          -7.02054501e-01, -5.74021339e-01, -7.98067868e-01,
          3.29810023e-01, 1.41530752e-01, -4.29897070e-01,
          -3.30691159e-01, -7.05138922e-01, -7.57974088e-01,
          1.26435399e-01, -8.33816409e-01, -7.86222994e-01,
          8.92732143e-02, 2.39821076e-01, -3.54225814e-01,
          -4.72548723e-01, -1.40125275e-01, -7.85644054e-01,
          -8.01169813e-01, -8.44594598e-01, -7.29988277e-01,
          1.93697691e-01, 5.88253736e-02, -4.31119502e-01,
          -6.13412380e-01, -7.11805701e-01, -6.89441442e-01,
          -8.24959457e-01, -7.85923660e-01, -6.62716568e-01,
          1.39950752e-01, -2.28679180e-03, -5.25427938e-01,
          -6.73584700e-01, -2.76243150e-01, -8.05425823e-01,
          -7.95659781e-01, -7.52448916e-01, -6.30026937e-01,
          2.03768730e-01, -8.82632732e-02, -4.53514099e-01,
          -6.33616149e-01, -7.29941547e-01, -4.21052516e-01,
          -8.67940903e-01, -7.97631621e-01, -8.78028333e-01,
          4.20162439e-01, -1.81832910e-02, -5.51330328e-01,
          -1.78020298e-01, -8.16849828e-01, -8.19752932e-01,
          -8.97163033e-01, -6.95816278e-01, -8.93728256e-01,
          4.06015754e-01, 3.91907692e-01, -4.67802644e-01,
          -5.09292662e-01, -8.56432021e-01, -8.59022498e-01,
          -5.59564531e-01, -8.69683385e-01, -8.19235504e-01,
          3.45478415e-01, -1.71906590e-01, -2.67838776e-01,
          -5.53506136e-01, -2.10045636e-01, -8.40956926e-01,
          -2.75543332e-01, -8.57015252e-01, -4.65437412e-01,
          3.18695664e-01, -4.47631061e-01, 1.76641107e-01,
          -4.49314356e-01, -7.53484905e-01, -5.66502929e-01,
          -8.10668588e-01, -5.26502669e-01, -2.87451386e-01,
          -2.57549286e-01, -5.27839661e-02, -2.88446963e-01,
          -7.89999723e-01, -1.93346500e-01, -2.43388772e-01,
          -7.90951729e-01, -8.42010677e-01, -1.62562549e-01,
          8.47040415e-02, -3.44619036e-01, -4.26738501e-01,
          -4.15954292e-01, -7.73371339e-01, -8.63523483e-02,
          -4.32836056e-01, -7.90219605e-01, -4.58938599e-01,
          3.07967782e-01, -4.59784150e-01, 1.46199107e-01,
          -5.52699089e-01, -7.35918880e-01, -5.79266787e-01,
          -9.23188448e-01, -6.24309421e-01, -8.38188291e-01,
          5.45797944e-01, -4.76161122e-01, 7.11988211e-02,
          -7.97853231e-01, -5.75511098e-01, -6.91844106e-01,
          -9.45868909e-01, -9.44915235e-01, -9.29824591e-01,
          5.08726954e-01, -5.43335438e-01, 1.60839081e-01,
          -8.22784603e-01, -2.78690338e-01, -6.12165809e-01,
          -9.54121888e-01, -9.51807261e-01, -9.78300154e-01,
          4.14295435e-01, -6.11369073e-01, -2.76719332e-01,
          -6.88603640e-01, -8.02502334e-01, -7.62711465e-01,
          -9.16666746e-01, -7.79218853e-01, -8.87240469e-01 ]
      - [ 1.37996674e-03, -3.69559526e-02, -6.18142962e-01,
          -4.55259144e-01, -1.99351907e-02, -7.66014576e-01,
          -7.74534762e-01, -1.03824496e-01, -7.90157557e-01,
          7.99942017e-03, -8.74857903e-02, 3.46270800e-02,
          -3.90658855e-01, -6.62514091e-01, -7.74450541e-01,
          -8.16945434e-01, -1.51163101e-01, -6.38378859e-01,
          8.61512423e-02, -4.12847400e-02, -4.27652240e-01,
          -5.57314932e-01, -1.44308627e-01, -7.55510807e-01,
          -7.47760415e-01, -7.84860790e-01, -6.26247704e-01,
          -1.78334951e-01, -3.82892430e-01, 3.67376804e-02,
          -3.36645544e-01, -6.68171287e-01, -7.38209844e-01,
          -7.65070558e-01, -2.38086581e-02, -2.59909153e-01,
          -1.50213480e-01, 1.09999537e-01, -5.99639714e-01,
          -4.92508471e-01, -7.52516448e-01, -8.00688386e-01,
          -1.88355446e-01, -8.12798619e-01, -8.67852569e-01,
          1.34172320e-01, -4.17232513e-07, -4.00184870e-01,
          -1.04947925e-01, -7.23673105e-01, -7.78611898e-01,
          -4.25288022e-01, -8.95652175e-01, -8.74109089e-01,
          4.17459011e-02, 2.94140577e-02, -4.26400602e-01,
          -5.58823228e-01, 3.18496227e-02, -7.75811195e-01,
          -8.16764355e-01, -9.18918908e-01, -7.84946442e-01,
          -2.64608562e-01, -2.87328124e-01, -4.96530890e-01,
          -6.39053345e-01, -7.51736283e-01, -5.97516060e-01,
          -8.16855729e-01, -8.37243319e-01, -7.20147491e-02,
