{"learner":{"attributes":{"best_ntree_limit":"287","classes":"2","colsample_bytree":"0.929119745131259","eval_metric":"['error', 'logloss']","features":"128","gamma":"0","grow_policy":"depthwise","learning_rate":"0.28735543595564106","max_delta_step":"0","max_depth":"6","min_child_weight":"1","objective":"binary:logistic","reg_alpha":"0","reg_lambda":"1","rounds":"287","sampling_method":"uniform","scale_pos_weight":"1","subsample":"0.9482296725043248","tree_method":"gpu_hist"},"feature_names":[],"feature_types":[],"gradient_booster":{"model":{"gbtree_model_param":{"num_parallel_tree":"1","num_trees":"287","size_leaf_vector":"0"},"tree_info":[0,0,0,0,0,0,0,0,0,0,0,0,0,0,0,0,0,0,0,0,0,0,0,0,0,0,0,0,0,0,0,0,0,0,0,0,0,0,0,0,0,0,0,0,0,0,0,0,0,0,0,0,0,0,0,0,0,0,0,0,0,0,0,0,0,0,0,0,0,0,0,0,0,0,0,0,0,0,0,0,0,0,0,0,0,0,0,0,0,0,0,0,0,0,0,0,0,0,0,0,0,0,0,0,0,0,0,0,0,0,0,0,0,0,0,0,0,0,0,0,0,0,0,0,0,0,0,0,0,0,0,0,0,0,0,0,0,0,0,0,0,0,0,0,0,0,0,0,0,0,0,0,0,0,0,0,0,0,0,0,0,0,0,0,0,0,0,0,0,0,0,0,0,0,0,0,0,0,0,0,0,0,0,0,0,0,0,0,0,0,0,0,0,0,0,0,0,0,0,0,0,0,0,0,0,0,0,0,0,0,0,0,0,0,0,0,0,0,0,0,0,0,0,0,0,0,0,0,0,0,0,0,0,0,0,0,0,0,0,0,0,0,0,0,0,0,0,0,0,0,0,0,0,0,0,0,0,0,0,0,0,0,0,0,0,0,0,0,0,0,0,0,0,0,0,0,0,0,0,0,0,0,0,0,0,0,0],"trees":[{"base_weights":[-2.2644533E-3,-1.4585003E0,1.6998224E0,-1.6822307E0,-6.141271E-1,8.3442825E-1,1.8764472E0,-1.2298682E0,-1.8572887E0,1.0808967E0,-1.398286E0,1.5712357E0,-5.926168E-1,1.6589367E0,1.9392269E0,-1.6952271E0,2.749226E-1,-1.8759116E0,-9.378531E-1,1.6792711E0,3.9205438E-1,-1.5338962E0,5.4295534E-1,-6.495727E-1,1.6613979E0,-9.0361446E-1,1.4327629E0,3.9723662E-1,1.825708E0,1.7899778E0,1.9698417E0,-1.8938992E0,-1.258626E0,1.5169259E0,-3.5964504E-1,-1.6976266E0,-1.9555705E0,5.8E-1,-1.5234375E0,-6.666667E-1,1.7419355E0,-3.6129034E-1,1.100304E0,-9.780034E-1,-1.8404195E0,-6.666667E-1,1.1406649E0,-1.1856288E0,6.4788735E-1,1.9056219E0,1.2883003E0,-2.787286E-1,-1.4361479E0,1.655914E0,-7.3170733E-1,-2.3197491E-1,1.1603054E0,9.317739E-1,1.8806624E0,9.3782383E-1,1.9180942E0,1.9727669E0,2.962963E-1,-4.484437E-1,-5.573342E-1,3.0085534E-1,-4.274183E-1,1.7879894E-1,5.177262E-1,-2.0904534E-1,3.7187174E-1,-5.0209373E-1,6.060587E-2,-5.62323E-1,1.4367771E-1,-3.6398354E-1,3.8314056E-1,-4.8722842E-1,1.4701906E-1,-3.2679638E-1,3.9787674E-1,5.333696E-1,3.715692E-1,-1.7903113E-1,4.6925932E-1,-1.2704134E-1,3.6175993E-1,-3.850062E-1,-7.868065E-2,-5.334585E-1,1.1728792E-2,3.3960184E-1,-3.3741087E-1,-2.612322E-1,4.419509E-1,1.1494217E-1,-4.093831E-1,-3.192838E-1,3.3272734E-1,-4.5976868E-1,5.5284595E-1,2.4193472E-1,5.233275E-1,-2.0379317E-1,1.6301894E-1,-4.6495706E-1,-1.9560334E-1,2.0822857E-1,5.297823E-1,-4.4699734E-1,1.9157028E-1,3.0280462E-1,-2.1677689E-1,-4.0330585E-2,4.3311542E-1,4.892167E-1,6.89653E-2,5.5897504E-1,4.688166E-1,1.1326419E-1,4.4244862E-1,-3.192838E-1,5.538329E-1,5.6887853E-1,4.9675992E-1,3.7481144E-1,-1.1494217E-1],"categories":[],"categories_nodes":[],"categories_segments":[],"categories_sizes":[],"default_left":[0,0,0,0,0,0,0,0,0,0,0,0,0,0,0,0,0,0,0,0,0,0,0,0,0,0,0,0,0,0,0,0,0,0,0,0,0,0,0,0,0,0,0,0,0,0,0,0,0,0,0,0,0,0,0,0,0,0,0,0,0,0,0,0,0,0,0,0,0,0,0,0,0,0,0,0,0,0,0,0,0,0,0,0,0,0,0,0,0,0,0,0,0,0,0,0,0,0,0,0,0,0,0,0,0,0,0,0,0,0,0,0,0,0,0,0,0,0,0,0,0,0,0,0,0,0,0],"id":0,"left_children":[1,3,5,7,9,11,13,15,17,19,21,23,25,27,29,31,33,35,37,39,41,43,45,47,49,51,53,55,57,59,61,63,65,67,69,71,73,75,77,79,81,83,85,87,89,91,93,95,97,99,101,103,105,107,109,111,113,115,117,119,121,123,125,-1,-1,-1,-1,-1,-1,-1,-1,-1,-1,-1,-1,-1,-1,-1,-1,-1,-1,-1,-1,-1,-1,-1,-1,-1,-1,-1,-1,-1,-1,-1,-1,-1,-1,-1,-1,-1,-1,-1,-1,-1,-1,-1,-1,-1,-1,-1,-1,-1,-1,-1,-1,-1,-1,-1,-1,-1,-1,-1,-1,-1,-1,-1,-1],"loss_changes":[7.11506E4,2.9214336E3,2.0214805E3,9.66125E2,4.310674E3,2.3617158E3,1.468711E2,2.3918804E3,1.4917578E2,4.2224402E2,5.844634E2,2.9762476E2,4.8331677E2,5.187378E2,3.541992E1,2.238789E2,6.3696466E2,1.1937109E2,1.5820671E2,8.18313E1,2.5557071E2,3.513418E2,1.05957344E2,4.1455566E1,1.27253174E2,2.2056073E2,5.0598816E1,1.3926727E2,1.05354004E2,1.5778711E2,3.3990234E1,2.4208496E1,4.334558E2,6.849817E1,3.2654037E2,2.5397266E2,2.030664E1,7.1246666E1,4.570349E1,1.60543E1,2.5010986E1,1.2238074E2,6.092746E1,1.8786157E2,4.0306152E1,4.712278E1,8.100845E1,1.639357E1,1.7210114E1,5.810132E1,1.3315558E2,1.121196E2,4.812982E1,1.4923447E1,1.284553E1,1.0792853E2,5.9325424E1,6.796841E1,2.986084E1,6.2548904E1,3.772168E1,8.511719E0,9.997423E0,0E0,0E0,0E0,0E0,0E0,0E0,0E0,0E0,0E0,0E0,0E0,0E0,0E0,0E0,0E0,0E0,0E0,0E0,0E0,0E0,0E0,0E0,0E0,0E0,0E0,0E0,0E0,0E0,0E0,0E0,0E0,0E0,0E0,0E0,0E0,0E0,0E0,0E0,0E0,0E0,0E0,0E0,0E0,0E0,0E0,0E0,0E0,0E0,0E0,0E0,0E0,0E0,0E0,0E0,0E0,0E0,0E0,0E0,0E0,0E0,0E0,0E0,0E0,0E0],"parents":[2147483647,0,0,1,1,2,2,3,3,4,4,5,5,6,6,7,7,8,8,9,9,10,10,11,11,12,12,13,13,14,14,15,15,16,16,17,17,18,18,19,19,20,20,21,21,22,22,23,23,24,24,25,25,26,26,27,27,28,28,29,29,30,30,31,31,32,32,33,33,34,34,35,35,36,36,37,37,38,38,39,39,40,40,41,41,42,42,43,43,44,44,45,45,46,46,47,47,48,48,49,49,50,50,51,51,52,52,53,53,54,54,55,55,56,56,57,57,58,58,59,59,60,60,61,61,62,62],"right_children":[2,4,6,8,10,12,14,16,18,20,22,24,26,28,30,32,34,36,38,40,42,44,46,48,50,52,54,56,58,60,62,64,66,68,70,72,74,76,78,80,82,84,86,88,90,92,94,96,98,100,102,104,106,108,110,112,114,116,118,120,122,124,126,-1,-1,-1,-1,-1,-1,-1,-1,-1,-1,-1,-1,-1,-1,-1,-1,-1,-1,-1,-1,-1,-1,-1,-1,-1,-1,-1,-1,-1,-1,-1,-1,-1,-1,-1,-1,-1,-1,-1,-1,-1,-1,-1,-1,-1,-1,-1,-1,-1,-1,-1,-1,-1,-1,-1,-1,-1,-1,-1,-1,-1,-1,-1,-1],"split_conditions":[9.951748E-1,9.921179E-1,9.9680907E-1,9.944662E-1,9.974751E-1,9.987884E-1,9.9786514E-1,9.844742E-1,9.9861544E-1,9.9366724E-1,9.990451E-1,6.998189E-4,9.9345315E-1,7.2660804E-4,6.067039E-4,9.740899E-1,9.839321E-1,9.9711543E-1,9.9646574E-1,1.5570467E-3,9.9374807E-1,9.985412E-1,9.8846537E-1,9.963273E-1,9.966322E-1,9.991338E-1,5.394436E1,9.9479E-1,8.7890625E-2,9.973196E-1,2.744263E-2,1.2758614E-2,9.904533E-1,4.1826008E1,4.6947388E1,4.881124E1,9.8935086E-1,9.7705585E-1,9.8758334E-1,1.215322E-3,9.9267375E-1,9.8427737E-1,1.9948767E-3,9.940731E-1,9.996539E-1,9.9820256E-1,5E0,9.990845E-1,3.649908E-4,3.775298E1,9.906008E-1,9.963273E-1,9.923946E-1,1.8229325E-4,1.0000297E0,9.990451E-1,8.040097E-4,3E0,9.9930596E-1,2.2770456E-4,-4.5166016E-2,5.425905E-3,9.992879E-1,-4.484437E-1,-5.573342E-1,3.0085534E-1,-4.274183E-1,1.7879894E-1,5.177262E-1,-2.0904534E-1,3.7187174E-1,-5.0209373E-1,6.060587E-2,-5.62323E-1,1.4367771E-1,-3.6398354E-1,3.8314056E-1,-4.8722842E-1,1.4701906E-1,-3.2679638E-1,3.9787674E-1,5.333696E-1,3.715692E-1,-1.7903113E-1,4.6925932E-1,-1.2704134E-1,3.6175993E-1,-3.850062E-1,-7.868065E-2,-5.334585E-1,1.1728792E-2,3.3960184E-1,-3.3741087E-1,-2.612322E-1,4.419509E-1,1.1494217E-1,-4.093831E-1,-3.192838E-1,3.3272734E-1,-4.5976868E-1,5.5284595E-1,2.4193472E-1,5.233275E-1,-2.0379317E-1,1.6301894E-1,-4.6495706E-1,-1.9560334E-1,2.0822857E-1,5.297823E-1,-4.4699734E-1,1.9157028E-1,3.0280462E-1,-2.1677689E-1,-4.0330585E-2,4.3311542E-1,4.892167E-1,6.89653E-2,5.5897504E-1,4.688166E-1,1.1326419E-1,4.4244862E-1,-3.192838E-1,5.538329E-1,5.6887853E-1,4.9675992E-1,3.7481144E-1,-1.1494217E-1],"split_indices":[7,7,7,55,55,55,7,7,15,47,15,54,39,46,110,7,47,55,87,86,7,55,39,7,47,55,1,39,40,39,6,6,15,1,1,1,39,39,39,14,47,39,46,7,23,55,5,23,62,1,39,7,39,62,84,15,6,5,63,14,3,6,55,0,0,0,0,0,0,0,0,0,0,0,0,0,0,0,0,0,0,0,0,0,0,0,0,0,0,0,0,0,0,0,0,0,0,0,0,0,0,0,0,0,0,0,0,0,0,0,0,0,0,0,0,0,0,0,0,0,0,0,0,0,0,0,0],"split_type":[0,0,0,0,0,0,0,0,0,0,0,0,0,0,0,0,0,0,0,0,0,0,0,0,0,0,0,0,0,0,0,0,0,0,0,0,0,0,0,0,0,0,0,0,0,0,0,0,0,0,0,0,0,0,0,0,0,0,0,0,0,0,0,0,0,0,0,0,0,0,0,0,0,0,0,0,0,0,0,0,0,0,0,0,0,0,0,0,0,0,0,0,0,0,0,0,0,0,0,0,0,0,0,0,0,0,0,0,0,0,0,0,0,0,0,0,0,0,0,0,0,0,0,0,0,0,0],"sum_hessian":[2.87035E4,1.5469E4,1.32345E4,1.2228E4,3.241E3,2.24425E3,1.099025E4,3.414E3,8.814E3,1.025E3,2.216E3,1.48E3,7.6425E2,2.46775E3,8.5225E3,2.6075E3,8.065E2,8.638E3,1.76E2,5.4775E2,4.7725E2,2.0715E3,1.445E2,5.75E1,1.4225E3,6.63E2,1.0125E2,2.885E2,2.17925E3,1.46075E3,7.06175E3,1.78975E3,8.1775E2,2.7225E2,5.3425E2,2.6745E3,5.9635E3,4.9E1,1.27E2,1.4E1,5.3375E2,2.315E2,2.4575E2,7.3775E2,1.33375E3,4.775E1,9.675E1,4.075E1,1.675E1,8.5725E2,5.6525E2,3.0575E2,3.5725E2,9.2E1,9.25E0,1.585E2,1.3E2,1.2725E2,2.052E3,1.92E2,1.26875E3,7.04925E3,1.25E1,2.1975E2,1.57E3,7.35E1,7.4425E2,6.65E1,2.0575E2,4.375E2,9.675E1,2.60675E3,6.775E1,5.9605E3,3E0,1.4E1,3.5E1,1.1725E2,9.75E0,1.175E1,2.25E0,4.23E2,1.1075E2,2.0525E2,2.625E1,2.275E1,2.23E2,4.8675E2,2.51E2,1.3225E3,1.125E1,1E1,3.775E1,1.55E1,8.125E1,5.25E0,3.55E1,3.5E0,1.325E1,4E0,8.5325E2,3.09E2,2.5625E2,2.0275E2,1.03E2,2.87E2,7.025E1,1.625E1,7.575E1,5.75E0,3.5E0,4.55E1,1.13E2,2.75E1,1.025E2,5.95E1,6.775E1,1.62425E3,4.2775E2,1.0175E2,9.025E1,3.5E0,1.26525E3,6.8475E3,2.0175E2,4.75E0,7.75E0],"tree_param":{"num_deleted":"0","num_feature":"128","num_nodes":"127","size_leaf_vector":"0"}},{"base_weights":[-2.710643E-3,-1.1098435E0,1.3231281E0,-1.2777945E0,-3.5814255E-1,6.979116E-1,1.462954E0,-9.4294506E-1,-1.454156E0,1.1097187E0,-9.113705E-1,1.1951236E0,-4.2816612E-1,1.3275301E0,1.5250326E0,-1.2215432E0,2.7905047E-1,-1.4657106E0,-2.2914332E-1,1.3797119E0,6.9572276E-1,-1.0917655E0,3.5967135E-1,-6.04197E-1,1.2803133E0,-7.4993616E-1,8.357295E-1,2.4894093E-1,1.4303881E0,1.5258992E0,-2.7831218E-1,-1.440038E0,-8.105128E-1,1.2321277E0,-3.9569053E-1,-1.3198212E0,-1.5337849E0,-1.1609204E0,9.426427E-1,-9.0238374E-1,1.4174547E0,2.8563058E-1,1.532729E0,-4.282347E-1,-1.373919E0,1.0452232E0,-6.885854E-1,-8.3753055E-1,4.163766E-1,1.4656558E0,9.637977E-1,-1.2438551E0,-3.2492784E-1,-4.066983E-1,1.1952689E0,-5.857458E-1,7.489975E-1,1.5056808E0,1.0706977E0,1.4160304E0,1.5497081E0,-3.6962226E-1,-4.4255424E-1,2.468206E-1,-3.4026653E-1,4.7393686E-1,2.75121E-1,-1.8573906E-1,3.467834E-1,-4.2673418E-1,-2.6535514E-1,-4.412835E-1,1.4523648E-1,-3.978497E-1,3.4608603E-1,4.822978E-1,7.915905E-2,-3.8239917E-1,2.2397102E-1,3.4536368E-1,4.5097253E-1,-1.93443E-2,3.4095204E-1,2.0024839E-1,4.725406E-1,-1.9865568E-1,2.3564985E-1,-1.0483565E-2,-4.0190515E-1,-1.1562436E-1,3.6531094E-1,-3.135027E-1,3.299926E-1,-2.7864012E-1,2.3058274E-1,-3.7713718E-1,4.250492E-1,5.2617658E-2,3.5479566E-1,-5.069941E-2,-3.8895255E-1,3.0380258E-1,-1.447627E-1,-3.3962902E-1,2.2717667E-1,3.7920767E-1,-1.83628E-1,1.9318919E-1,-2.6807863E-1,9.262145E-3,3.266771E-1,4.340682E-1,-2.5675738E-1,3.3004346E-1,-2.726977E-1,2.0596293E-1,4.3233117E-1,4.4573852E-1,2.4295256E-1],"categories":[],"categories_nodes":[],"categories_segments":[],"categories_sizes":[],"default_left":[0,0,0,0,0,0,0,0,0,0,0,0,0,0,0,0,0,0,0,0,0,0,0,0,0,0,0,0,0,0,0,0,0,0,0,0,0,0,0,0,0,0,0,0,0,0,0,0,0,0,0,0,0,0,0,0,0,0,0,0,0,0,0,0,0,0,0,0,0,0,0,0,0,0,0,0,0,0,0,0,0,0,0,0,0,0,0,0,0,0,0,0,0,0,0,0,0,0,0,0,0,0,0,0,0,0,0,0,0,0,0,0,0,0,0,0,0,0,0],"id":1,"left_children":[1,3,5,7,9,11,13,15,17,19,21,23,25,27,29,31,33,35,37,39,41,43,45,47,49,51,53,55,57,59,-1,61,63,65,67,69,71,73,75,77,79,81,83,85,87,89,91,93,-1,95,97,99,101,103,105,107,109,111,113,115,117,-1,-1,-1,-1,-1,-1,-1,-1,-1,-1,-1,-1,-1,-1,-1,-1,-1,-1,-1,-1,-1,-1,-1,-1,-1,-1,-1,-1,-1,-1,-1,-1,-1,-1,-1,-1,-1,-1,-1,-1,-1,-1,-1,-1,-1,-1,-1,-1,-1,-1,-1,-1,-1,-1,-1,-1,-1,-1],"loss_changes":[3.938502E4,1.8455E3,1.0663633E3,7.0438477E2,2.170554E3,1.2510231E3,8.1853516E1,1.4049412E3,1.1044141E2,8.083276E1,4.454192E2,2.3830396E2,2.7914078E2,3.4841455E2,1.624414E1,3.0058545E2,4.936007E2,7.49707E1,8.223369E1,3.934027E1,9.9401535E1,3.1766504E2,1.7461508E2,3.509884E1,8.540332E1,1.142955E2,6.2775978E1,1.1518251E2,7.6109375E1,1.5678711E1,0E0,3.174707E1,7.298312E2,3.4873627E1,1.8143877E2,1.6063672E2,2.108789E1,2.3798466E1,1.5966959E1,6.656886E0,1.2365112E1,6.2543457E1,7.764206E0,1.6761041E2,3.9359863E1,4.8518097E1,7.242556E1,1.4678822E1,0E0,3.6925293E1,1.1597638E2,2.9312408E1,7.346563E1,3.0674387E1,2.5574661E1,4.5855217E1,4.7876175E1,2.9111816E1,7.9746765E1,7.4937744E1,4.477539E0,0E0,0E0,0E0,0E0,0E0,0E0,0E0,0E0,0E0,0E0,0E0,0E0,0E0,0E0,0E0,0E0,0E0,0E0,0E0,0E0,0E0,0E0,0E0,0E0,0E0,0E0,0E0,0E0,0E0,0E0,0E0,0E0,0E0,0E0,0E0,0E0,0E0,0E0,0E0,0E0,0E0,0E0,0E0,0E0,0E0,0E0,0E0,0E0,0E0,0E0,0E0,0E0,0E0,0E0,0E0,0E0,0E0,0E0],"parents":[2147483647,0,0,1,1,2,2,3,3,4,4,5,5,6,6,7,7,8,8,9,9,10,10,11,11,12,12,13,13,14,14,15,15,16,16,17,17,18,18,19,19,20,20,21,21,22,22,23,23,24,24,25,25,26,26,27,27,28,28,29,29,31,31,32,32,33,33,34,34,35,35,36,36,37,37,38,38,39,39,40,40,41,41,42,42,43,43,44,44,45,45,46,46,47,47,49,49,50,50,51,51,52,52,53,53,54,54,55,55,56,56,57,57,58,58,59,59,60,60],"right_children":[2,4,6,8,10,12,14,16,18,20,22,24,26,28,30,32,34,36,38,40,42,44,46,48,50,52,54,56,58,60,-1,62,64,66,68,70,72,74,76,78,80,82,84,86,88,90,92,94,-1,96,98,100,102,104,106,108,110,112,114,116,118,-1,-1,-1,-1,-1,-1,-1,-1,-1,-1,-1,-1,-1,-1,-1,-1,-1,-1,-1,-1,-1,-1,-1,-1,-1,-1,-1,-1,-1,-1,-1,-1,-1,-1,-1,-1,-1,-1,-1,-1,-1,-1,-1,-1,-1,-1,-1,-1,-1,-1,-1,-1,-1,-1,-1,-1,-1,-1],"split_conditions":[9.952667E-1,9.926717E-1,9.9692225E-1,9.968981E-1,9.9553865E-1,9.9889493E-1,9.982546E-1,9.881608E-1,9.988524E-1,9.9366724E-1,9.98943E-1,1.064261E-3,9.931761E-1,5.820098E-4,5.577258E-2,9.788815E-1,9.8908633E-1,9.975671E-1,1.471966E-3,5.6543096E-4,5.0334473E1,9.970655E-1,9.992478E-1,9.931761E-1,9.969541E-1,5.9989444E-4,6.465622E-4,9.949996E-1,9.9924463E-1,5.866791E-4,-2.7831218E-1,1.7008057E-2,9.9626696E-1,9.9587286E-1,4.8214302E1,9.882824E-1,9.89764E-1,9.89764E-1,8.501327E-3,-5.6396484E-2,4.7860535E1,9.8318356E-1,8.8746846E-4,5.167282E1,9.99654E-1,9.855943E-1,9.9271417E-1,1.0002636E0,4.163766E-1,3.8305397E1,9.958112E-1,5.807392E1,9.9799883E-1,9.9489003E-1,1.2271089E-2,9.9908006E-1,7.306746E-4,3.8732823E-2,1.003219E0,9.998817E-1,8.59844E-3,-3.6962226E-1,-4.4255424E-1,2.468206E-1,-3.4026653E-1,4.7393686E-1,2.75121E-1,-1.8573906E-1,3.467834E-1,-4.2673418E-1,-2.6535514E-1,-4.412835E-1,1.4523648E-1,-3.978497E-1,3.4608603E-1,4.822978E-1,7.915905E-2,-3.8239917E-1,2.2397102E-1,3.4536368E-1,4.5097253E-1,-1.93443E-2,3.4095204E-1,2.0024839E-1,4.725406E-1,-1.9865568E-1,2.3564985E-1,-1.0483565E-2,-4.0190515E-1,-1.1562436E-1,3.6531094E-1,-3.135027E-1,3.299926E-1,-2.7864012E-1,2.3058274E-1,-3.7713718E-1,4.250492E-1,5.2617658E-2,3.5479566E-1,-5.069941E-2,-3.8895255E-1,3.0380258E-1,-1.447627E-1,-3.3962902E-1,2.2717667E-1,3.7920767E-1,-1.83628E-1,1.9318919E-1,-2.6807863E-1,9.262145E-3,3.266771E-1,4.340682E-1,-2.5675738E-1,3.3004346E-1,-2.726977E-1,2.0596293E-1,4.3233117E-1,4.4573852E-1,2.4295256E-1],"split_indices":[7,7,7,63,47,55,7,7,15,47,15,46,39,46,6,7,47,55,86,126,1,47,63,39,47,54,110,39,55,110,0,6,23,15,1,7,39,39,38,107,1,39,14,1,12,39,39,58,0,1,7,9,47,39,38,15,6,6,4,31,14,0,0,0,0,0,0,0,0,0,0,0,0,0,0,0,0,0,0,0,0,0,0,0,0,0,0,0,0,0,0,0,0,0,0,0,0,0,0,0,0,0,0,0,0,0,0,0,0,0,0,0,0,0,0,0,0,0,0],"split_type":[0,0,0,0,0,0,0,0,0,0,0,0,0,0,0,0,0,0,0,0,0,0,0,0,0,0,0,0,0,0,0,0,0,0,0,0,0,0,0,0,0,0,0,0,0,0,0,0,0,0,0,0,0,0,0,0,0,0,0,0,0,0,0,0,0,0,0,0,0,0,0,0,0,0,0,0,0,0,0,0,0,0,0,0,0,0,0,0,0,0,0,0,0,0,0,0,0,0,0,0,0,0,0,0,0,0,0,0,0,0,0,0,0,0,0,0,0,0,0],"sum_hessian":[2.682923E4,1.4620577E4,1.2208654E4,1.1949931E4,2.670647E3,2.2324573E3,9.976196E3,4.124771E3,7.825159E3,7.307545E2,1.9398925E3,1.5486155E3,6.8384186E2,3.1427388E3,6.833458E3,3.3589722E3,7.6579877E2,7.751845E3,7.33141E1,4.4088953E2,2.89865E2,1.6989122E3,2.4098027E2,6.973007E1,1.4788854E3,5.453979E2,1.3844397E2,2.739075E2,2.8688313E3,6.831472E3,1.9856539E0,2.19151E3,1.1674624E3,3.1708603E2,4.4871274E2,2.472795E3,5.2790503E3,4.084465E1,3.2469448E1,6.800389E0,4.3408914E2,1.9544684E2,9.4418144E1,5.0763705E2,1.1912751E3,1.4569786E2,9.5282394E1,6.3145977E1,6.584095E0,9.3042444E2,5.48461E2,2.5135805E2,2.9403983E2,3.1042397E1,1.0740157E2,1.02554214E2,1.7135327E2,2.3696206E3,4.9921066E2,1.2275088E3,5.6039634E3,8.694077E2,1.3221022E3,2.1325761E2,9.542048E2,1.2390865E2,1.9317738E2,3.8853052E2,6.0182213E1,1.7433802E3,7.2941473E2,5.2744175E3,4.63259E0,3.769578E1,3.1488688E0,1.4720188E1,1.774926E1,5.5862584E0,1.2141304E0,1.8313824E2,2.509509E2,1.4109425E2,5.435259E1,1.1984976E1,8.2433174E1,4.1964056E2,8.7996506E1,2.165981E1,1.1696154E3,1.9574198E1,1.2612367E2,7.849358E1,1.6788815E1,5.881562E1,4.3303533E0,4.0407963E0,9.263836E2,1.4171915E2,4.0674185E2,2.36688E1,2.2768924E2,3.312596E1,2.6091388E2,1.8850117E1,1.219228E1,1.0084421E2,6.5573635E0,2.1977526E1,8.057669E1,6.0544712E1,1.1080856E2,2.365179E3,4.441613E0,4.8109616E2,1.8114506E1,1.3890393E2,1.0886049E3,5.5911157E3,1.2847534E1],"tree_param":{"num_deleted":"0","num_feature":"128","num_nodes":"119","size_leaf_vector":"0"}},{"base_weights":[-2.5508006E-4,-9.595303E-1,1.0734394E0,-1.1233892E0,-5.154565E-1,3.5327905E-1,1.2268896E0,-7.9327005E-1,-1.2553102E0,7.065203E-1,-9.423801E-1,9.3196017E-1,-5.4395205E-1,9.386445E-1,1.2830931E0,-1.1339021E0,6.1494537E-2,-1.2597181E0,8.7636644E-1,1.1630996E0,1.9204451E-1,-1.0685657E0,2.3349126E-1,-7.9282206E-1,1.0148534E0,-8.0690986E-1,7.3070735E-1,-3.289222E-1,1.117909E0,1.1205765E0,1.3213861E0,-7.606034E-1,-1.2732775E0,8.3740914E-1,-4.4215623E-1,-1.1249769E0,-1.3220277E0,-7.343553E-1,1.9370124E0,1.53312E0,9.8580724E-1,1.2242556E0,-1.3545495E-1,-7.1316355E-1,-1.251312E0,1.0142728E0,-5.4906195E-1,1.06257E0,-9.298375E-1,1.2358536E0,6.1845744E-1,9.646779E-1,-8.8798183E-1,-5.146151E-1,1.1620291E0,-8.8255686E-1,7.352044E-1,1.2523028E0,3.965789E-1,3.7990484E-1,1.2747854E0,1.3237563E0,-4.9079412E-1,-2.6841986E-1,2.2826402E-1,-3.8114187E-1,-3.1380203E-1,3.369525E-1,-3.838945E-2,1.9407955E-1,-1.9220595E-1,-3.3070225E-1,2.5975075E-1,-5.6451596E-2,-3.808242E-1,2.0021015E-1,-3.4518754E-1,6.274536E-1,1.8453628E-1,4.8755783E-1,4.0448874E-1,3.7588996E-1,1.4951314E-1,-4.8575695E-3,3.8025674E-1,-1.4364663E-1,2.5637636E-1,-2.672004E-1,-5.7455745E-2,5.756954E-1,-3.6266103E-1,-3.1313917E-1,3.341693E-1,-2.7186242E-1,2.1828116E-1,3.8503876E-1,8.013688E-2,-2.911321E-1,2.4164557E-1,-3.3779773E-1,3.5823187E-1,6.315708E-2,3.5408586E-1,-1.0001855E-1,4.36573E-1,-3.1992668E-1,-1.2568812E-1,4.089266E-1,-2.2366694E-1,3.9912435E-1,-1.5442419E-1,2.56533E-1,-3.2481408E-1,-4.2563905E-3,3.0974638E-1,3.6306912E-1,-4.508196E-1,-1.1048389E-1,2.9749238E-1,-3.376079E-2,2.9511788E-1,-3.0133763E-2,3.7214297E-1,3.83295E-1,3.038518E-1,1.3239312E-1,-2.8352112E-1],"categories":[],"categories_nodes":[],"categories_segments":[],"categories_sizes":[],"default_left":[0,0,0,0,0,0,0,0,0,0,0,0,0,0,0,0,0,0,0,0,0,0,0,0,0,0,0,0,0,0,0,0,0,0,0,0,0,0,0,0,0,0,0,0,0,0,0,0,0,0,0,0,0,0,0,0,0,0,0,0,0,0,0,0,0,0,0,0,0,0,0,0,0,0,0,0,0,0,0,0,0,0,0,0,0,0,0,0,0,0,0,0,0,0,0,0,0,0,0,0,0,0,0,0,0,0,0,0,0,0,0,0,0,0,0,0,0,0,0,0,0,0,0,0,0,0,0],"id":2,"left_children":[1,3,5,7,9,11,13,15,17,19,21,23,25,27,29,31,33,35,37,39,41,43,45,47,49,51,53,55,57,59,61,63,65,67,69,71,73,75,77,79,81,83,85,87,89,91,93,95,97,99,101,103,105,107,109,111,113,115,117,119,121,123,125,-1,-1,-1,-1,-1,-1,-1,-1,-1,-1,-1,-1,-1,-1,-1,-1,-1,-1,-1,-1,-1,-1,-1,-1,-1,-1,-1,-1,-1,-1,-1,-1,-1,-1,-1,-1,-1,-1,-1,-1,-1,-1,-1,-1,-1,-1,-1,-1,-1,-1,-1,-1,-1,-1,-1,-1,-1,-1,-1,-1,-1,-1,-1,-1],"loss_changes":[2.4209518E4,9.0273145E2,1.2252305E3,3.9387598E2,1.7472095E3,1.01274084E3,1.4690918E2,7.546282E2,6.1958984E1,2.0352283E2,3.684458E2,1.7030444E2,2.5701135E2,3.401919E2,4.6114258E1,9.5447754E1,2.8932858E2,5.277832E1,2.5262154E1,2.8622803E1,1.3843755E2,1.4466797E2,1.4799606E2,1.4951111E1,9.836914E1,9.201132E1,7.115404E1,1.1026871E2,1.26540405E2,1.668457E2,2.7211914E1,1.3732901E2,1.15234375E1,9.4995346E1,1.14225075E2,1.08673584E2,1.586084E1,5.023465E0,1.3713608E0,6.2939453E-1,4.633084E1,1.2145218E1,1.1707331E2,8.471243E1,5.427954E1,3.915284E1,6.367332E1,5.4882145E-1,8.475807E0,2.0356201E1,9.933478E1,2.1097773E1,6.1194183E1,1.8731537E1,3.849031E1,5.505124E1,1.6523876E1,3.6813843E1,1.03798416E2,8.183597E1,3.4043945E1,1.5228516E1,4.6101084E0,0E0,0E0,0E0,0E0,0E0,0E0,0E0,0E0,0E0,0E0,0E0,0E0,0E0,0E0,0E0,0E0,0E0,0E0,0E0,0E0,0E0,0E0,0E0,0E0,0E0,0E0,0E0,0E0,0E0,0E0,0E0,0E0,0E0,0E0,0E0,0E0,0E0,0E0,0E0,0E0,0E0,0E0,0E0,0E0,0E0,0E0,0E0,0E0,0E0,0E0,0E0,0E0,0E0,0E0,0E0,0E0,0E0,0E0,0E0,0E0,0E0,0E0,0E0,0E0],"parents":[2147483647,0,0,1,1,2,2,3,3,4,4,5,5,6,6,7,7,8,8,9,9,10,10,11,11,12,12,13,13,14,14,15,15,16,16,17,17,18,18,19,19,20,20,21,21,22,22,23,23,24,24,25,25,26,26,27,27,28,28,29,29,30,30,31,31,32,32,33,33,34,34,35,35,36,36,37,37,38,38,39,39,40,40,41,41,42,42,43,43,44,44,45,45,46,46,47,47,48,48,49,49,50,50,51,51,52,52,53,53,54,54,55,55,56,56,57,57,58,58,59,59,60,60,61,61,62,62],"right_children":[2,4,6,8,10,12,14,16,18,20,22,24,26,28,30,32,34,36,38,40,42,44,46,48,50,52,54,56,58,60,62,64,66,68,70,72,74,76,78,80,82,84,86,88,90,92,94,96,98,100,102,104,106,108,110,112,114,116,118,120,122,124,126,-1,-1,-1,-1,-1,-1,-1,-1,-1,-1,-1,-1,-1,-1,-1,-1,-1,-1,-1,-1,-1,-1,-1,-1,-1,-1,-1,-1,-1,-1,-1,-1,-1,-1,-1,-1,-1,-1,-1,-1,-1,-1,-1,-1,-1,-1,-1,-1,-1,-1,-1,-1,-1,-1,-1,-1,-1,-1,-1,-1,-1,-1,-1,-1],"split_conditions":[9.9478257E-1,9.9099696E-1,9.9653715E-1,9.9407595E-1,9.9504006E-1,9.986726E-1,9.9743724E-1,9.821027E-1,9.867089E-1,9.9267375E-1,9.988524E-1,7.413578E-4,9.992016E-1,7.719135E-4,6.872264E-4,1.4055062E-2,9.839321E-1,9.9690187E-1,6.660932E-3,9.9682164E-1,7.116699E-1,9.9827546E-1,9.976921E-1,9.9967974E-1,9.966322E-1,9.9835736E-1,9.913507E-1,9.943438E-1,9.985144E-1,9.970029E-1,3.8732823E-2,1.0028666E0,9.712444E-1,5.088135E0,2.3255127E1,9.765143E-1,9.9424416E-1,3.1982422E-2,1.4E1,9.921179E-1,1.3647461E-1,8.608194E-4,9.79773E-1,9.9364877E-1,9.971668E-1,9.8116505E-1,9.907872E-1,4.9456507E-3,6.483114E-4,4.0430637E-4,9.899808E-1,1.1230469E-1,9.959935E-1,9.975225E-1,5.3138416E1,9.9887234E-1,2.7802533E-3,1.1424574E-1,9.937278E-1,2.916068E-4,-5.419922E-2,5.4974123E-3,2.4902344E-2,-2.6841986E-1,2.2826402E-1,-3.8114187E-1,-3.1380203E-1,3.369525E-1,-3.838945E-2,1.9407955E-1,-1.9220595E-1,-3.3070225E-1,2.5975075E-1,-5.6451596E-2,-3.808242E-1,2.0021015E-1,-3.4518754E-1,6.274536E-1,1.8453628E-1,4.8755783E-1,4.0448874E-1,3.7588996E-1,1.4951314E-1,-4.8575695E-3,3.8025674E-1,-1.4364663E-1,2.5637636E-1,-2.672004E-1,-5.7455745E-2,5.756954E-1,-3.6266103E-1,-3.1313917E-1,3.341693E-1,-2.7186242E-1,2.1828116E-1,3.8503876E-1,8.013688E-2,-2.911321E-1,2.4164557E-1,-3.3779773E-1,3.5823187E-1,6.315708E-2,3.5408586E-1,-1.0001855E-1,4.36573E-1,-3.1992668E-1,-1.2568812E-1,4.089266E-1,-2.2366694E-1,3.9912435E-1,-1.5442419E-1,2.56533E-1,-3.2481408E-1,-4.2563905E-3,3.0974638E-1,3.6306912E-1,-4.508196E-1,-1.1048389E-1,2.9749238E-1,-3.376079E-2,2.9511788E-1,-3.0133763E-2,3.7214297E-1,3.83295E-1,3.038518E-1,1.3239312E-1,-2.8352112E-1],"split_indices":[7,7,7,55,47,55,7,7,39,47,15,54,15,46,110,6,47,55,102,15,0,55,87,98,47,15,39,39,47,39,6,12,7,0,96,39,95,16,5,7,24,14,39,7,15,39,39,70,14,118,39,8,7,87,1,15,102,38,39,14,35,6,91,0,0,0,0,0,0,0,0,0,0,0,0,0,0,0,0,0,0,0,0,0,0,0,0,0,0,0,0,0,0,0,0,0,0,0,0,0,0,0,0,0,0,0,0,0,0,0,0,0,0,0,0,0,0,0,0,0,0,0,0,0,0,0,0],"split_type":[0,0,0,0,0,0,0,0,0,0,0,0,0,0,0,0,0,0,0,0,0,0,0,0,0,0,0,0,0,0,0,0,0,0,0,0,0,0,0,0,0,0,0,0,0,0,0,0,0,0,0,0,0,0,0,0,0,0,0,0,0,0,0,0,0,0,0,0,0,0,0,0,0,0,0,0,0,0,0,0,0,0,0,0,0,0,0,0,0,0,0,0,0,0,0,0,0,0,0,0,0,0,0,0,0,0,0,0,0,0,0,0,0,0,0,0,0,0,0,0,0,0,0,0,0,0,0],"sum_hessian":[2.3503107E4,1.2413008E4,1.1090099E4,9.066155E3,3.346853E3,1.948563E3,9.141535E3,2.5905574E3,6.4755977E3,8.6637787E2,2.480475E3,1.1845397E3,7.640233E2,1.4945092E3,7.6470264E3,1.8521362E3,7.38421E2,6.4626436E3,1.2954355E1,4.5834866E2,4.0802917E2,2.2401685E3,2.403067E2,5.392581E1,1.1306139E3,6.33667E2,1.3035634E2,1.850684E2,1.3094408E3,1.4640033E3,6.183023E3,5.0527658E2,1.3468597E3,2.9038965E2,4.4803137E2,2.0495835E3,4.41306E3,5.2655706E0,7.688784E0,1.4599678E2,3.1235187E2,9.761826E1,3.1041092E2,7.623891E2,1.4777794E3,1.201413E2,1.2016541E2,3.2438715E0,5.068194E1,7.245451E2,4.0606885E2,2.7252176E1,6.064148E2,3.3484886E1,9.687145E1,1.2184603E2,6.3222374E1,1.1031691E3,2.0627167E2,2.52879E2,1.2111243E3,6.1752153E3,7.807351E0,4.549169E2,5.0359657E1,1.0367854E3,3.1007428E2,2.1571693E2,7.467273E1,7.52301E1,3.7280127E2,2.0242058E3,2.5377718E1,1.2862167E1,4.4001978E3,1.1742257E0,4.0913453E0,5.8824153E0,1.8063688E0,5.7944363E1,8.805242E1,1.834962E2,1.2885567E2,7.2753596E0,9.03429E1,2.2952686E2,8.0884056E1,5.354802E2,2.2690887E2,4.255643E0,1.4735237E3,7.5097303E0,1.1263156E2,9.240813E1,2.7757284E1,1.8716648E0,1.3722068E0,4.8813374E1,1.8685635E0,2.7489192E0,7.2179614E2,2.4699306E2,1.5907579E2,8.204494E0,1.9047682E1,4.0325195E2,2.0316283E2,3.4851213E0,2.9999763E1,8.5621E1,1.1250457E1,1.4605587E1,1.0724044E2,2.0128653E1,4.309372E1,1.0993639E3,3.8052382E0,9.297298E1,1.1329869E2,1.434422E2,1.0943679E2,1.7481209E1,1.1936431E3,5.9454336E3,2.2978178E2,2.699007E0,5.108344E0],"tree_param":{"num_deleted":"0","num_feature":"128","num_nodes":"127","size_leaf_vector":"0"}},{"base_weights":[4.3066507E-4,-7.771336E-1,1.0011035E0,-9.648916E-1,-3.0041876E-1,5.3969985E-1,1.1273116E0,-7.10235E-1,-1.1444024E0,4.4551107E-1,-7.9942095E-1,1.0066906E0,-8.532051E-2,9.924639E-1,1.1987147E0,-9.504916E-1,2.1462603E-2,-1.1646891E0,-5.554584E-1,1.1978502E0,1.8931778E-1,-8.855055E-1,4.4552967E-1,-2.5629506E-2,1.0701292E0,-3.2068986E-1,7.97019E-1,2.4999844E-1,1.1314182E0,1.069831E0,1.2232221E0,-7.306522E-1,-1.1821681E0,1.5712404E0,-3.0440998E-1,-1.0429748E0,-1.2202412E0,-1.1151214E0,1.3122883E-1,4.3433353E-1,1.2869098E0,-2.221799E-1,6.1364484E-1,-2.0973712E-2,-9.843447E-1,-8.072854E-1,7.868266E-1,1.3026054E0,-2.0626163E-1,1.0862375E0,-1.120431E0,6.991449E-1,-4.927442E-1,1.0602145E0,-1.5535459E-1,8.968351E-1,-7.961193E-2,-4.0445063E-1,1.1558439E0,-2.9712612E-2,1.1589488E0,1.2255253E0,-2.1100716E-1,2.9623237E-2,-2.759384E-1,-1.6414188E-1,-3.4283966E-1,3.8541117E-1,8.323352E-1,1.0778555E-1,-1.5845479E-1,-3.337336E-1,-2.2562999E-1,-3.5102552E-1,8.483584E-2,-3.298594E-1,1.0853263E-1,3.357871E-1,-7.4991226E-2,-4.2216193E-2,3.4278065E-1,3.9375135E-1,2.6065615E-1,-1.0218881E-1,3.7452468E-1,2.891017E-1,1.0564429E-1,-2.0473208E-1,3.2416353E-1,-2.1537067E-1,-3.3347106E-1,-3.2033005E-1,3.2726333E-1,-1.3884132E-1,3.153528E-1,4.054998E-1,8.699354E-2,-1.761785E-1,2.0946601E-1,3.7608817E-1,2.731949E-1,1.3990572E-1,-6.976375E-1,-2.6426408E-1,3.219177E-1,-2.6215106E-1,-3.8996313E-2,-7.893986E-2,3.277111E-1,-3.0832E-1,2.403347E-1,3.394823E-1,3.5334233E-2,-1.707017E-1,2.4174003E-1,2.5067613E-1,-3.9264426E-1,3.3688113E-1,1.1704873E-1,3.0542776E-1,-1.6010422E-1,-1.3033733E-1,3.358386E-1,3.539515E-1,2.6518053E-1,-2.6119655E-1,1.9893213E-1],"categories":[],"categories_nodes":[],"categories_segments":[],"categories_sizes":[],"default_left":[0,0,0,0,0,0,0,0,0,0,0,0,0,0,0,0,0,0,0,0,0,0,0,0,0,0,0,0,0,0,0,0,0,0,0,0,0,0,0,0,0,0,0,0,0,0,0,0,0,0,0,0,0,0,0,0,0,0,0,0,0,0,0,0,0,0,0,0,0,0,0,0,0,0,0,0,0,0,0,0,0,0,0,0,0,0,0,0,0,0,0,0,0,0,0,0,0,0,0,0,0,0,0,0,0,0,0,0,0,0,0,0,0,0,0,0,0,0,0,0,0,0,0,0,0,0,0],"id":3,"left_children":[1,3,5,7,9,11,13,15,17,19,21,23,25,27,29,31,33,35,37,39,41,43,45,47,49,51,53,55,57,59,61,63,65,67,69,71,73,75,77,79,81,83,85,87,89,91,93,95,97,99,101,103,105,107,109,111,113,115,117,119,121,123,125,-1,-1,-1,-1,-1,-1,-1,-1,-1,-1,-1,-1,-1,-1,-1,-1,-1,-1,-1,-1,-1,-1,-1,-1,-1,-1,-1,-1,-1,-1,-1,-1,-1,-1,-1,-1,-1,-1,-1,-1,-1,-1,-1,-1,-1,-1,-1,-1,-1,-1,-1,-1,-1,-1,-1,-1,-1,-1,-1,-1,-1,-1,-1,-1],"loss_changes":[1.5554172E4,1.0065908E3,5.0840918E2,3.681001E2,1.1840546E3,5.4862555E2,6.488867E1,5.8705164E2,5.5887207E1,2.4558212E2,2.0463965E2,7.047583E1,1.6735321E2,2.4543018E2,1.2848633E1,1.2717212E2,4.1784265E2,2.9649902E1,6.143475E1,2.1457214E1,1.6645845E2,1.523247E2,5.362194E1,1.5445094E1,3.6979004E1,1.1192144E2,4.2707542E1,8.039571E1,7.5718506E1,7.0986084E1,1.2674805E1,2.4753772E2,7.471924E0,3.9931305E1,1.1495953E2,4.3049072E1,6.6845703E0,4.7400055E0,2.9802689E1,1.5752639E1,7.9202576E0,9.9052246E1,4.4928482E1,1.4695699E2,6.531348E1,1.7440847E1,3.9147255E1,4.094324E-1,2.1961712E1,2.9114014E1,1.7762493E1,6.3889427E1,8.146518E1,1.4567581E1,3.5132442E1,2.787909E1,1.1916373E2,4.0670322E1,2.3920898E1,3.243922E1,1.108606E1,5.940918E0,4.9666734E0,0E0,0E0,0E0,0E0,0E0,0E0,0E0,0E0,0E0,0E0,0E0,0E0,0E0,0E0,0E0,0E0,0E0,0E0,0E0,0E0,0E0,0E0,0E0,0E0,0E0,0E0,0E0,0E0,0E0,0E0,0E0,0E0,0E0,0E0,0E0,0E0,0E0,0E0,0E0,0E0,0E0,0E0,0E0,0E0,0E0,0E0,0E0,0E0,0E0,0E0,0E0,0E0,0E0,0E0,0E0,0E0,0E0,0E0,0E0,0E0,0E0,0E0,0E0,0E0],"parents":[2147483647,0,0,1,1,2,2,3,3,4,4,5,5,6,6,7,7,8,8,9,9,10,10,11,11,12,12,13,13,14,14,15,15,16,16,17,17,18,18,19,19,20,20,21,21,22,22,23,23,24,24,25,25,26,26,27,27,28,28,29,29,30,30,31,31,32,32,33,33,34,34,35,35,36,36,37,37,38,38,39,39,40,40,41,41,42,42,43,43,44,44,45,45,46,46,47,47,48,48,49,49,50,50,51,51,52,52,53,53,54,54,55,55,56,56,57,57,58,58,59,59,60,60,61,61,62,62],"right_children":[2,4,6,8,10,12,14,16,18,20,22,24,26,28,30,32,34,36,38,40,42,44,46,48,50,52,54,56,58,60,62,64,66,68,70,72,74,76,78,80,82,84,86,88,90,92,94,96,98,100,102,104,106,108,110,112,114,116,118,120,122,124,126,-1,-1,-1,-1,-1,-1,-1,-1,-1,-1,-1,-1,-1,-1,-1,-1,-1,-1,-1,-1,-1,-1,-1,-1,-1,-1,-1,-1,-1,-1,-1,-1,-1,-1,-1,-1,-1,-1,-1,-1,-1,-1,-1,-1,-1,-1,-1,-1,-1,-1,-1,-1,-1,-1,-1,-1,-1,-1,-1,-1,-1,-1,-1,-1],"split_conditions":[9.954456E-1,9.9156964E-1,9.970866E-1,9.9591666E-1,9.9782395E-1,9.9783623E-1,9.984013E-1,9.8592705E-1,9.984803E-1,9.985606E-1,9.9962854E-1,1.2056325E-3,9.996777E-1,8.5068017E-4,4.1928334E-4,1.6236914E-2,9.9546665E-1,9.975361E-1,1.1877236E-3,1.1977922E-3,9.9364877E-1,9.992986E-1,5E0,9.983985E-1,3.0346578E-2,3E0,9.9934113E-1,9.992016E-1,7.421875E-2,9.998817E-1,8.339248E-3,9.7816676E-1,1.8115234E0,9.9640495E-1,9.881372E-1,9.880317E-1,9.882568E-1,9.8891085E-1,8.501327E-3,9.9364877E-1,9.975141E-1,9.8427737E-1,9.962967E-1,9.935448E-1,9.987622E-1,9.9331295E-1,9.8846537E-1,9.996982E-1,9.911549E-1,9.98576E-1,1.03027344E-1,6.924309E-4,1.3342285E0,2.434082E-1,9.9489003E-1,3E0,9.9610096E-1,4.887159E-4,1.1652318E-2,2E0,-3.7597656E-2,5.788189E-3,9.9925494E-1,2.9623237E-2,-2.759384E-1,-1.6414188E-1,-3.4283966E-1,3.8541117E-1,8.323352E-1,1.0778555E-1,-1.5845479E-1,-3.337336E-1,-2.2562999E-1,-3.5102552E-1,8.483584E-2,-3.298594E-1,1.0853263E-1,3.357871E-1,-7.4991226E-2,-4.2216193E-2,3.4278065E-1,3.9375135E-1,2.6065615E-1,-1.0218881E-1,3.7452468E-1,2.891017E-1,1.0564429E-1,-2.0473208E-1,3.2416353E-1,-2.1537067E-1,-3.3347106E-1,-3.2033005E-1,3.2726333E-1,-1.3884132E-1,3.153528E-1,4.054998E-1,8.699354E-2,-1.761785E-1,2.0946601E-1,3.7608817E-1,2.731949E-1,1.3990572E-1,-6.976375E-1,-2.6426408E-1,3.219177E-1,-2.6215106E-1,-3.8996313E-2,-7.893986E-2,3.277111E-1,-3.0832E-1,2.403347E-1,3.394823E-1,3.5334233E-2,-1.707017E-1,2.4174003E-1,2.5067613E-1,-3.9264426E-1,3.3688113E-1,1.1704873E-1,3.0542776E-1,-1.6010422E-1,-1.3033733E-1,3.358386E-1,3.539515E-1,2.6518053E-1,-2.6119655E-1,1.9893213E-1],"split_indices":[7,7,7,55,55,47,7,7,15,23,23,46,23,78,78,6,15,55,94,14,7,31,5,15,6,5,87,15,72,31,22,47,0,63,47,7,39,39,38,7,15,39,55,7,55,39,39,36,39,15,107,46,96,0,39,5,39,22,6,5,3,6,7,0,0,0,0,0,0,0,0,0,0,0,0,0,0,0,0,0,0,0,0,0,0,0,0,0,0,0,0,0,0,0,0,0,0,0,0,0,0,0,0,0,0,0,0,0,0,0,0,0,0,0,0,0,0,0,0,0,0,0,0,0,0,0,0],"split_type":[0,0,0,0,0,0,0,0,0,0,0,0,0,0,0,0,0,0,0,0,0,0,0,0,0,0,0,0,0,0,0,0,0,0,0,0,0,0,0,0,0,0,0,0,0,0,0,0,0,0,0,0,0,0,0,0,0,0,0,0,0,0,0,0,0,0,0,0,0,0,0,0,0,0,0,0,0,0,0,0,0,0,0,0,0,0,0,0,0,0,0,0,0,0,0,0,0,0,0,0,0,0,0,0,0,0,0,0,0,0,0,0,0,0,0,0,0,0,0,0,0,0,0,0,0,0,0],"sum_hessian":[1.9988264E4,1.1248183E4,8.740081E3,8.069084E3,3.179099E3,1.8783407E3,6.86174E3,3.338291E3,4.730793E3,1.2743113E3,1.9047877E3,1.074732E3,8.036086E2,2.380662E3,4.481078E3,2.5128765E3,8.2541473E2,4.572318E3,1.584751E2,3.2277426E2,9.515369E2,1.781866E3,1.2292187E2,6.225566E1,1.01247644E3,6.3488556E2,1.6872298E2,3.757485E2,2.0049135E3,7.230784E2,3.7579998E3,1.2915089E3,1.2213674E3,1.427423E2,6.826724E2,1.4390806E3,3.133237E3,8.696945E1,7.150564E1,3.4330685E1,2.884436E2,4.8331308E2,4.6822388E2,1.8293892E2,1.598927E3,2.6025063E1,9.6896805E1,6.709272E0,5.5546387E1,1.00558594E3,6.8905106E0,9.120626E1,5.436793E2,1.321023E2,3.6620678E1,1.262571E2,2.494914E2,3.1142431E1,1.9737711E3,5.4261528E1,6.688169E2,3.7521199E3,5.8797274E0,2.7900113E2,1.01250775E3,2.237864E1,1.1989889E3,1.2334734E2,1.9394955E1,1.8186545E2,5.0080698E2,9.836815E2,4.5539908E2,3.1306804E3,2.5566075E0,8.532612E1,1.643334E0,1.90751E1,5.2430542E1,1.989342E1,1.4437266E1,2.3439903E2,5.404456E1,4.4514325E2,3.816984E1,1.7922571E2,2.8899817E2,1.1444629E2,6.849263E1,6.8750397E2,9.1142303E2,2.2843342E1,3.1817198E0,1.8932062E1,7.7964745E1,5.681227E0,1.0280447E0,3.8947514E1,1.6598875E1,3.773009E2,6.2828503E2,3.3722038E0,3.5183067E0,1.8584753E1,7.2621506E1,2.4924403E2,2.9443527E2,7.3513412E0,1.2475095E2,1.8978596E1,1.7642082E1,9.192716E1,3.432994E1,1.6029796E2,8.9193436E1,1.3421364E1,1.7721067E1,1.9306307E3,4.3140285E1,1.7335754E1,3.6925774E1,3.7555697E0,6.6506134E2,3.673445E3,7.867481E1,3.3133078E0,2.5664194E0],"tree_param":{"num_deleted":"0","num_feature":"128","num_nodes":"127","size_leaf_vector":"0"}},{"base_weights":[3.159658E-3,-7.1833956E-1,8.41607E-1,-5.141438E-1,-1.0112634E0,2.4659331E-1,9.9080306E-1,-7.91308E-1,1.06391124E-1,-1.035416E0,3.3949503E-1,8.228445E-1,-2.2055995E-1,7.2021264E-1,1.0679262E0,-5.806559E-1,-9.959131E-1,8.5473126E-1,-1.7314413E-1,-1.1123725E0,-7.351568E-1,-1.1899916E0,1.0489887E0,-2.148146E-1,9.122508E-1,-4.191981E-1,5.904192E-1,1.0732435E0,2.115835E-1,8.512187E-1,1.1153587E0,6.6524917E-1,-7.647404E-1,-1.1200275E0,-8.385789E-1,1.3166097E0,5.9903955E-1,-3.073355E-1,9.699726E-1,-1.1270443E0,-3.79599E-1,9.979927E-1,-8.7031215E-1,-3.506526E-1,-8.844986E-2,-4.0518573E-1,1.4702426E0,-6.650477E-1,4.263739E-1,1.0928199E0,6.503453E-1,-9.5370716E-1,-1.6457623E-1,-3.6407444E-1,8.8783365E-1,-1.7655778E-1,1.1167467E0,-3.9624038E-1,4.2639047E-1,1.0891402E0,3.140213E-1,1.1301959E0,7.632463E-1,-6.2254492E-2,3.17939E-1,-9.315704E-2,-2.5245377E-1,1.0230921E-1,-3.2236615E-1,8.694534E-2,-2.7845287E-1,3.5729474E-1,5.432202E-1,3.3204728E-1,8.408241E-2,-1.3463761E-1,1.2936537E-1,2.0995308E-1,4.1647947E-1,-2.9488024E-1,-3.3226478E-1,1.8994987E-1,-2.5818318E-1,-2.5249544E-1,3.6032167E-1,-2.5980827E-1,2.9988673E-1,2.6430255E-1,-3.8192773E-1,-1.02330945E-1,4.4125578E-1,3.1608245E-1,-2.519028E-1,-8.253709E-2,2.4424599E-1,-1.5061942E-1,3.2063138E-1,3.374833E-1,1.0742852E-1,-2.991563E-1,-1.4086502E-2,2.9717648E-1,-7.523256E-2,-1.8969502E-1,1.5423001E-1,-1.106206E-2,3.3171237E-1,-1.7206363E-1,3.1808373E-1,3.2323298E-1,-6.7931414E-1,-2.4814734E-1,-2.8939755E-3,1.5545781E-1,-3.3514515E-1,3.2845622E-1,2.5436422E-1,3.4243822E-1,2.9727178E-2,3.0251572E-1,3.3391473E-1,2.7374086E-1,-3.396451E-1],"categories":[],"categories_nodes":[],"categories_segments":[],"categories_sizes":[],"default_left":[0,0,0,0,0,0,0,0,0,0,0,0,0,0,0,0,0,0,0,0,0,0,0,0,0,0,0,0,0,0,0,0,0,0,0,0,0,0,0,0,0,0,0,0,0,0,0,0,0,0,0,0,0,0,0,0,0,0,0,0,0,0,0,0,0,0,0,0,0,0,0,0,0,0,0,0,0,0,0,0,0,0,0,0,0,0,0,0,0,0,0,0,0,0,0,0,0,0,0,0,0,0,0,0,0,0,0,0,0,0,0,0,0,0,0,0,0,0,0,0,0,0,0],"id":4,"left_children":[1,3,5,7,9,11,13,15,17,19,21,23,25,27,29,31,33,35,37,39,41,43,45,47,49,51,53,55,57,59,61,63,65,67,69,71,73,75,77,79,81,83,85,-1,-1,87,89,91,93,95,97,99,101,103,105,107,109,111,113,115,117,119,121,-1,-1,-1,-1,-1,-1,-1,-1,-1,-1,-1,-1,-1,-1,-1,-1,-1,-1,-1,-1,-1,-1,-1,-1,-1,-1,-1,-1,-1,-1,-1,-1,-1,-1,-1,-1,-1,-1,-1,-1,-1,-1,-1,-1,-1,-1,-1,-1,-1,-1,-1,-1,-1,-1,-1,-1,-1,-1,-1,-1],"loss_changes":[1.0208853E4,5.420215E2,6.9266406E2,9.1967346E2,1.21869385E2,4.2177505E2,1.2945605E2,1.5872412E2,3.4566095E2,8.3743164E1,7.3069374E1,6.52663E1,1.3970758E2,2.4885333E2,4.89458E1,4.1873676E2,3.5646362E1,5.2279205E1,1.8488574E2,3.086914E1,1.764447E2,1.972065E-1,2.8617073E1,1.6579323E1,2.983728E1,9.456406E1,4.879358E1,4.4703613E1,7.453578E1,1.11605225E2,1.9925781E1,9.1781334E1,7.93927E1,3.1899414E0,1.2386755E2,4.3415833E0,4.929683E1,1.3181384E2,1.3473068E1,7.2285156E0,3.226227E1,2.7368729E1,4.598993E1,0E0,0E0,1.4760212E1,4.8047256E0,1.3494177E1,7.467392E0,1.47378235E1,3.8117416E1,1.7680649E1,5.5359283E1,1.136143E1,3.225666E1,1.6052486E1,2.4987E1,2.6924938E1,7.753655E1,5.6557007E0,4.98229E1,8.183594E0,6.1529808E1,0E0,0E0,0E0,0E0,0E0,0E0,0E0,0E0,0E0,0E0,0E0,0E0,0E0,0E0,0E0,0E0,0E0,0E0,0E0,0E0,0E0,0E0,0E0,0E0,0E0,0E0,0E0,0E0,0E0,0E0,0E0,0E0,0E0,0E0,0E0,0E0,0E0,0E0,0E0,0E0,0E0,0E0,0E0,0E0,0E0,0E0,0E0,0E0,0E0,0E0,0E0,0E0,0E0,0E0,0E0,0E0,0E0,0E0,0E0,0E0],"parents":[2147483647,0,0,1,1,2,2,3,3,4,4,5,5,6,6,7,7,8,8,9,9,10,10,11,11,12,12,13,13,14,14,15,15,16,16,17,17,18,18,19,19,20,20,21,21,22,22,23,23,24,24,25,25,26,26,27,27,28,28,29,29,30,30,31,31,32,32,33,33,34,34,35,35,36,36,37,37,38,38,39,39,40,40,41,41,42,42,45,45,46,46,47,47,48,48,49,49,50,50,51,51,52,52,53,53,54,54,55,55,56,56,57,57,58,58,59,59,60,60,61,61,62,62],"right_children":[2,4,6,8,10,12,14,16,18,20,22,24,26,28,30,32,34,36,38,40,42,44,46,48,50,52,54,56,58,60,62,64,66,68,70,72,74,76,78,80,82,84,86,-1,-1,88,90,92,94,96,98,100,102,104,106,108,110,112,114,116,118,120,122,-1,-1,-1,-1,-1,-1,-1,-1,-1,-1,-1,-1,-1,-1,-1,-1,-1,-1,-1,-1,-1,-1,-1,-1,-1,-1,-1,-1,-1,-1,-1,-1,-1,-1,-1,-1,-1,-1,-1,-1,-1,-1,-1,-1,-1,-1,-1,-1,-1,-1,-1,-1,-1,-1,-1,-1,-1,-1,-1,-1],"split_conditions":[9.9478257E-1,9.9841124E-1,9.9653715E-1,9.8938924E-1,9.901794E-1,9.972174E-1,9.9761546E-1,1.2284206E-2,9.917689E-1,9.9289197E-1,4.7851562E-1,1.5342357E-3,9.9961114E-1,9.982376E-1,6.067039E-4,9.8103637E-1,9.727197E-1,1.1413574E0,9.993926E-1,9.995228E-1,9.9883544E-1,9.998922E-1,8.4110885E-4,9.9572486E-1,9.9585706E-1,6.28274E-4,3.6743164E-1,4.6627726E-3,1.2659419E-3,1.6235352E-1,5.425905E-3,1.0041109E-2,9.877644E-1,6.458818E-4,9.9681044E-1,9.9672186E-1,9.979735E-1,5.3809006E1,9.869241E-1,5.239615E1,9.992304E-1,1.3945176E-3,1.0015283E0,-3.506526E-1,-8.844986E-2,1.1962891E-2,-4.4677734E-2,9.998887E-1,6.291652E-4,-1.652832E-1,5.336914E-1,1.2207031E-1,9.990845E-1,9.938586E-1,9.909666E-1,9.93588E-1,7.1762695E0,9.9399203E-1,8.041331E-3,7.5683594E-3,2E0,1.4459294E-3,9.9920595E-1,-6.2254492E-2,3.17939E-1,-9.315704E-2,-2.5245377E-1,1.0230921E-1,-3.2236615E-1,8.694534E-2,-2.7845287E-1,3.5729474E-1,5.432202E-1,3.3204728E-1,8.408241E-2,-1.3463761E-1,1.2936537E-1,2.0995308E-1,4.1647947E-1,-2.9488024E-1,-3.3226478E-1,1.8994987E-1,-2.5818318E-1,-2.5249544E-1,3.6032167E-1,-2.5980827E-1,2.9988673E-1,2.6430255E-1,-3.8192773E-1,-1.02330945E-1,4.4125578E-1,3.1608245E-1,-2.519028E-1,-8.253709E-2,2.4424599E-1,-1.5061942E-1,3.2063138E-1,3.374833E-1,1.0742852E-1,-2.991563E-1,-1.4086502E-2,2.9717648E-1,-7.523256E-2,-1.8969502E-1,1.5423001E-1,-1.106206E-2,3.3171237E-1,-1.7206363E-1,3.1808373E-1,3.2323298E-1,-6.7931414E-1,-2.4814734E-1,-2.8939755E-3,1.5545781E-1,-3.3514515E-1,3.2845622E-1,2.5436422E-1,3.4243822E-1,2.9727178E-2,3.0251572E-1,3.3391473E-1,2.7374086E-1,-3.396451E-1],"split_indices":[7,63,7,7,39,47,7,6,47,7,0,46,23,47,110,47,7,0,23,23,23,127,110,7,47,54,0,102,6,32,6,78,47,30,31,63,23,121,39,41,63,46,34,0,0,24,11,34,126,3,72,8,23,39,39,39,0,39,6,16,5,110,79,0,0,0,0,0,0,0,0,0,0,0,0,0,0,0,0,0,0,0,0,0,0,0,0,0,0,0,0,0,0,0,0,0,0,0,0,0,0,0,0,0,0,0,0,0,0,0,0,0,0,0,0,0,0,0,0,0,0,0,0],"split_type":[0,0,0,0,0,0,0,0,0,0,0,0,0,0,0,0,0,0,0,0,0,0,0,0,0,0,0,0,0,0,0,0,0,0,0,0,0,0,0,0,0,0,0,0,0,0,0,0,0,0,0,0,0,0,0,0,0,0,0,0,0,0,0,0,0,0,0,0,0,0,0,0,0,0,0,0,0,0,0,0,0,0,0,0,0,0,0,0,0,0,0,0,0,0,0,0,0,0,0,0,0,0,0,0,0,0,0,0,0,0,0,0,0,0,0,0,0,0,0,0,0,0,0],"sum_hessian":[1.6873836E4,9.069505E3,7.804331E3,5.345759E3,3.7237466E3,1.5651116E3,6.2392197E3,3.695068E3,1.6506907E3,3.6585618E3,6.518471E1,7.003912E2,8.647204E2,1.3861572E3,4.8530625E3,1.8225211E3,1.872547E3,4.4835303E2,1.2023376E3,2.9100195E3,7.4854224E2,2.044129E1,4.4743423E1,5.5448395E1,6.449428E2,6.949782E2,1.6974222E2,8.175793E2,5.6857794E2,8.748823E2,3.9781802E3,2.3427924E2,1.588242E3,1.0433629E3,8.291841E2,1.5828308E2,2.9006995E2,1.0766769E3,1.2566078E2,2.85237E3,5.7649254E1,5.36886E1,6.9485364E2,1.9392355E1,1.0489355E0,1.0058721E1,3.46847E1,3.255297E1,2.2895424E1,3.7987076E2,2.6507202E2,2.2335654E2,4.7162164E2,4.0272236E1,1.2946999E2,2.7398245E1,7.90181E2,1.4824762E2,4.203303E2,6.0562646E2,2.692558E2,3.8152063E3,1.6297389E2,7.829046E1,1.5598878E2,3.2683463E2,1.2614072E3,1.03832E0,1.0423246E3,8.4922646E1,7.442615E2,1.4317958E2,1.5103507E1,1.0202281E2,1.8804713E2,8.880731E2,1.8860376E2,8.5499016E1,4.0161762E1,6.4920605E2,2.203164E3,1.908998E1,3.8559277E1,6.1510534E0,4.7537548E1,6.8330566E2,1.1548002E1,4.134342E0,5.9243784E0,1.0441724E0,3.364053E1,3.0350475E0,2.9517923E1,8.648356E0,1.4247068E1,5.0175533E0,3.748532E2,9.0423676E1,1.7464835E2,2.0355017E2,1.9806372E1,3.466133E1,4.369603E2,3.0511223E1,9.761013E0,2.9119572E1,1.0035041E2,2.1017632E1,6.380614E0,7.8902E2,1.1610016E0,6.651709E1,8.173053E1,3.927312E2,2.759908E1,4.754032E2,1.3022328E2,5.1198536E1,2.1805728E2,1.1213281E3,2.693878E3,1.4898032E2,1.3993586E1],"tree_param":{"num_deleted":"0","num_feature":"128","num_nodes":"123","size_leaf_vector":"0"}},{"base_weights":[2.8284816E-3,-5.002775E-1,7.7719736E-1,4.1477397E-1,-5.7569486E-1,4.8952335E-1,1.0208803E0,1.0121181E0,-3.307065E-2,-3.425824E-1,-8.9368314E-1,7.8983223E-1,3.2056281E-3,-2.2430313E-1,1.0321623E0,2.8517809E-2,1.0836964E0,1.0269054E0,-5.86334E-1,-5.266223E-1,4.0414986E-1,-9.9024636E-1,-6.650443E-1,4.697962E-1,9.6960694E-1,6.4293027E-1,-4.1466135E-1,-1.2426358E0,1.0636889E0,1.0450351E0,2.603495E-1,2.9664755E-1,-7.019176E-1,1.1873188E-2,1.1049026E0,4.565573E-1,1.3284919E0,-7.746989E-1,6.326726E-1,-7.684779E-1,-2.8373417E-1,1.0513046E0,-7.135378E-2,-1.0198994E0,-2.3469076E-1,-4.612078E-1,-9.7624296E-1,8.8793814E-1,-1.7784524E-1,2.6665676E-1,1.0363791E0,1.7092604E-2,9.2154974E-1,-7.937339E-1,-1.0522031E-1,2.400072E-1,-1.4363811E0,9.052989E-2,3.236329E-1,8.778426E-1,1.0860612E0,-2.0683033E0,6.843286E-1,1.9578816E-1,-3.88271E-1,-2.4865694E-1,2.4253434E-1,3.4037197E-1,2.536683E-1,-2.2456607E-1,2.84402E-1,2.1226535E-2,3.9196357E-1,-2.3620585E-1,2.6890057E-1,3.40442E-1,-2.346394E-2,-1.3491224E-1,-2.7262482E-1,1.4787234E-1,-1.5651071E-1,2.7474678E-1,6.173584E-1,2.1976207E-1,-1.3173047E-1,-2.6912287E-2,-2.955389E-1,2.584037E-1,-2.5478372E-1,-1.479056E-1,1.7674293E-1,-2.871079E-1,4.33142E-1,-3.7066415E-1,2.7876458E-1,1.569859E-1,-1.2440655E-1,3.155794E-1,-1.1121801E-1,3.001872E-1,-1.9041412E-1,3.334469E-1,-6.1354294E-2,5.3694718E-2,2.829367E-1,-2.5718528E-1,-3.2644946E-2,-8.627057E-2,1.8847735E-1,-5.2955944E-2,-4.5020315E-1,-5.7902377E-2,2.87851E-1,3.1329277E-1,3.0706568E-2,-7.29396E-1,7.7673145E-2,3.1223798E-1,-1.3272445E-1],"categories":[],"categories_nodes":[],"categories_segments":[],"categories_sizes":[],"default_left":[0,0,0,0,0,0,0,0,0,0,0,0,0,0,0,0,0,0,0,0,0,0,0,0,0,0,0,0,0,0,0,0,0,0,0,0,0,0,0,0,0,0,0,0,0,0,0,0,0,0,0,0,0,0,0,0,0,0,0,0,0,0,0,0,0,0,0,0,0,0,0,0,0,0,0,0,0,0,0,0,0,0,0,0,0,0,0,0,0,0,0,0,0,0,0,0,0,0,0,0,0,0,0,0,0,0,0,0,0,0,0,0,0,0,0,0,0,0,0],"id":5,"left_children":[1,3,5,7,9,11,13,15,17,19,21,23,25,27,29,31,33,35,37,39,41,43,45,47,49,51,53,55,57,59,61,-1,63,65,67,69,71,73,75,77,79,81,83,85,87,89,91,93,95,97,99,101,103,105,107,-1,109,-1,-1,111,113,115,117,-1,-1,-1,-1,-1,-1,-1,-1,-1,-1,-1,-1,-1,-1,-1,-1,-1,-1,-1,-1,-1,-1,-1,-1,-1,-1,-1,-1,-1,-1,-1,-1,-1,-1,-1,-1,-1,-1,-1,-1,-1,-1,-1,-1,-1,-1,-1,-1,-1,-1,-1,-1,-1,-1,-1,-1],"loss_changes":[5.552133E3,5.964016E2,3.929463E2,1.7615576E2,5.9132666E2,3.761903E2,4.2905518E1,1.9832E1,2.2182823E2,6.333321E2,7.3864746E1,9.1166626E1,2.6341223E2,3.8174374E1,2.963916E1,1.55101795E1,5.963806E0,2.1709229E1,5.7549316E1,2.1692383E2,2.8055954E2,5.2884277E1,6.3321106E1,1.5579837E2,4.7540955E1,6.7872696E1,6.9833595E1,7.702303E0,2.514286E-1,1.9355957E1,5.14915E1,0E0,1.1937935E1,5.192371E0,3.5133362E0,3.1399326E1,3.6604462E0,1.8219437E1,1.3429829E1,9.934314E1,3.8478082E2,3.8267E1,1.7070084E2,1.8031982E1,6.795567E1,3.5406296E1,2.4079895E1,6.3776703E1,4.20435E1,4.9196404E1,1.3768738E1,3.2137695E1,1.2298889E1,1.8339493E1,4.9074615E1,0E0,2.1823254E0,0E0,0E0,7.890509E1,9.64624E0,9.546249E0,2.063226E1,0E0,0E0,0E0,0E0,0E0,0E0,0E0,0E0,0E0,0E0,0E0,0E0,0E0,0E0,0E0,0E0,0E0,0E0,0E0,0E0,0E0,0E0,0E0,0E0,0E0,0E0,0E0,0E0,0E0,0E0,0E0,0E0,0E0,0E0,0E0,0E0,0E0,0E0,0E0,0E0,0E0,0E0,0E0,0E0,0E0,0E0,0E0,0E0,0E0,0E0,0E0,0E0,0E0,0E0,0E0,0E0],"parents":[2147483647,0,0,1,1,2,2,3,3,4,4,5,5,6,6,7,7,8,8,9,9,10,10,11,11,12,12,13,13,14,14,15,15,16,16,17,17,18,18,19,19,20,20,21,21,22,22,23,23,24,24,25,25,26,26,27,27,28,28,29,29,30,30,32,32,33,33,34,34,35,35,36,36,37,37,38,38,39,39,40,40,41,41,42,42,43,43,44,44,45,45,46,46,47,47,48,48,49,49,50,50,51,51,52,52,53,53,54,54,56,56,59,59,60,60,61,61,62,62],"right_children":[2,4,6,8,10,12,14,16,18,20,22,24,26,28,30,32,34,36,38,40,42,44,46,48,50,52,54,56,58,60,62,-1,64,66,68,70,72,74,76,78,80,82,84,86,88,90,92,94,96,98,100,102,104,106,108,-1,110,-1,-1,112,114,116,118,-1,-1,-1,-1,-1,-1,-1,-1,-1,-1,-1,-1,-1,-1,-1,-1,-1,-1,-1,-1,-1,-1,-1,-1,-1,-1,-1,-1,-1,-1,-1,-1,-1,-1,-1,-1,-1,-1,-1,-1,-1,-1,-1,-1,-1,-1,-1,-1,-1,-1,-1,-1,-1,-1,-1,-1],"split_conditions":[9.988524E-1,3.5961914E-1,9.9974227E-1,9.9757E-1,9.9750566E-1,9.9930596E-1,-4.9072266E-2,5.31093E-3,2.434082E-1,4.7741623E1,9.9820554E-1,9.906008E-1,3E0,3.9782282E-4,1.0050424E0,2.878418E-1,9.8742974E-1,7.9833984E-2,2.6552734E0,4.2691334E1,9.9366724E-1,5.167282E1,9.988484E-1,9.9513704E-1,5.69869E-4,5.3342123E-4,4.8452272E-4,1.0000044E0,1.0001215E0,1.903876E-4,3.7860703E-3,2.9664755E-1,4.8333748E1,1.7456055E-1,6.0327435E1,5.4755627E1,2.2868188E-3,1.171875E-1,3.1567383E-1,9.887159E-1,9.932918E-1,5.0015392E1,6.3061523E-1,9.914846E-1,5.9285107E1,9.8891085E-1,9.9917483E-1,-1.1621094E-1,9.9990505E-1,1.862793E-1,2.0424888E-1,2E0,6.4941406E-2,1.0005852E0,9.946765E-1,2.400072E-1,9.9984044E-1,9.052989E-2,3.236329E-1,9.9621296E-1,9.998262E-1,1.0498872E0,8.29163E-3,1.9578816E-1,-3.88271E-1,-2.4865694E-1,2.4253434E-1,3.4037197E-1,2.536683E-1,-2.2456607E-1,2.84402E-1,2.1226535E-2,3.9196357E-1,-2.3620585E-1,2.6890057E-1,3.40442E-1,-2.346394E-2,-1.3491224E-1,-2.7262482E-1,1.4787234E-1,-1.5651071E-1,2.7474678E-1,6.173584E-1,2.1976207E-1,-1.3173047E-1,-2.6912287E-2,-2.955389E-1,2.584037E-1,-2.5478372E-1,-1.479056E-1,1.7674293E-1,-2.871079E-1,4.33142E-1,-3.7066415E-1,2.7876458E-1,1.569859E-1,-1.2440655E-1,3.155794E-1,-1.1121801E-1,3.001872E-1,-1.9041412E-1,3.334469E-1,-6.1354294E-2,5.3694718E-2,2.829367E-1,-2.5718528E-1,-3.2644946E-2,-8.627057E-2,1.8847735E-1,-5.2955944E-2,-4.5020315E-1,-5.7902377E-2,2.87851E-1,3.1329277E-1,3.0706568E-2,-7.29396E-1,7.7673145E-2,3.1223798E-1,-1.3272445E-1],"split_indices":[15,0,23,47,55,63,3,70,0,1,15,39,5,54,4,0,114,8,96,1,47,1,55,79,54,46,54,74,2,54,54,0,33,48,17,1,38,8,0,119,55,105,0,79,17,39,47,3,20,0,102,5,104,100,39,0,20,0,0,71,119,100,14,0,0,0,0,0,0,0,0,0,0,0,0,0,0,0,0,0,0,0,0,0,0,0,0,0,0,0,0,0,0,0,0,0,0,0,0,0,0,0,0,0,0,0,0,0,0,0,0,0,0,0,0,0,0,0,0],"split_type":[0,0,0,0,0,0,0,0,0,0,0,0,0,0,0,0,0,0,0,0,0,0,0,0,0,0,0,0,0,0,0,0,0,0,0,0,0,0,0,0,0,0,0,0,0,0,0,0,0,0,0,0,0,0,0,0,0,0,0,0,0,0,0,0,0,0,0,0,0,0,0,0,0,0,0,0,0,0,0,0,0,0,0,0,0,0,0,0,0,0,0,0,0,0,0,0,0,0,0,0,0,0,0,0,0,0,0,0,0,0,0,0,0,0,0,0,0,0,0],"sum_hessian":[1.4249235E4,8.637695E3,5.61154E3,6.573583E2,7.9803374E3,2.57486E3,3.03668E3,2.811263E2,3.7623193E2,4.605899E3,3.3744382E3,1.591475E3,9.833851E2,2.7097342E1,3.0095825E3,1.9165115E1,2.619612E2,1.2873581E2,2.4749612E2,3.6954197E3,9.1047943E2,2.370114E3,1.00432404E3,5.737303E2,1.0177447E3,3.883343E2,5.950508E2,1.5152471E1,1.1944871E1,2.9598623E3,4.972024E1,7.897906E0,1.1267209E1,5.1126595E0,2.5684854E2,4.5396893E1,8.333892E1,2.1468654E2,3.280959E1,1.8505609E3,1.8448586E3,3.8512204E2,5.253574E2,2.2802715E3,8.9842705E1,6.083404E2,3.9598364E2,3.4841153E2,2.2531877E2,8.872085E1,9.2902386E2,1.1995396E2,2.6838034E2,2.6673233E2,3.2831845E2,1.0099612E0,1.4142509E1,1.3866326E0,1.0558239E1,5.876065E2,2.3722559E3,7.0608854E0,4.2659355E1,3.5834036E0,7.6838055E0,2.4695423E0,2.6431174E0,1.8590305E2,7.09455E1,1.3525012E1,3.1871881E1,2.3808866E0,8.095803E1,2.09415E2,5.271545E0,1.8135212E1,1.46743765E1,6.974167E2,1.1531442E3,4.5420135E2,1.3906573E3,3.5609912E2,2.9022903E1,1.6593573E2,3.594217E2,2.1036459E1,2.2592349E3,3.2659485E1,5.7183216E1,5.800271E2,2.8313349E1,3.929587E2,3.0249224E0,1.2132508E1,3.3627902E2,5.839736E1,1.6692142E2,3.874878E1,4.9972065E1,9.24904E2,4.11987E0,1.9457088E1,1.0049687E2,2.1532034E1,2.468483E2,2.3188753E2,3.484481E1,2.6183984E2,6.647862E1,1.5608976E0,1.2581612E1,6.0434414E1,5.2717206E2,2.3620088E3,1.0247084E1,5.808189E0,1.2526964E0,3.1615799E1,1.1043556E1],"tree_param":{"num_deleted":"0","num_feature":"128","num_nodes":"119","size_leaf_vector":"0"}},{"base_weights":[7.005999E-3,-4.7612628E-1,7.8224456E-1,-7.0556724E-1,-1.4676526E-1,5.4935205E-1,9.6937215E-1,-4.4798115E-1,-9.421375E-1,4.7137055E-1,-4.4024166E-1,8.393018E-1,1.03389725E-1,7.158456E-1,1.0334255E0,-7.6581365E-1,-5.269416E-2,-9.491872E-1,1.4404081E0,1.3984379E0,3.507828E-1,-2.316174E-1,-8.3173347E-1,1.3665386E-1,9.1939235E-1,5.51535E-1,-9.7150244E-2,1.0178187E0,2.4502762E-1,1.0520146E0,5.3422546E-1,-5.465084E-1,-9.969748E-1,1.1137332E0,-2.7779815E-1,-7.994818E-1,-1.0434184E0,-1.1508391E-1,6.043318E-1,1.1804227E0,2.1367483E0,5.3540543E-2,7.715482E-1,-3.1244484E-1,1.0545646E0,-9.0852934E-1,2.639581E-1,-3.358569E-1,7.478831E-1,9.3772393E-1,-1.1561972E0,-8.4666604E-1,6.8831366E-1,-2.7126932E-1,6.278136E-1,7.723169E-1,1.0588489E0,-1.00385346E-1,7.919437E-1,1.053888E0,-3.622911E-1,-1.5403339E0,7.008773E-1,-1.8476266E-1,4.804047E-1,-1.87016E-1,-2.9758465E-1,2.9226547E-1,9.340222E-1,1.327669E-1,-1.2722638E-1,-2.4034135E-1,3.119357E-1,-2.2042441E-1,-3.0521587E-1,-1.0281395E-1,3.4550548E-1,8.791003E-1,5.068134E-1,-1.37345735E-2,3.303075E-1,-2.4099833E-1,2.3339641E-1,-1.8341577E-1,-3.4495644E-2,-8.552865E-2,3.719062E-1,-2.696721E-1,1.1654317E-1,-2.0308915E-1,2.5279504E-1,2.8646356E-1,-1.5902548E-1,2.666609E-1,-1.3000289E-1,2.7197775E-1,-4.6078426E-1,-1.1097265E-2,-4.8096538E-1,-4.17482E-1,-3.0626815E-2,2.8582048E-1,1.3789518E-1,1.1717948E-2,-1.8786857E-1,2.1611054E-1,-2.4019586E-1,-3.753367E-2,2.8485182E-1,3.0605587E-1,1.2758772E-1,-2.320369E-1,8.188285E-2,-3.511905E-1,2.4920592E-1,2.522182E-1,3.0635244E-1,-3.965696E-1,1.8895419E-1,-6.2587136E-1,2.0101374E-1,2.530607E-1,-3.0813644E-2],"categories":[],"categories_nodes":[],"categories_segments":[],"categories_sizes":[],"default_left":[0,0,0,0,0,0,0,0,0,0,0,0,0,0,0,0,0,0,0,0,0,0,0,0,0,0,0,0,0,0,0,0,0,0,0,0,0,0,0,0,0,0,0,0,0,0,0,0,0,0,0,0,0,0,0,0,0,0,0,0,0,0,0,0,0,0,0,0,0,0,0,0,0,0,0,0,0,0,0,0,0,0,0,0,0,0,0,0,0,0,0,0,0,0,0,0,0,0,0,0,0,0,0,0,0,0,0,0,0,0,0,0,0,0,0,0,0,0,0,0,0,0,0],"id":6,"left_children":[1,3,5,7,9,11,13,15,17,19,21,23,25,27,29,31,33,35,37,39,41,43,45,47,49,51,53,55,57,59,61,63,65,67,69,71,73,-1,-1,75,77,79,81,83,85,87,89,91,93,95,97,99,101,103,105,107,109,111,113,115,117,119,121,-1,-1,-1,-1,-1,-1,-1,-1,-1,-1,-1,-1,-1,-1,-1,-1,-1,-1,-1,-1,-1,-1,-1,-1,-1,-1,-1,-1,-1,-1,-1,-1,-1,-1,-1,-1,-1,-1,-1,-1,-1,-1,-1,-1,-1,-1,-1,-1,-1,-1,-1,-1,-1,-1,-1,-1,-1,-1,-1,-1],"loss_changes":[4.5784478E3,5.689949E2,2.040022E2,2.700454E2,5.613738E2,2.7058417E2,4.1498535E1,2.6715485E2,4.0212402E1,1.1089334E2,1.711647E2,7.125226E1,7.4276405E1,7.4798096E1,1.8685791E1,5.9214417E1,2.4947404E2,3.170337E1,9.650237E0,1.58832855E1,1.1039418E2,1.4276013E2,6.1579437E1,3.8072628E1,4.4399475E1,4.943982E1,7.229964E1,2.418457E0,3.9293827E1,5.677002E0,2.7526451E1,1.3099786E2,6.982483E0,2.8435257E1,9.737479E1,6.3194336E1,6.4971924E0,0E0,0E0,3.484909E0,3.150322E0,5.7641624E1,2.4617264E1,8.0785835E1,2.6713043E1,2.718518E1,2.9624912E1,2.216674E1,1.2829514E1,2.6655518E1,5.9591923E0,1.0258892E1,1.4416962E1,5.510662E1,2.0809437E1,9.956116E0,5.709839E-1,3.5138245E1,1.3262569E1,3.3623047E0,4.4241605E0,1.0094982E1,1.0481182E1,0E0,0E0,0E0,0E0,0E0,0E0,0E0,0E0,0E0,0E0,0E0,0E0,0E0,0E0,0E0,0E0,0E0,0E0,0E0,0E0,0E0,0E0,0E0,0E0,0E0,0E0,0E0,0E0,0E0,0E0,0E0,0E0,0E0,0E0,0E0,0E0,0E0,0E0,0E0,0E0,0E0,0E0,0E0,0E0,0E0,0E0,0E0,0E0,0E0,0E0,0E0,0E0,0E0,0E0,0E0,0E0,0E0,0E0,0E0,0E0],"parents":[2147483647,0,0,1,1,2,2,3,3,4,4,5,5,6,6,7,7,8,8,9,9,10,10,11,11,12,12,13,13,14,14,15,15,16,16,17,17,18,18,19,19,20,20,21,21,22,22,23,23,24,24,25,25,26,26,27,27,28,28,29,29,30,30,31,31,32,32,33,33,34,34,35,35,36,36,39,39,40,40,41,41,42,42,43,43,44,44,45,45,46,46,47,47,48,48,49,49,50,50,51,51,52,52,53,53,54,54,55,55,56,56,57,57,58,58,59,59,60,60,61,61,62,62],"right_children":[2,4,6,8,10,12,14,16,18,20,22,24,26,28,30,32,34,36,38,40,42,44,46,48,50,52,54,56,58,60,62,64,66,68,70,72,74,-1,-1,76,78,80,82,84,86,88,90,92,94,96,98,100,102,104,106,108,110,112,114,116,118,120,122,-1,-1,-1,-1,-1,-1,-1,-1,-1,-1,-1,-1,-1,-1,-1,-1,-1,-1,-1,-1,-1,-1,-1,-1,-1,-1,-1,-1,-1,-1,-1,-1,-1,-1,-1,-1,-1,-1,-1,-1,-1,-1,-1,-1,-1,-1,-1,-1,-1,-1,-1,-1,-1,-1,-1,-1,-1,-1,-1,-1],"split_conditions":[9.959025E-1,9.905607E-1,9.9810344E-1,9.9576896E-1,9.9548614E-1,9.990517E-1,5.866791E-4,9.8084587E-1,9.86483E-1,9.9682164E-1,9.992304E-1,1.0164684E-3,3E0,2E0,5.4974123E-3,1.7008057E-2,9.9403805E-1,9.9459624E-1,7.912904E-3,9.9598205E-1,9.9344456E-1,9.901794E-1,9.916994E-1,9.931761E-1,3.8732823E-2,4.0592276E-4,9.9532074E-1,-6.591797E-3,9.9810266E-1,1.614502E0,5.110762E-3,1.5234375E-1,9.8530906E-1,9.968981E-1,6.810212E-4,9.9931246E-1,9.975361E-1,-1.1508391E-1,6.043318E-1,1.3834056E-3,9.9133974E-1,9.99234E-1,5.6543096E-4,9.931182E-1,3.6743164E-1,2.2705078E-1,1.759494E-3,9.998054E-1,3.5327148E-1,9.011475E0,3.4545898E-1,-4.638672E-3,3E0,9.993236E-1,5.6795853E1,2.2115605E-4,2.9296875E-3,3.485398E-4,-7.080078E-3,2.8576146E-4,1.7868751E-3,5.4755627E1,2.1662978E-2,-1.8476266E-1,4.804047E-1,-1.87016E-1,-2.9758465E-1,2.9226547E-1,9.340222E-1,1.327669E-1,-1.2722638E-1,-2.4034135E-1,3.119357E-1,-2.2042441E-1,-3.0521587E-1,-1.0281395E-1,3.4550548E-1,8.791003E-1,5.068134E-1,-1.37345735E-2,3.303075E-1,-2.4099833E-1,2.3339641E-1,-1.8341577E-1,-3.4495644E-2,-8.552865E-2,3.719062E-1,-2.696721E-1,1.1654317E-1,-2.0308915E-1,2.5279504E-1,2.8646356E-1,-1.5902548E-1,2.666609E-1,-1.3000289E-1,2.7197775E-1,-4.6078426E-1,-1.1097265E-2,-4.8096538E-1,-4.17482E-1,-3.0626815E-2,2.8582048E-1,1.3789518E-1,1.1717948E-2,-1.8786857E-1,2.1611054E-1,-2.4019586E-1,-3.753367E-2,2.8485182E-1,3.0605587E-1,1.2758772E-1,-2.320369E-1,8.188285E-2,-3.511905E-1,2.4920592E-1,2.522182E-1,3.0635244E-1,-3.965696E-1,1.8895419E-1,-6.2587136E-1,2.0101374E-1,2.530607E-1,-3.0813644E-2],"split_indices":[7,7,7,55,47,55,110,7,39,15,63,46,5,5,6,6,15,79,102,55,7,39,39,39,6,46,39,51,39,0,78,11,95,63,30,23,55,0,0,54,7,23,126,7,0,8,6,20,48,0,104,115,37,55,1,78,27,78,27,94,46,33,6,0,0,0,0,0,0,0,0,0,0,0,0,0,0,0,0,0,0,0,0,0,0,0,0,0,0,0,0,0,0,0,0,0,0,0,0,0,0,0,0,0,0,0,0,0,0,0,0,0,0,0,0,0,0,0,0,0,0,0,0],"split_type":[0,0,0,0,0,0,0,0,0,0,0,0,0,0,0,0,0,0,0,0,0,0,0,0,0,0,0,0,0,0,0,0,0,0,0,0,0,0,0,0,0,0,0,0,0,0,0,0,0,0,0,0,0,0,0,0,0,0,0,0,0,0,0,0,0,0,0,0,0,0,0,0,0,0,0,0,0,0,0,0,0,0,0,0,0,0,0,0,0,0,0,0,0,0,0,0,0,0,0,0,0,0,0,0,0,0,0,0,0,0,0,0,0,0,0,0,0,0,0,0,0,0,0],"sum_hessian":[1.22221045E4,7.529852E3,4.692253E3,4.4374634E3,3.0923887E3,2.0922483E3,2.6000046E3,2.1257568E3,2.3117065E3,9.953412E2,2.0970474E3,1.2673667E3,8.248815E2,5.2685547E2,2.0731492E3,1.177802E3,9.4795496E2,2.3054863E3,6.220142E0,1.1334653E2,8.819946E2,1.3690686E3,7.279788E2,1.2995506E2,1.1374116E3,2.5446965E2,5.704118E2,3.2027548E2,2.0657996E2,1.9976532E3,7.549591E1,6.061268E2,5.7167523E2,1.5270934E2,7.9524567E2,8.942584E2,1.411228E3,1.7511368E0,4.469005E0,8.951308E1,2.383345E1,5.1752527E2,3.6446936E2,1.2888317E3,8.023686E1,6.8045715E2,4.752171E1,7.354874E1,5.640633E1,1.1279974E3,9.414243E0,2.2212757E1,2.322569E2,4.604488E2,1.09963036E2,4.870076E1,2.7157474E2,1.27115036E2,7.946493E1,1.9952653E3,2.3879976E0,5.0008006E0,7.049511E1,5.815473E2,2.457947E1,5.9174606E1,5.125006E2,1.4751303E2,5.196304E0,1.446535E2,6.5059216E2,8.7763074E2,1.6627705E1,9.2270805E1,1.3189572E3,1.0435371E0,8.8469536E1,4.788957E0,1.9044493E1,4.7459735E2,4.292792E1,8.496205E0,3.5597318E2,4.7762253E2,8.1120917E2,1.2044042E1,6.819282E1,6.6558246E2,1.4874696E1,1.8387556E1,2.9134151E1,9.818344E0,6.3730396E1,4.924428E1,7.1620493E0,1.1247471E3,3.250304E0,3.3200047E0,6.0942383E0,1.1681662E1,1.05310955E1,9.251436E1,1.3974254E2,2.5407399E2,2.063748E2,1.0180683E2,8.156204E0,9.584043E0,3.911672E1,2.6812607E2,3.448653E0,4.445094E1,8.266409E1,2.314798E0,7.715012E1,1.3416864E2,1.8610966E3,1.0184364E0,1.3695613E0,3.914046E0,1.0867544E0,5.7592888E1,1.2902219E1],"tree_param":{"num_deleted":"0","num_feature":"128","num_nodes":"123","size_leaf_vector":"0"}},{"base_weights":[1.0481934E-2,-3.9561945E-1,7.118032E-1,-6.3275564E-1,-1.2554967E-1,4.8359117E-1,9.241581E-1,-3.813856E-1,-8.8989574E-1,2.2471532E-1,-4.849894E-1,9.13805E-1,2.1097519E-1,6.5997857E-1,9.977212E-1,-7.261409E-1,1.8012318E-3,1.37626E-1,-9.2584366E-1,1.076797E0,1.1104611E-1,-5.669021E-1,4.2776138E-1,9.2814237E-1,-1.3108127E0,-1.0914799E-1,4.0194243E-1,9.72762E-1,2.2959612E-1,1.0197272E0,4.5634472E-1,-4.9570128E-1,-9.584806E-1,1.1953347E0,-1.8439172E-1,-5.890272E-1,2.3916144E0,-9.327411E-1,9.8345107E-1,9.358356E-2,1.220371E0,-7.4792325E-2,5.464036E-1,-6.0959905E-1,8.086353E-1,6.165707E-1,-1.0711342E0,9.4307137E-1,-4.7506413E-1,-1.17334604E-1,-4.4716975E-1,8.8667613E-1,-2.7182505E-1,7.828998E-1,5.5773616E-2,5.4956484E-1,1.0061795E0,-4.0410537E-2,7.5905806E-1,1.0221168E0,-3.6344627E-1,8.242455E-1,-5.247807E-1,8.785032E-2,-2.10335E-1,-1.7820273E-1,-2.9017147E-1,3.024436E-1,1.0291698E0,-1.22122996E-1,7.2818995E-2,2.0293178E-1,-2.4706163E-1,8.1252074E-1,6.7209634E-3,-2.3057047E-1,-2.9387304E-1,-1.7971031E-1,5.759602E-1,-1.1874282E-1,2.9832423E-1,3.0006903E-1,4.816207E-1,-5.3692423E-2,1.9763064E-1,2.9374555E-1,9.095334E-2,-1.2647183E-1,-2.5565422E-1,3.975266E-1,-3.4238245E-2,3.0112544E-1,-1.2318851E-2,1.014344E-1,-3.464864E-1,1.3157287E-1,2.8239167E-1,2.5921005E-1,-5.2633137E-1,8.252736E-3,3.421475E-1,-1.2577657E-1,1.4568399E-1,1.1033635E-1,2.624928E-1,-6.737726E-2,1.282486E-1,-8.1192076E-1,2.5199872E-1,-1.0065171E-1,2.9128107E-1,3.475841E-1,-5.277787E-2,-1.0459413E-1,2.810598E-1,1.5243371E-1,2.9562187E-1,1.8687391E-1,-3.8707933E-1,2.5258183E-1,-1.2238569E-1,3.0517828E-1,-4.8842642E-1],"categories":[],"categories_nodes":[],"categories_segments":[],"categories_sizes":[],"default_left":[0,0,0,0,0,0,0,0,0,0,0,0,0,0,0,0,0,0,0,0,0,0,0,0,0,0,0,0,0,0,0,0,0,0,0,0,0,0,0,0,0,0,0,0,0,0,0,0,0,0,0,0,0,0,0,0,0,0,0,0,0,0,0,0,0,0,0,0,0,0,0,0,0,0,0,0,0,0,0,0,0,0,0,0,0,0,0,0,0,0,0,0,0,0,0,0,0,0,0,0,0,0,0,0,0,0,0,0,0,0,0,0,0,0,0,0,0,0,0,0,0,0,0],"id":7,"left_children":[1,3,5,7,9,11,13,15,17,19,21,23,25,27,29,31,33,35,37,39,41,43,45,47,49,51,53,55,57,59,61,63,65,67,69,71,73,75,77,79,81,83,85,87,89,91,93,95,97,-1,-1,99,101,103,105,107,109,111,113,115,117,119,121,-1,-1,-1,-1,-1,-1,-1,-1,-1,-1,-1,-1,-1,-1,-1,-1,-1,-1,-1,-1,-1,-1,-1,-1,-1,-1,-1,-1,-1,-1,-1,-1,-1,-1,-1,-1,-1,-1,-1,-1,-1,-1,-1,-1,-1,-1,-1,-1,-1,-1,-1,-1,-1,-1,-1,-1,-1,-1,-1,-1],"loss_changes":[2.9890354E3,4.2557593E2,1.8606262E2,2.2839368E2,3.9148563E2,2.1761679E2,3.80625E1,2.3662698E2,6.471338E1,1.5243771E2,1.14974365E2,2.4182678E1,6.961802E1,5.8594086E1,1.807837E1,5.0006775E1,1.8895985E2,9.964026E1,2.3167358E1,2.6039963E1,1.1256739E2,8.322211E1,3.6586098E1,1.5447632E1,4.7731018E-1,6.9256165E1,9.399051E1,3.021103E0,2.6506851E1,5.312378E0,2.3031633E1,9.024902E1,7.507141E0,3.5337723E1,7.75874E1,1.6793417E1,1.5234024E1,1.8922485E1,1.2041859E1,1.2249052E1,1.1218048E1,8.349524E1,4.5203766E1,6.448459E1,2.3007824E1,3.229474E1,3.2188034E0,1.3187927E1,1.6976236E1,0E0,0E0,1.5629906E1,4.762962E1,1.7328583E1,4.257282E1,2.5349905E1,2.7199402E0,2.2355997E1,1.5754482E1,4.3345947E0,4.18234E0,3.5171642E0,3.4778076E1,0E0,0E0,0E0,0E0,0E0,0E0,0E0,0E0,0E0,0E0,0E0,0E0,0E0,0E0,0E0,0E0,0E0,0E0,0E0,0E0,0E0,0E0,0E0,0E0,0E0,0E0,0E0,0E0,0E0,0E0,0E0,0E0,0E0,0E0,0E0,0E0,0E0,0E0,0E0,0E0,0E0,0E0,0E0,0E0,0E0,0E0,0E0,0E0,0E0,0E0,0E0,0E0,0E0,0E0,0E0,0E0,0E0,0E0,0E0,0E0],"parents":[2147483647,0,0,1,1,2,2,3,3,4,4,5,5,6,6,7,7,8,8,9,9,10,10,11,11,12,12,13,13,14,14,15,15,16,16,17,17,18,18,19,19,20,20,21,21,22,22,23,23,24,24,25,25,26,26,27,27,28,28,29,29,30,30,31,31,32,32,33,33,34,34,35,35,36,36,37,37,38,38,39,39,40,40,41,41,42,42,43,43,44,44,45,45,46,46,47,47,48,48,51,51,52,52,53,53,54,54,55,55,56,56,57,57,58,58,59,59,60,60,61,61,62,62],"right_children":[2,4,6,8,10,12,14,16,18,20,22,24,26,28,30,32,34,36,38,40,42,44,46,48,50,52,54,56,58,60,62,64,66,68,70,72,74,76,78,80,82,84,86,88,90,92,94,96,98,-1,-1,100,102,104,106,108,110,112,114,116,118,120,122,-1,-1,-1,-1,-1,-1,-1,-1,-1,-1,-1,-1,-1,-1,-1,-1,-1,-1,-1,-1,-1,-1,-1,-1,-1,-1,-1,-1,-1,-1,-1,-1,-1,-1,-1,-1,-1,-1,-1,-1,-1,-1,-1,-1,-1,-1,-1,-1,-1,-1,-1,-1,-1,-1,-1,-1,-1,-1,-1,-1],"split_conditions":[9.959935E-1,9.899791E-1,9.9817616E-1,9.917689E-1,9.9796927E-1,9.9785626E-1,5.866791E-4,9.788815E-1,9.917045E-1,9.970834E-1,9.991325E-1,9.011475E0,9.931761E-1,2E0,5.4974123E-3,1.7008057E-2,9.9306303E-1,9.9911815E-1,9.8514754E-1,1.4137707E-3,9.9417627E-1,1.0001624E0,4.7871094E0,2.744263E-2,2E0,9.9875754E-1,9.9869835E-1,1.813749E-4,9.975031E-1,1.614502E0,9.994281E-1,9.8826325E-1,9.8625845E-1,9.9677914E-1,9.870375E-1,5.577019E-4,1.8732666E1,9.9466395E-1,1.4326172E0,9.7199357E-1,9.9713254E-1,9.985573E-1,9.9829966E-1,9.9929696E-1,9.980763E-1,9.972638E-1,6.225586E-2,1.1486975E-3,2.5585938E-1,-1.17334604E-1,-4.4716975E-1,9.962476E-1,9.972947E-1,4.563139E-3,9.9532074E-1,9.9961877E-1,-1.00097656E-1,9.994033E-1,1.8861677E-4,1.26953125E-2,9.993284E-1,9.995069E-1,5.3710938E-2,8.785032E-2,-2.10335E-1,-1.7820273E-1,-2.9017147E-1,3.024436E-1,1.0291698E0,-1.22122996E-1,7.2818995E-2,2.0293178E-1,-2.4706163E-1,8.1252074E-1,6.7209634E-3,-2.3057047E-1,-2.9387304E-1,-1.7971031E-1,5.759602E-1,-1.1874282E-1,2.9832423E-1,3.0006903E-1,4.816207E-1,-5.3692423E-2,1.9763064E-1,2.9374555E-1,9.095334E-2,-1.2647183E-1,-2.5565422E-1,3.975266E-1,-3.4238245E-2,3.0112544E-1,-1.2318851E-2,1.014344E-1,-3.464864E-1,1.3157287E-1,2.8239167E-1,2.5921005E-1,-5.2633137E-1,8.252736E-3,3.421475E-1,-1.2577657E-1,1.4568399E-1,1.1033635E-1,2.624928E-1,-6.737726E-2,1.282486E-1,-8.1192076E-1,2.5199872E-1,-1.0065171E-1,2.9128107E-1,3.475841E-1,-5.277787E-2,-1.0459413E-1,2.810598E-1,1.5243371E-1,2.9562187E-1,1.8687391E-1,-3.8707933E-1,2.5258183E-1,-1.2238569E-1,3.0517828E-1,-4.8842642E-1],"split_indices":[7,7,7,47,55,47,110,7,127,15,15,0,39,5,6,6,15,23,39,14,7,10,32,6,13,15,47,110,71,0,47,15,95,63,7,30,32,79,0,39,63,15,15,63,36,111,8,46,0,0,0,7,7,102,39,119,75,15,78,88,15,87,0,0,0,0,0,0,0,0,0,0,0,0,0,0,0,0,0,0,0,0,0,0,0,0,0,0,0,0,0,0,0,0,0,0,0,0,0,0,0,0,0,0,0,0,0,0,0,0,0,0,0,0,0,0,0,0,0,0,0,0,0],"split_type":[0,0,0,0,0,0,0,0,0,0,0,0,0,0,0,0,0,0,0,0,0,0,0,0,0,0,0,0,0,0,0,0,0,0,0,0,0,0,0,0,0,0,0,0,0,0,0,0,0,0,0,0,0,0,0,0,0,0,0,0,0,0,0,0,0,0,0,0,0,0,0,0,0,0,0,0,0,0,0,0,0,0,0,0,0,0,0,0,0,0,0,0,0,0,0,0,0,0,0,0,0,0,0,0,0,0,0,0,0,0,0,0,0,0,0,0,0,0,0,0,0,0,0],"sum_hessian":[1.0492942E4,6.6453667E3,3.847576E3,3.5377148E3,3.1076519E3,1.8561256E3,1.9914504E3,1.7901846E3,1.7475303E3,1.5741029E3,1.533549E3,7.19048E2,1.1370776E3,4.3592587E2,1.5555245E3,9.418774E2,8.4830725E2,5.8975246E1,1.688555E3,1.8427516E2,1.3898276E3,1.4076056E3,1.2594335E2,7.150225E2,4.025452E0,4.250254E2,7.120523E2,2.5172368E2,1.8420218E2,1.4939156E3,6.1608833E1,4.7444547E2,4.6743192E2,1.1374696E2,7.345603E2,4.515621E1,1.3819036E1,1.6829867E3,5.5683928E0,2.3690617E1,1.6058455E2,9.74624E2,4.1520367E2,1.3657687E3,4.1836903E1,1.12376434E2,1.3566919E1,7.078198E2,7.2027087E0,1.4299022E0,2.5955498E0,5.905724E1,3.6596814E2,3.3839185E2,3.7366046E2,1.9699228E1,2.3202446E2,1.226028E2,6.1599373E1,1.4915999E3,2.3158195E0,4.492342E1,1.6685413E1,1.0795754E2,3.6648795E2,6.328639E1,4.041455E2,1.0868274E2,5.064228E0,4.7406415E2,2.6049615E2,7.529196E0,3.7627014E1,1.1506786E1,2.3122494E0,6.9117096E2,9.918157E2,2.3121116E0,3.2562811E0,1.5784254E1,7.906362E0,1.1819239E2,4.239216E1,8.504098E2,1.242142E2,1.3412808E2,2.810756E2,8.52497E2,5.132716E2,2.5530014E1,1.6306889E1,6.7581406E1,4.4795033E1,1.0317948E0,1.2535125E1,5.4426777E1,6.53393E2,3.7405572E0,3.4621515E0,1.5737387E1,4.331985E1,3.020683E2,6.389983E1,8.4420334E1,2.539715E2,2.1458142E2,1.5907904E2,1.0672115E0,1.8632017E1,1.0214409E0,2.3100302E2,1.184081E1,1.1076199E2,9.94527E0,5.1654106E1,2.0985476E1,1.4706144E3,1.3072718E0,1.0085478E0,4.3323257E1,1.6001618E0,7.139461E0,9.545953E0],"tree_param":{"num_deleted":"0","num_feature":"128","num_nodes":"123","size_leaf_vector":"0"}},{"base_weights":[4.9834275E-3,-3.2175756E-1,6.6619796E-1,-5.087947E-1,-1.0544991E-2,4.606683E-1,8.993584E-1,-2.940419E-1,-8.242279E-1,9.4093126E-1,-1.2971689E-1,7.4942684E-1,5.1987715E-2,5.998882E-1,9.708803E-1,1.4398539E-1,-5.2047884E-1,-8.75502E-1,-3.941048E-2,7.885406E-2,1.0507487E0,-5.0425845E-1,4.968033E-2,1.8030192E-1,8.3174664E-1,-4.6564704E-1,1.7483535E-1,9.420155E-1,-3.1842783E-2,9.9460495E-1,3.5335305E-1,-1.20056525E-1,8.312204E-1,-8.25693E-1,-3.4175E-1,-6.887656E-1,-9.775807E-1,3.69238E-1,-7.2212684E-1,-3.2339096E-1,1.0811737E0,1.0706117E0,-2.9955214E-1,-5.810823E-1,6.7658156E-1,8.2765543E-1,-2.0976897E-2,-4.7533673E-1,5.3288156E-1,8.6876434E-1,-1.0067138E-1,-8.8255006E-1,2.914419E-1,9.3114454E-1,4.4192906E-2,-2.1052459E-1,9.6093154E-1,-7.996676E-1,2.131214E-1,9.9978805E-1,3.077287E-1,9.6745384E-1,-2.9065326E-1,6.1130065E-1,-5.174662E-2,3.3554572E-1,9.143195E-2,-1.4362676E-1,-2.6491812E-1,1.1282003E-1,-1.6145784E-1,-2.0223193E-1,7.11095E-1,4.0401153E-2,-2.834978E-1,2.621014E-1,-8.682185E-2,-2.401681E-1,2.3249853E-1,-1.726095E-1,2.7580458E-1,3.385666E-1,5.2324142E-2,2.7331287E-1,4.2606497E-1,-2.1647929E-1,-5.781926E-2,2.76276E-1,-1.7960076E-1,8.8469855E-2,3.0145285E-1,-2.6209066E-2,1.9917719E-1,1.6191219E-1,-2.4735379E-1,-1.8937033E-2,2.3520821E-1,1.9208725E-1,2.8270146E-1,1.6908589E-1,-4.0936914E-1,-3.7867096E-1,-1.3694416E-1,-3.7937674E-1,1.7022866E-1,2.9296404E-1,-6.7137234E-2,-2.5448278E-1,4.6443906E-2,2.7908954E-1,-2.1775419E-2,-4.0814763E-1,9.841336E-2,1.665341E-1,-1.10488065E-1,2.400759E-1,2.9385644E-1,-5.012331E-1,2.4390222E-1,-2.531486E-2,3.0239886E-1,-4.205249E-1,2.0371883E-1],"categories":[],"categories_nodes":[],"categories_segments":[],"categories_sizes":[],"default_left":[0,0,0,0,0,0,0,0,0,0,0,0,0,0,0,0,0,0,0,0,0,0,0,0,0,0,0,0,0,0,0,0,0,0,0,0,0,0,0,0,0,0,0,0,0,0,0,0,0,0,0,0,0,0,0,0,0,0,0,0,0,0,0,0,0,0,0,0,0,0,0,0,0,0,0,0,0,0,0,0,0,0,0,0,0,0,0,0,0,0,0,0,0,0,0,0,0,0,0,0,0,0,0,0,0,0,0,0,0,0,0,0,0,0,0,0,0,0,0,0,0,0,0],"id":8,"left_children":[1,3,5,7,9,11,13,15,17,19,21,23,25,27,29,31,33,35,37,39,41,43,45,47,49,51,53,55,57,59,61,63,65,67,69,71,73,75,77,79,81,83,-1,85,87,89,91,93,95,97,99,101,103,105,107,-1,109,111,113,115,117,119,121,-1,-1,-1,-1,-1,-1,-1,-1,-1,-1,-1,-1,-1,-1,-1,-1,-1,-1,-1,-1,-1,-1,-1,-1,-1,-1,-1,-1,-1,-1,-1,-1,-1,-1,-1,-1,-1,-1,-1,-1,-1,-1,-1,-1,-1,-1,-1,-1,-1,-1,-1,-1,-1,-1,-1,-1,-1,-1,-1,-1],"loss_changes":[1.9693219E3,3.5510345E2,1.4405176E2,2.5788275E2,2.5991217E2,1.8928598E2,2.9646484E1,2.2508887E2,6.20531E1,2.4071854E1,1.3689407E2,4.388971E1,4.2388165E1,5.9402E1,1.6315552E1,1.4052808E2,8.131079E1,2.6932617E1,2.6956875E1,1.2408936E1,1.0522186E1,6.0246613E1,7.5776825E1,2.800719E1,2.8423279E1,4.062073E1,5.3158188E1,6.3498535E0,1.8504116E1,3.5908203E0,1.7540318E1,7.591733E1,3.673134E1,1.6838623E1,1.5298776E2,2.619661E1,9.532349E0,2.23291E1,6.969469E0,8.445277E0,5.529156E-1,9.648499E0,0E0,4.0422256E1,1.5715422E1,1.2885391E1,6.3478348E1,1.7508284E1,1.34885025E1,1.753894E1,3.0254839E1,1.3987701E1,2.3173851E1,8.3965225E0,5.038773E1,0E0,1.9606781E0,1.7349064E1,1.657774E1,3.222046E0,1.2189533E1,2.1152744E0,2.6910873E1,0E0,0E0,0E0,0E0,0E0,0E0,0E0,0E0,0E0,0E0,0E0,0E0,0E0,0E0,0E0,0E0,0E0,0E0,0E0,0E0,0E0,0E0,0E0,0E0,0E0,0E0,0E0,0E0,0E0,0E0,0E0,0E0,0E0,0E0,0E0,0E0,0E0,0E0,0E0,0E0,0E0,0E0,0E0,0E0,0E0,0E0,0E0,0E0,0E0,0E0,0E0,0E0,0E0,0E0,0E0,0E0,0E0,0E0,0E0,0E0],"parents":[2147483647,0,0,1,1,2,2,3,3,4,4,5,5,6,6,7,7,8,8,9,9,10,10,11,11,12,12,13,13,14,14,15,15,16,16,17,17,18,18,19,19,20,20,21,21,22,22,23,23,24,24,25,25,26,26,27,27,28,28,29,29,30,30,31,31,32,32,33,33,34,34,35,35,36,36,37,37,38,38,39,39,40,40,41,41,43,43,44,44,45,45,46,46,47,47,48,48,49,49,50,50,51,51,52,52,53,53,54,54,56,56,57,57,58,58,59,59,60,60,61,61,62,62],"right_children":[2,4,6,8,10,12,14,16,18,20,22,24,26,28,30,32,34,36,38,40,42,44,46,48,50,52,54,56,58,60,62,64,66,68,70,72,74,76,78,80,82,84,-1,86,88,90,92,94,96,98,100,102,104,106,108,-1,110,112,114,116,118,120,122,-1,-1,-1,-1,-1,-1,-1,-1,-1,-1,-1,-1,-1,-1,-1,-1,-1,-1,-1,-1,-1,-1,-1,-1,-1,-1,-1,-1,-1,-1,-1,-1,-1,-1,-1,-1,-1,-1,-1,-1,-1,-1,-1,-1,-1,-1,-1,-1,-1,-1,-1,-1,-1,-1,-1,-1,-1,-1,-1,-1],"split_conditions":[9.963273E-1,9.920086E-1,9.984013E-1,9.9672204E-1,9.9870694E-1,9.991602E-1,4.1928334E-4,8.264899E-3,9.984803E-1,6.495277E-4,2.5913923E-3,5.69869E-4,4.5342685E-4,7.5683594E-3,5.788189E-3,1.9042969E-2,9.727197E-1,9.9782395E-1,9.968528E-1,9.944814E-1,3.223536E-2,9.9271417E-1,9.951957E-1,9.995352E-1,1.1652318E-2,9.948498E-1,3E0,9.959895E-1,2.4752296E-4,6.020508E-1,9.994067E-1,9.913668E-1,6.7962613E-3,1.3506421E-2,9.8103637E-1,9.833892E-1,9.984583E-1,4.9074707E0,9.8891085E-1,1.3E1,1.2939453E-2,9.981573E-1,-2.9955214E-1,9E0,5.3138416E1,5.2199654E1,9.991325E-1,6.927688E-4,9.969752E-1,9.970281E-1,6E0,-6.3476562E-3,5.509124E-4,1.0001855E0,7.2021484E-2,-2.1052459E-1,9.033203E-3,9.998408E-1,1.0000243E0,9.998342E-1,5.5042515E-4,9.997528E-1,5.5474934E1,6.1130065E-1,-5.174662E-2,3.3554572E-1,9.143195E-2,-1.4362676E-1,-2.6491812E-1,1.1282003E-1,-1.6145784E-1,-2.0223193E-1,7.11095E-1,4.0401153E-2,-2.834978E-1,2.621014E-1,-8.682185E-2,-2.401681E-1,2.3249853E-1,-1.726095E-1,2.7580458E-1,3.385666E-1,5.2324142E-2,2.7331287E-1,4.2606497E-1,-2.1647929E-1,-5.781926E-2,2.76276E-1,-1.7960076E-1,8.8469855E-2,3.0145285E-1,-2.6209066E-2,1.9917719E-1,1.6191219E-1,-2.4735379E-1,-1.8937033E-2,2.3520821E-1,1.9208725E-1,2.8270146E-1,1.6908589E-1,-4.0936914E-1,-3.7867096E-1,-1.3694416E-1,-3.7937674E-1,1.7022866E-1,2.9296404E-1,-6.7137234E-2,-2.5448278E-1,4.6443906E-2,2.7908954E-1,-2.1775419E-2,-4.0814763E-1,9.841336E-2,1.665341E-1,-1.10488065E-1,2.400759E-1,2.9385644E-1,-5.012331E-1,2.4390222E-1,-2.531486E-2,3.0239886E-1,-4.205249E-1,2.0371883E-1],"split_indices":[7,7,7,55,23,55,78,6,15,22,110,54,46,16,6,3,7,55,111,7,126,39,55,76,6,71,37,71,78,0,55,15,6,6,47,39,31,32,39,5,51,63,0,101,1,9,15,6,7,7,5,51,6,114,104,0,3,95,58,31,46,31,33,0,0,0,0,0,0,0,0,0,0,0,0,0,0,0,0,0,0,0,0,0,0,0,0,0,0,0,0,0,0,0,0,0,0,0,0,0,0,0,0,0,0,0,0,0,0,0,0,0,0,0,0,0,0,0,0,0,0,0,0],"split_type":[0,0,0,0,0,0,0,0,0,0,0,0,0,0,0,0,0,0,0,0,0,0,0,0,0,0,0,0,0,0,0,0,0,0,0,0,0,0,0,0,0,0,0,0,0,0,0,0,0,0,0,0,0,0,0,0,0,0,0,0,0,0,0,0,0,0,0,0,0,0,0,0,0,0,0,0,0,0,0,0,0,0,0,0,0,0,0,0,0,0,0,0,0,0,0,0,0,0,0,0,0,0,0,0,0,0,0,0,0,0,0,0,0,0,0,0,0,0,0,0,0,0,0],"sum_hessian":[9.113302E3,6.0996543E3,3.0136477E3,3.8095186E3,2.2901357E3,1.6033124E3,1.4103353E3,2.2676155E3,1.541903E3,2.5414331E2,2.0359926E3,9.390094E2,6.6430304E2,2.7370197E2,1.1366333E3,7.7288495E2,1.4947305E3,1.447236E3,9.466702E1,2.8910587E1,2.2523273E2,6.587849E2,1.3772076E3,1.1906104E2,8.1994836E2,1.26881325E2,5.374217E2,1.7722879E2,9.647318E1,1.0939929E3,4.2640423E1,5.589548E2,2.1393019E2,5.5069403E2,9.4403644E2,5.142491E2,9.329869E2,5.9507328E1,3.5159695E1,2.1114428E1,7.7961607E0,2.2359944E2,1.6332892E0,6.190202E2,3.9764687E1,1.13774445E2,1.2634332E3,4.1514565E1,7.754648E1,7.8870447E2,3.1243872E1,8.17169E1,4.516442E1,7.825633E1,4.5916534E2,1.5581087E0,1.7567068E2,2.2786356E1,7.368683E1,1.0853474E3,8.645531E0,2.1569906E1,2.1070515E1,1.3644046E1,5.453107E2,1.284248E2,8.550539E1,1.2695374E2,4.237403E2,2.1753355E2,7.2650287E2,5.125954E2,1.6536835E0,7.32834E0,9.2565857E2,3.2704147E1,2.6803179E1,3.3152966E1,2.00673E0,1.779985E1,3.3145761E0,6.756449E0,1.0397115E0,1.7590671E2,4.7692722E1,4.2520868E2,1.9381155E2,3.2839005E1,6.925683E0,3.470042E1,7.907403E1,1.1510986E3,1.12334496E2,1.111047E1,3.0404095E1,2.5293804E1,5.2252674E1,2.9021497E2,4.984895E2,2.0913975E1,1.0329896E1,3.8354034E1,4.336287E1,6.573772E0,3.859065E1,7.285356E1,5.402772E0,5.075562E1,4.0840973E2,1.7400455E2,1.6661489E0,1.460552E1,8.180836E0,4.5698177E1,2.7988647E1,1.370129E2,9.483345E2,1.3398945E0,7.3056355E0,1.6029073E0,1.9967E1,9.481875E0,1.1588639E1],"tree_param":{"num_deleted":"0","num_feature":"128","num_nodes":"123","size_leaf_vector":"0"}},{"base_weights":[9.5411455E-3,-3.4648016E-1,4.573046E-1,-2.1647497E-1,-7.66552E-1,2.0014487E-1,7.4865866E-1,-5.3673315E-1,-2.5376141E-2,-9.1045266E-1,-4.307016E-1,6.853322E-1,2.142118E-2,5.058628E-1,9.121858E-1,-3.229834E-1,-7.872612E-1,1.3266233E0,-1.1833733E-1,-9.3636423E-1,-8.069389E-3,1.6386282E0,-5.4360133E-1,4.618153E-1,9.2365634E-1,9.9149656E-1,-3.1375516E-2,7.690652E-2,8.034942E-1,9.6486837E-1,3.011629E-1,1.6296345E-1,-6.0639673E-1,-8.078017E-1,1.8299053E0,9.9233216E-1,2.58108E0,-1.9450529E-1,6.0413337E-1,5.282114E-1,-9.4917816E-1,-8.0441463E-1,5.619992E-1,-1.9795758E-1,1.8526577E0,1.8997452E-1,-7.311413E-1,8.2076395E-1,5.8346994E-2,9.4130534E-1,-4.9961486E-1,1.2580914E0,1.1938612E-1,-1.0730736E-1,5.59879E-1,9.019227E-1,-2.2632207E-1,-3.7207144E-1,8.433099E-1,-4.952973E-1,9.6876305E-1,8.341861E-1,-3.4184155E-1,-3.2340307E-2,3.6902404E-1,-2.604731E-1,-8.771949E-2,-1.6097298E-1,-2.5532967E-1,-1.8270904E-1,9.128655E-1,-2.1950588E-1,3.1014305E-1,8.2465E-1,3.6318517E-1,-6.5502085E-2,3.5194084E-1,3.3992115E-1,7.647262E-2,-2.4757503E-1,9.185469E-1,-2.102716E-1,-2.895057E-1,-2.8223577E-1,7.8314744E-2,-2.2417411E-1,3.0018842E-1,2.3955986E-1,5.7176614E-1,2.5543177E-1,-6.6020764E-2,5.34168E-2,-2.414299E-1,-3.1778908E-1,2.5602722E-1,-8.213928E-2,2.1247672E-1,7.2716E-2,2.8171724E-1,2.0469709E-1,-3.631411E-1,-7.2649E-2,3.9753482E-1,-1.6467793E-1,3.4800744E-1,-1.6202019E-1,8.644719E-3,2.1297815E-1,-1.9549489E-2,-2.0666523E-1,2.7366665E-1,2.902813E-1,-1.00178376E-1,-3.2134095E-1,1.8377088E-1,2.4662513E-1,-6.25269E-1,-3.9476553E-1,1.6630046E-1,2.0378679E-1,2.8583056E-1,2.6784948E-1,-5.8447666E-2,8.188587E-2,-3.8685438E-1],"categories":[],"categories_nodes":[],"categories_segments":[],"categories_sizes":[],"default_left":[0,0,0,0,0,0,0,0,0,0,0,0,0,0,0,0,0,0,0,0,0,0,0,0,0,0,0,0,0,0,0,0,0,0,0,0,0,0,0,0,0,0,0,0,0,0,0,0,0,0,0,0,0,0,0,0,0,0,0,0,0,0,0,0,0,0,0,0,0,0,0,0,0,0,0,0,0,0,0,0,0,0,0,0,0,0,0,0,0,0,0,0,0,0,0,0,0,0,0,0,0,0,0,0,0,0,0,0,0,0,0,0,0,0,0,0,0,0,0,0,0,0,0,0,0],"id":9,"left_children":[1,3,5,7,9,11,13,15,17,19,21,23,25,27,29,31,33,35,37,39,41,43,45,47,49,51,53,55,57,59,61,63,65,67,69,71,73,75,77,79,81,83,85,-1,87,89,91,93,95,97,99,101,103,105,107,109,111,113,115,117,119,121,123,-1,-1,-1,-1,-1,-1,-1,-1,-1,-1,-1,-1,-1,-1,-1,-1,-1,-1,-1,-1,-1,-1,-1,-1,-1,-1,-1,-1,-1,-1,-1,-1,-1,-1,-1,-1,-1,-1,-1,-1,-1,-1,-1,-1,-1,-1,-1,-1,-1,-1,-1,-1,-1,-1,-1,-1,-1,-1,-1,-1,-1,-1],"loss_changes":[1.2864318E3,2.4533698E2,2.6765668E2,2.1017393E2,5.093622E1,1.6473871E2,6.6058105E1,6.847275E1,2.706243E2,1.7356018E1,7.575905E1,2.6817139E1,7.11979E1,8.630995E1,3.1895813E1,9.571144E1,3.3204926E1,5.5531143E1,1.1097056E2,1.4048462E1,1.032E1,9.659527E0,4.2048683E1,3.846302E1,6.662613E0,1.6532242E1,5.9266254E1,6.9807915E1,1.900299E1,5.712097E0,2.798531E1,7.938877E1,3.936287E1,1.1224487E1,1.830002E1,1.7778961E1,7.220001E0,8.680973E1,3.7319107E1,2.8354694E1,8.339172E0,2.0825977E0,9.402697E0,0E0,5.3199005E-1,1.8632324E1,2.443547E1,2.0011513E1,2.9811672E1,6.30954E0,4.3014574E0,1.0736382E1,1.4228343E1,7.3372086E1,1.7153587E1,6.8158264E0,3.1239742E1,1.1112931E1,1.9311981E1,3.7286658E0,5.4733887E0,4.709385E0,2.38922E1,0E0,0E0,0E0,0E0,0E0,0E0,0E0,0E0,0E0,0E0,0E0,0E0,0E0,0E0,0E0,0E0,0E0,0E0,0E0,0E0,0E0,0E0,0E0,0E0,0E0,0E0,0E0,0E0,0E0,0E0,0E0,0E0,0E0,0E0,0E0,0E0,0E0,0E0,0E0,0E0,0E0,0E0,0E0,0E0,0E0,0E0,0E0,0E0,0E0,0E0,0E0,0E0,0E0,0E0,0E0,0E0,0E0,0E0,0E0,0E0,0E0,0E0],"parents":[2147483647,0,0,1,1,2,2,3,3,4,4,5,5,6,6,7,7,8,8,9,9,10,10,11,11,12,12,13,13,14,14,15,15,16,16,17,17,18,18,19,19,20,20,21,21,22,22,23,23,24,24,25,25,26,26,27,27,28,28,29,29,30,30,31,31,32,32,33,33,34,34,35,35,36,36,37,37,38,38,39,39,40,40,41,41,42,42,44,44,45,45,46,46,47,47,48,48,49,49,50,50,51,51,52,52,53,53,54,54,55,55,56,56,57,57,58,58,59,59,60,60,61,61,62,62],"right_children":[2,4,6,8,10,12,14,16,18,20,22,24,26,28,30,32,34,36,38,40,42,44,46,48,50,52,54,56,58,60,62,64,66,68,70,72,74,76,78,80,82,84,86,-1,88,90,92,94,96,98,100,102,104,106,108,110,112,114,116,118,120,122,124,-1,-1,-1,-1,-1,-1,-1,-1,-1,-1,-1,-1,-1,-1,-1,-1,-1,-1,-1,-1,-1,-1,-1,-1,-1,-1,-1,-1,-1,-1,-1,-1,-1,-1,-1,-1,-1,-1,-1,-1,-1,-1,-1,-1,-1,-1,-1,-1,-1,-1,-1,-1,-1,-1,-1,-1,-1,-1,-1,-1,-1,-1],"split_conditions":[9.944814E-1,5.516955E1,9.9761546E-1,9.844742E-1,9.926717E-1,9.96798E-1,4.5291148E-4,9.865032E-1,9.953483E-1,9.9953204E-1,9.9769443E-1,5.101982E1,9.983778E-1,9.973196E-1,5.425905E-3,1.2758614E-2,9.716375E-1,9.884653E-1,2.6E1,9.980229E-1,6E0,4.887159E-4,5.0334473E1,9.9504006E-1,2.86587E-2,5.7561234E1,9.994033E-1,9.9926734E-1,-1.0253906E-2,-8.691406E-2,9.9951404E-1,5.092784E-3,9.664915E-1,7.5504007E-3,1.267627E1,4.6321526E-3,9.898584E-1,9.871486E-1,1.8E1,4.6488846E1,6.0054844E1,9.8703235E-1,5.011308E-4,-1.9795758E-1,9.5147413E-1,1.6621094E0,9.9669945E-1,-3.1640625E-1,9.8736084E-1,5.6798956E-3,4.345703E-2,4.603497E-3,9.952667E-1,4.9847877E-4,9.993968E-1,3.2571098E-4,2E0,1.903876E-4,2.7370354E-4,1.0025733E0,1.0018873E-3,1.2234717E-2,2.8808594E-2,-3.2340307E-2,3.6902404E-1,-2.604731E-1,-8.771949E-2,-1.6097298E-1,-2.5532967E-1,-1.8270904E-1,9.128655E-1,-2.1950588E-1,3.1014305E-1,8.2465E-1,3.6318517E-1,-6.5502085E-2,3.5194084E-1,3.3992115E-1,7.647262E-2,-2.4757503E-1,9.185469E-1,-2.102716E-1,-2.895057E-1,-2.8223577E-1,7.8314744E-2,-2.2417411E-1,3.0018842E-1,2.3955986E-1,5.7176614E-1,2.5543177E-1,-6.6020764E-2,5.34168E-2,-2.414299E-1,-3.1778908E-1,2.5602722E-1,-8.213928E-2,2.1247672E-1,7.2716E-2,2.8171724E-1,2.0469709E-1,-3.631411E-1,-7.2649E-2,3.9753482E-1,-1.6467793E-1,3.4800744E-1,-1.6202019E-1,8.644719E-3,2.1297815E-1,-1.9549489E-2,-2.0666523E-1,2.7366665E-1,2.902813E-1,-1.00178376E-1,-3.2134095E-1,1.8377088E-1,2.4662513E-1,-6.25269E-1,-3.9476553E-1,1.6630046E-1,2.0378679E-1,2.8583056E-1,2.6784948E-1,-5.8447666E-2,8.188587E-2,-3.8685438E-1],"split_indices":[7,49,7,7,7,47,94,47,15,23,15,1,15,39,6,6,39,47,117,31,5,22,1,47,6,9,15,15,11,11,63,14,7,6,96,110,7,39,5,1,25,71,78,0,103,32,47,3,39,70,91,70,7,14,87,46,5,54,22,34,78,14,56,0,0,0,0,0,0,0,0,0,0,0,0,0,0,0,0,0,0,0,0,0,0,0,0,0,0,0,0,0,0,0,0,0,0,0,0,0,0,0,0,0,0,0,0,0,0,0,0,0,0,0,0,0,0,0,0,0,0,0,0,0,0],"split_type":[0,0,0,0,0,0,0,0,0,0,0,0,0,0,0,0,0,0,0,0,0,0,0,0,0,0,0,0,0,0,0,0,0,0,0,0,0,0,0,0,0,0,0,0,0,0,0,0,0,0,0,0,0,0,0,0,0,0,0,0,0,0,0,0,0,0,0,0,0,0,0,0,0,0,0,0,0,0,0,0,0,0,0,0,0,0,0,0,0,0,0,0,0,0,0,0,0,0,0,0,0,0,0,0,0,0,0,0,0,0,0,0,0,0,0,0,0,0,0,0,0,0,0,0,0],"sum_hessian":[8.067793E3,4.4944424E3,3.5733508E3,3.4333828E3,1.0610594E3,1.8989528E3,1.6743981E3,1.2824108E3,2.150972E3,7.4159827E2,3.1946112E2,5.1043173E2,1.3885211E3,6.755189E2,9.988792E2,6.932345E2,5.8917633E2,1.3752849E2,2.0134435E3,7.208614E2,2.0736876E1,1.5828463E1,3.0363266E2,2.6491446E2,2.4551727E2,7.075237E1,1.3177687E3,2.7722766E2,3.9829126E2,9.190586E2,7.98206E1,2.5552705E2,4.3770743E2,5.852742E2,3.902117E0,1.1000507E2,2.7523415E1,1.822078E3,1.9136551E2,5.9034333E0,7.1495795E2,8.479932E0,1.2256945E1,1.1461077E0,1.4682355E1,6.1817234E1,2.4181543E2,1.3964445E2,1.2527002E2,2.4284457E2,2.6727057E0,5.3848785E1,1.6903582E1,1.16852E3,1.4924864E2,7.397744E1,2.0325021E2,1.2774588E1,3.8551666E2,2.109222E0,9.1694934E2,4.3480118E1,3.634048E1,2.0584676E2,4.9680294E1,2.182398E2,2.1946764E2,1.4587798E2,4.393962E2,1.564995E0,2.337122E0,4.8232408E0,1.0518183E2,2.1608414E1,5.9150014E0,1.780952E3,4.1125935E1,6.963118E1,1.2173434E2,4.326922E0,1.5765111E0,1.5404468E2,5.6091327E2,7.354022E0,1.1259094E0,3.0789702E0,9.177975E0,2.58082E0,1.2101535E1,2.2774796E1,3.904244E1,2.5622097E1,2.1619333E2,4.391452E0,1.35253E2,8.360108E1,4.1668938E1,1.3447858E1,2.2939671E2,1.0596923E0,1.6130135E0,4.046827E0,4.980196E1,1.0633612E1,6.2699704E0,2.695968E2,8.989233E2,1.1567205E2,3.35766E1,1.8322314E0,7.214521E1,1.7640202E1,1.8561002E2,7.290982E0,5.483606E0,3.843296E2,1.187066E0,1.0066975E0,1.1025244E0,8.585248E1,8.3109686E2,3.9823044E1,3.6570745E0,2.2817513E1,1.3522969E1],"tree_param":{"num_deleted":"0","num_feature":"128","num_nodes":"125","size_leaf_vector":"0"}},{"base_weights":[6.4359508E-3,-2.4211577E-1,4.8583907E-1,-4.9421477E-1,-9.827795E-2,3.027115E-1,8.038668E-1,-2.421634E-1,-7.4890256E-1,1.1220714E0,-1.6070804E-1,7.894183E-1,1.2174381E-1,4.3400916E-1,9.068343E-1,-1.3123117E-2,-6.578173E-1,7.56934E-2,-8.0792755E-1,8.2162905E-1,2.1911595E0,-5.6213564E-1,-3.66184E-2,-1.0753757E0,8.203518E-1,1.6668966E-1,-8.4268945E-1,-1.1099307E-1,8.275783E-1,9.379364E-1,3.3033732E-1,-1.2448498E-1,1.2603805E0,-9.4112957E-1,-4.0627772E-1,-3.247411E-1,2.2036772E0,-8.199595E-1,7.468635E-1,1.197786E0,4.4233674E-1,5.938394E-1,2.509269E0,-6.8867236E-1,-9.594229E-2,1.6152313E-1,-2.641937E-1,-2.086416E0,2.2213493E-1,5.7700074E-1,9.704258E-1,-1.2761012E-1,3.4272206E-1,-1.3694008E-1,-1.3946724E0,-1.3035785E0,1.325638E-1,2.4528971E-2,9.4055533E-1,7.625338E-1,9.859137E-1,7.825267E-1,-2.4314408E-1,-4.754422E-2,7.5903124E-1,4.6009552E-1,8.748504E-2,-2.8174713E-1,5.9139468E-2,4.4545448E-1,-1.6436857E-1,7.005093E-2,-2.337334E-1,-1.6766785E-1,7.617102E-1,-1.05557255E-1,-2.511788E-1,-1.348931E-1,3.6032948E-1,-8.940736E-2,2.9619274E-1,-1.3692474E-1,3.6784834E-1,9.011712E-1,4.5789427E-1,5.348655E-2,-2.14555E-1,-1.0228323E-1,7.113488E-2,9.964428E-3,1.8322133E-1,-1.2014385E-1,2.0495454E-2,-1.4878166E-1,-8.200442E-1,-1.8679911E-1,2.1366465E-1,2.801074E-1,4.9271915E-2,2.8334993E-1,9.986152E-2,-6.612048E-2,1.8547197E-1,4.2316403E-2,2.074585E-1,1.5441547E-1,-2.0642142E-1,-4.3921682E-1,1.4325E-1,-7.449816E-1,-1.980845E-2,3.214388E-1,-1.0375884E-2,1.9323853E-1,-3.694455E-1,1.736382E-1,2.8507245E-1,2.4444473E-1,-2.4650961E-1,2.8639376E-1,9.0283476E-2,-4.7937013E-2,2.5870347E-1,2.4134728E-1,-2.8180364E-1],"categories":[],"categories_nodes":[],"categories_segments":[],"categories_sizes":[],"default_left":[0,0,0,0,0,0,0,0,0,0,0,0,0,0,0,0,0,0,0,0,0,0,0,0,0,0,0,0,0,0,0,0,0,0,0,0,0,0,0,0,0,0,0,0,0,0,0,0,0,0,0,0,0,0,0,0,0,0,0,0,0,0,0,0,0,0,0,0,0,0,0,0,0,0,0,0,0,0,0,0,0,0,0,0,0,0,0,0,0,0,0,0,0,0,0,0,0,0,0,0,0,0,0,0,0,0,0,0,0,0,0,0,0,0,0,0,0,0,0,0,0,0,0,0,0],"id":10,"left_children":[1,3,5,7,9,11,13,15,17,19,21,23,25,27,29,31,33,35,37,39,41,43,45,47,49,51,53,55,57,59,61,63,65,67,69,71,73,75,-1,77,79,81,83,85,87,89,91,93,95,97,99,101,103,105,107,109,111,113,115,117,119,121,123,-1,-1,-1,-1,-1,-1,-1,-1,-1,-1,-1,-1,-1,-1,-1,-1,-1,-1,-1,-1,-1,-1,-1,-1,-1,-1,-1,-1,-1,-1,-1,-1,-1,-1,-1,-1,-1,-1,-1,-1,-1,-1,-1,-1,-1,-1,-1,-1,-1,-1,-1,-1,-1,-1,-1,-1,-1,-1,-1,-1,-1,-1],"loss_changes":[8.6549896E2,1.7340817E2,1.4419391E2,1.1135831E2,2.3231941E2,1.3866377E2,3.4095947E1,8.327005E1,4.2102203E1,4.587059E1,1.4441562E2,2.5503235E1,4.9972305E1,4.280625E1,1.2375732E1,8.028592E1,2.1763428E1,5.0660892E1,3.517798E1,1.6228096E1,1.4748932E1,4.0318954E1,9.9965324E1,1.0167628E1,1.47942505E1,5.699134E1,1.9814785E1,2.468377E1,1.0478691E1,4.8927E0,9.982098E0,5.9417152E1,1.4341537E1,6.764023E0,5.482956E1,1.4144821E1,1.3273907E1,1.9384644E1,0E0,6.055855E0,2.6953234E1,5.4709797E0,1.0123444E1,2.7442383E1,1.3244429E1,7.155313E1,5.3308746E1,3.6428528E0,2.3677456E0,2.6100773E1,2.175705E0,3.2802822E1,5.089926E1,9.656763E0,8.034218E0,2.27431E1,1.1846107E1,1.3855826E1,1.1575394E0,2.1934052E1,3.461731E0,2.5370293E0,1.4730345E1,0E0,0E0,0E0,0E0,0E0,0E0,0E0,0E0,0E0,0E0,0E0,0E0,0E0,0E0,0E0,0E0,0E0,0E0,0E0,0E0,0E0,0E0,0E0,0E0,0E0,0E0,0E0,0E0,0E0,0E0,0E0,0E0,0E0,0E0,0E0,0E0,0E0,0E0,0E0,0E0,0E0,0E0,0E0,0E0,0E0,0E0,0E0,0E0,0E0,0E0,0E0,0E0,0E0,0E0,0E0,0E0,0E0,0E0,0E0,0E0,0E0,0E0],"parents":[2147483647,0,0,1,1,2,2,3,3,4,4,5,5,6,6,7,7,8,8,9,9,10,10,11,11,12,12,13,13,14,14,15,15,16,16,17,17,18,18,19,19,20,20,21,21,22,22,23,23,24,24,25,25,26,26,27,27,28,28,29,29,30,30,31,31,32,32,33,33,34,34,35,35,36,36,37,37,39,39,40,40,41,41,42,42,43,43,44,44,45,45,46,46,47,47,48,48,49,49,50,50,51,51,52,52,53,53,54,54,55,55,56,56,57,57,58,58,59,59,60,60,61,61,62,62],"right_children":[2,4,6,8,10,12,14,16,18,20,22,24,26,28,30,32,34,36,38,40,42,44,46,48,50,52,54,56,58,60,62,64,66,68,70,72,74,76,-1,78,80,82,84,86,88,90,92,94,96,98,100,102,104,106,108,110,112,114,116,118,120,122,124,-1,-1,-1,-1,-1,-1,-1,-1,-1,-1,-1,-1,-1,-1,-1,-1,-1,-1,-1,-1,-1,-1,-1,-1,-1,-1,-1,-1,-1,-1,-1,-1,-1,-1,-1,-1,-1,-1,-1,-1,-1,-1,-1,-1,-1,-1,-1,-1,-1,-1,-1,-1,-1,-1,-1,-1,-1,-1,-1,-1,-1,-1],"split_conditions":[9.958112E-1,9.873331E-1,9.984013E-1,9.887765E-1,9.96316E-1,9.976496E-1,4.1928334E-4,1.6236914E-2,9.914537E-1,9.9704146E-1,7.769866E-4,-1.3696289E-1,1.003219E0,9.9788433E-1,5.4974123E-3,3.8971506E-2,9.6532536E-1,9.989667E-1,9.818459E-1,9.956808E-1,9.996672E-1,9.9883294E-1,6.101211E-3,1.0002542E0,9.966107E-1,7.719135E-4,5E0,1.162551E-3,1.813749E-4,9.997799E-1,9.9891454E-1,9.1935277E-1,9.989595E-1,3.8E1,9.6235025E-1,8.087695E1,9.358752E-1,9.970219E-1,7.468635E-1,1.9753217E-3,9.884176E-1,9.89036E-1,9.900924E-1,9.9784267E-1,5.523894E-4,9.277344E-3,9.930027E-1,8.990952E-1,-3.1640625E-1,9.9879587E-1,1.2284206E-2,9.9635506E-1,9.9399203E-1,9.9887323E-1,1.3244629E0,2.421875E-1,9.995226E-1,1.7333984E-2,1.8861677E-4,9.9923337E-1,9.995409E-1,9.997637E-1,1.3378906E-1,-4.754422E-2,7.5903124E-1,4.6009552E-1,8.748504E-2,-2.8174713E-1,5.9139468E-2,4.4545448E-1,-1.6436857E-1,7.005093E-2,-2.337334E-1,-1.6766785E-1,7.617102E-1,-1.05557255E-1,-2.511788E-1,-1.348931E-1,3.6032948E-1,-8.940736E-2,2.9619274E-1,-1.3692474E-1,3.6784834E-1,9.011712E-1,4.5789427E-1,5.348655E-2,-2.14555E-1,-1.0228323E-1,7.113488E-2,9.964428E-3,1.8322133E-1,-1.2014385E-1,2.0495454E-2,-1.4878166E-1,-8.200442E-1,-1.8679911E-1,2.1366465E-1,2.801074E-1,4.9271915E-2,2.8334993E-1,9.986152E-2,-6.612048E-2,1.8547197E-1,4.2316403E-2,2.074585E-1,1.5441547E-1,-2.0642142E-1,-4.3921682E-1,1.4325E-1,-7.449816E-1,-1.980845E-2,3.214388E-1,-1.0375884E-2,1.9323853E-1,-3.694455E-1,1.736382E-1,2.8507245E-1,2.4444473E-1,-2.4650961E-1,2.8639376E-1,9.0283476E-2,-4.7937013E-2,2.5870347E-1,2.4134728E-1,-2.8180364E-1],"split_indices":[7,7,7,47,15,47,78,6,127,63,62,3,4,71,6,38,7,23,39,15,84,15,6,10,7,46,5,102,110,23,79,71,18,125,47,96,71,23,0,86,7,7,7,36,14,11,7,103,3,15,6,39,39,119,120,64,15,88,78,47,111,31,32,0,0,0,0,0,0,0,0,0,0,0,0,0,0,0,0,0,0,0,0,0,0,0,0,0,0,0,0,0,0,0,0,0,0,0,0,0,0,0,0,0,0,0,0,0,0,0,0,0,0,0,0,0,0,0,0,0,0,0,0,0,0],"split_type":[0,0,0,0,0,0,0,0,0,0,0,0,0,0,0,0,0,0,0,0,0,0,0,0,0,0,0,0,0,0,0,0,0,0,0,0,0,0,0,0,0,0,0,0,0,0,0,0,0,0,0,0,0,0,0,0,0,0,0,0,0,0,0,0,0,0,0,0,0,0,0,0,0,0,0,0,0,0,0,0,0,0,0,0,0,0,0,0,0,0,0,0,0,0,0,0,0,0,0,0,0,0,0,0,0,0,0,0,0,0,0,0,0,0,0,0,0,0,0,0,0,0,0,0,0],"sum_hessian":[7.2615625E3,4.7825127E3,2.4790503E3,1.7365289E3,3.0459836E3,1.574417E3,9.046332E2,8.737623E2,8.6276666E2,1.4741536E2,2.898568E3,4.2582147E2,1.1485956E3,1.9813837E2,7.064948E2,5.6400616E2,3.0975616E2,5.7613083E1,8.0515356E2,1.16456505E2,3.095886E1,6.836012E2,2.214967E3,6.397393E0,4.1942407E2,1.098241E3,5.0354584E1,8.338602E1,1.1475236E2,6.697355E2,3.6759323E1,5.194822E2,4.4524006E1,1.4438829E2,1.6536787E2,4.9201885E1,8.411197E0,8.030768E2,2.0767524E0,5.738646E1,5.907004E1,5.6176753E0,2.5341187E1,5.3728986E2,1.4631136E2,1.1842092E3,1.0307577E3,3.253894E0,3.1434991E0,1.6183951E2,2.5758456E2,4.1114432E2,6.870966E2,2.2646946E1,2.7707638E1,1.3403419E1,6.99826E1,1.4302951E1,1.004494E2,1.4747328E2,5.222622E2,2.034936E1,1.6409966E1,5.1282623E2,6.65591E0,3.232596E1,1.219805E1,1.3973872E2,4.649571E0,1.226158E1,1.531063E2,2.2974066E1,2.622782E1,1.120539E0,7.290658E0,8.663668E1,7.164401E2,1.6304097E0,5.575605E1,2.6108728E1,3.296131E1,2.3141413E0,3.303534E0,1.3604854E1,1.1736332E1,3.326014E1,5.0402972E2,8.3255424E1,6.305593E1,9.3592017E2,2.4828912E2,7.0645013E2,3.243076E2,1.6189952E0,1.6348989E0,1.0838277E0,2.0596714E0,8.099261E1,8.08469E1,2.5070876E2,6.875803E0,3.6363654E2,4.7507786E1,4.5432364E2,2.3277298E2,1.0520826E1,1.2126119E1,2.6058508E1,1.6491299E0,6.0193768E0,7.384042E0,9.399836E0,6.0582764E1,9.89584E0,4.4071107E0,1.5030985E1,8.541842E1,1.403162E2,7.157087E0,5.1356744E2,8.694768E0,2.1997397E0,1.814962E1,6.591656E0,9.818309E0],"tree_param":{"num_deleted":"0","num_feature":"128","num_nodes":"125","size_leaf_vector":"0"}},{"base_weights":[7.2910693E-3,-1.499731E-1,5.4103106E-1,-3.5027033E-1,5.9309334E-4,8.341723E-1,3.4938106E-1,-1.561378E-1,-6.986705E-1,8.11667E-1,-6.398713E-2,4.6835133E-1,9.1374993E-1,-8.8636644E-2,7.2910374E-1,1.9879939E-1,-3.3758587E-1,4.792699E-1,-7.4559075E-1,3.244783E-1,1.026004E0,5.547806E-1,-1.19889796E-1,9.6203756E-1,1.5779932E-1,9.463202E-1,2.1845198E-1,7.172325E-1,-3.312646E-1,2.9351792E-1,8.844238E-1,-1.3651268E-2,8.4508735E-1,-6.466591E-1,-1.7621993E-1,-1.13903716E-1,1.9152653E0,-7.8426313E-1,2.522008E-1,-2.7351984E-1,6.469222E-1,7.5901353E-1,1.3131765E0,3.2359503E-2,8.784373E-1,-1.4771543E-1,1.0053812E0,9.843912E-1,5.354735E-2,2.781501E-1,-1.6542068E0,9.532134E-1,-2.7519956E-1,4.334917E-1,-5.645424E-1,1.5769134E-1,9.6928746E-1,-1.0042052E-1,-8.580907E-1,7.5346285E-1,-3.2863015E-1,9.3010426E-1,4.0239688E-2,1.1982102E0,-1.3904683E-2,4.0543103E-1,1.6434309E-1,-5.548193E-2,-2.3964368E-1,2.5868827E-1,-8.0519706E-2,2.0964961E-1,-1.9238497E-1,6.5413773E-1,-2.6638905E-2,-1.8350624E-1,-2.7678767E-1,-1.0176779E-1,3.808791E-1,5.666673E-1,-1.7469698E-1,2.577836E-1,-8.237688E-2,2.6754698E-1,-2.6231328E-1,3.2653788E-1,6.118224E-1,-1.5148777E-1,1.6941294E-1,-1.0135053E-2,2.7441913E-1,-1.1592593E-1,-6.326695E-3,-1.21795036E-1,3.8449195E-1,2.9604524E-1,1.4935125E-1,-1.6898021E-2,2.3851737E-1,-7.8735906E-1,7.11139E-2,2.2835752E-1,2.8571764E-1,2.95278E-1,-1.0900569E-1,-4.108297E-1,1.4075337E-1,-2.0386297E-1,2.9583183E-1,1.8362889E-2,-3.1916946E-1,-1.6161217E-1,-4.9465713E-1,-1.1929046E-1,2.3795271E-1,2.3312578E-1,-1.4244486E-1,1.9683595E-1,2.8478858E-1,-2.513648E-1,1.7663383E-1],"categories":[],"categories_nodes":[],"categories_segments":[],"categories_sizes":[],"default_left":[0,0,0,0,0,0,0,0,0,0,0,0,0,0,0,0,0,0,0,0,0,0,0,0,0,0,0,0,0,0,0,0,0,0,0,0,0,0,0,0,0,0,0,0,0,0,0,0,0,0,0,0,0,0,0,0,0,0,0,0,0,0,0,0,0,0,0,0,0,0,0,0,0,0,0,0,0,0,0,0,0,0,0,0,0,0,0,0,0,0,0,0,0,0,0,0,0,0,0,0,0,0,0,0,0,0,0,0,0,0,0,0,0,0,0,0,0,0,0,0,0],"id":11,"left_children":[1,3,5,7,9,11,13,15,17,19,21,23,25,27,29,31,33,35,37,39,41,43,45,47,49,51,53,55,57,59,61,63,65,67,69,71,73,75,77,79,81,83,85,87,89,91,93,95,-1,97,99,101,-1,103,-1,105,107,109,111,113,115,117,119,-1,-1,-1,-1,-1,-1,-1,-1,-1,-1,-1,-1,-1,-1,-1,-1,-1,-1,-1,-1,-1,-1,-1,-1,-1,-1,-1,-1,-1,-1,-1,-1,-1,-1,-1,-1,-1,-1,-1,-1,-1,-1,-1,-1,-1,-1,-1,-1,-1,-1,-1,-1,-1,-1,-1,-1,-1,-1],"loss_changes":[5.5551636E2,1.5416739E2,8.432822E1,1.4826425E2,1.5296158E2,1.688507E1,1.518345E2,9.087682E1,4.3726013E1,2.2156769E1,9.363116E1,1.6453472E1,1.0831268E1,8.3260284E1,3.281552E1,6.558993E1,4.643917E1,2.6340258E1,2.933142E1,1.3147053E1,1.0435654E1,3.7898003E1,7.785079E1,5.3834534E-1,1.5219908E1,7.019928E0,1.1700832E1,1.3749447E1,3.968644E1,3.7447197E1,1.3840515E1,5.258072E1,1.7459099E1,2.7008179E1,6.905291E1,1.11014E1,6.7526016E0,1.8338043E1,1.9294815E1,1.9422396E1,1.0533203E1,2.3757835E1,7.747818E0,2.738622E1,9.717506E0,7.785814E1,2.9099297E1,3.2152557E-1,0E0,1.2010427E1,9.679459E0,2.2328796E0,0E0,1.09445095E1,0E0,1.7470078E1,7.579914E0,3.8010326E1,2.4432877E1,6.887409E0,1.1058601E1,4.4220276E0,1.0797348E1,0E0,0E0,0E0,0E0,0E0,0E0,0E0,0E0,0E0,0E0,0E0,0E0,0E0,0E0,0E0,0E0,0E0,0E0,0E0,0E0,0E0,0E0,0E0,0E0,0E0,0E0,0E0,0E0,0E0,0E0,0E0,0E0,0E0,0E0,0E0,0E0,0E0,0E0,0E0,0E0,0E0,0E0,0E0,0E0,0E0,0E0,0E0,0E0,0E0,0E0,0E0,0E0,0E0,0E0,0E0,0E0,0E0,0E0],"parents":[2147483647,0,0,1,1,2,2,3,3,4,4,5,5,6,6,7,7,8,8,9,9,10,10,11,11,12,12,13,13,14,14,15,15,16,16,17,17,18,18,19,19,20,20,21,21,22,22,23,23,24,24,25,25,26,26,27,27,28,28,29,29,30,30,31,31,32,32,33,33,34,34,35,35,36,36,37,37,38,38,39,39,40,40,41,41,42,42,43,43,44,44,45,45,46,46,47,47,49,49,50,50,51,51,53,53,55,55,56,56,57,57,58,58,59,59,60,60,61,61,62,62],"right_children":[2,4,6,8,10,12,14,16,18,20,22,24,26,28,30,32,34,36,38,40,42,44,46,48,50,52,54,56,58,60,62,64,66,68,70,72,74,76,78,80,82,84,86,88,90,92,94,96,-1,98,100,102,-1,104,-1,106,108,110,112,114,116,118,120,-1,-1,-1,-1,-1,-1,-1,-1,-1,-1,-1,-1,-1,-1,-1,-1,-1,-1,-1,-1,-1,-1,-1,-1,-1,-1,-1,-1,-1,-1,-1,-1,-1,-1,-1,-1,-1,-1,-1,-1,-1,-1,-1,-1,-1,-1,-1,-1,-1,-1,-1,-1,-1,-1,-1,-1,-1,-1],"split_conditions":[9.970281E-1,9.903231E-1,9.9920213E-1,9.92953E-1,9.9740857E-1,1.2051441E-3,9.968532E-1,8.70778E-3,9.884762E-1,-4.345703E-2,9.952781E-1,1.5625E-1,9.76431E-3,9.991325E-1,3.485398E-4,2.9541016E-2,9.7195363E-1,3.87332E1,9.994024E-1,1.7247349E-2,9.9179316E-1,5.1455452E1,1.0038216E0,3E0,7.171826E-4,6.808838E0,9.982978E-1,9.972947E-1,1.8066406E-2,7.5683594E-3,1.0018449E0,8.459961E0,2.6E1,9.8572755E-1,9.899504E-1,3.0859375E-1,1.0030806E0,9.957541E-1,1.4764258E-3,2.8545057E-4,-3.3447266E-2,9.958055E-1,9.9855506E-1,2.4E1,2.1449076E-3,9.935448E-1,-1.0839844E-1,9.98508E-1,5.354735E-2,3.5529156E-4,-6.518555E-2,9.97484E-1,-2.7519956E-1,1.862793E-1,-5.645424E-1,6.0791016E-2,2.0002997E-3,9.9920595E-1,1.0000644E0,-3.90625E-3,2E0,9.97554E-1,5.5474934E1,1.1982102E0,-1.3904683E-2,4.0543103E-1,1.6434309E-1,-5.548193E-2,-2.3964368E-1,2.5868827E-1,-8.0519706E-2,2.0964961E-1,-1.9238497E-1,6.5413773E-1,-2.6638905E-2,-1.8350624E-1,-2.7678767E-1,-1.0176779E-1,3.808791E-1,5.666673E-1,-1.7469698E-1,2.577836E-1,-8.237688E-2,2.6754698E-1,-2.6231328E-1,3.2653788E-1,6.118224E-1,-1.5148777E-1,1.6941294E-1,-1.0135053E-2,2.7441913E-1,-1.1592593E-1,-6.326695E-3,-1.21795036E-1,3.8449195E-1,2.9604524E-1,1.4935125E-1,-1.6898021E-2,2.3851737E-1,-7.8735906E-1,7.11139E-2,2.2835752E-1,2.8571764E-1,2.95278E-1,-1.0900569E-1,-4.108297E-1,1.4075337E-1,-2.0386297E-1,2.9583183E-1,1.8362889E-2,-3.1916946E-1,-1.6161217E-1,-4.9465713E-1,-1.1929046E-1,2.3795271E-1,2.3312578E-1,-1.4244486E-1,1.9683595E-1,2.8478858E-1,-2.513648E-1,1.7663383E-1],"split_indices":[7,7,55,47,15,78,39,6,79,107,55,0,6,15,78,3,7,33,23,102,7,9,66,29,94,0,79,7,24,16,4,96,101,15,15,16,60,79,54,30,83,47,63,109,62,7,3,79,0,14,75,7,0,0,0,8,70,79,90,11,101,39,33,0,0,0,0,0,0,0,0,0,0,0,0,0,0,0,0,0,0,0,0,0,0,0,0,0,0,0,0,0,0,0,0,0,0,0,0,0,0,0,0,0,0,0,0,0,0,0,0,0,0,0,0,0,0,0,0,0,0],"split_type":[0,0,0,0,0,0,0,0,0,0,0,0,0,0,0,0,0,0,0,0,0,0,0,0,0,0,0,0,0,0,0,0,0,0,0,0,0,0,0,0,0,0,0,0,0,0,0,0,0,0,0,0,0,0,0,0,0,0,0,0,0,0,0,0,0,0,0,0,0,0,0,0,0,0,0,0,0,0,0,0,0,0,0,0,0,0,0,0,0,0,0,0,0,0,0,0,0,0,0,0,0,0,0,0,0,0,0,0,0,0,0,0,0,0,0,0,0,0,0,0,0],"sum_hessian":[6.6161943E3,5.110984E3,1.5052102E3,2.19271E3,2.9182742E3,5.937215E2,9.1148865E2,1.4090304E3,7.8367957E2,2.1437196E2,2.703902E3,1.0730808E2,4.8641342E2,4.236112E2,4.8787747E2,4.7661356E2,9.324168E2,2.9667137E1,7.540124E2,6.6265076E1,1.4810689E2,2.2330383E2,2.4805984E3,4.062634E1,6.668174E1,4.643028E2,2.211063E1,9.757329E1,3.260379E2,1.2899857E2,3.588789E2,3.5943677E2,1.1717678E2,3.187979E2,6.136189E2,2.1646282E1,8.020855E0,7.2608484E2,2.7927578E1,2.3266747E1,4.299833E1,7.863827E1,6.946862E1,8.584293E1,1.3746089E2,2.4215862E3,5.901212E1,3.922686E1,1.3994786E0,6.3322453E1,3.359289E0,4.631255E2,1.1773129E0,2.085752E1,1.2531099E0,3.0807903E1,6.676539E1,2.2752977E2,9.850813E1,7.404622E1,5.4952347E1,3.403596E2,1.851931E1,1.9797131E0,3.5745706E2,3.6796253E1,8.038053E1,9.376467E1,2.2503325E2,5.3381195E1,5.602377E2,8.471715E0,1.3174566E1,6.684869E0,1.3359861E0,4.02804E2,3.2328085E2,1.8273657E1,9.653921E0,2.381227E0,2.0885519E1,3.3942215E1,9.056111E0,7.170242E1,6.9358463E0,5.9062435E1,1.0406185E1,4.2858444E1,4.2984486E1,1.0667103E1,1.2679379E2,7.973433E2,1.6242429E3,1.1090104E1,4.7922012E1,3.4595837E1,4.6310253E0,3.9872158E1,2.3450294E1,1.857734E0,1.5015551E0,9.951341E1,3.6361206E2,1.1897644E1,8.959875E0,4.7588725E0,2.604903E1,1.9383852E0,6.4827E1,1.9650508E2,3.1024696E1,7.4607346E1,2.3900785E1,4.1702175E0,6.9876E1,6.531964E0,4.842038E1,7.022871E1,2.701309E2,6.9409156E0,1.1578395E1],"tree_param":{"num_deleted":"0","num_feature":"128","num_nodes":"121","size_leaf_vector":"0"}},{"base_weights":[6.797349E-3,-1.0877977E-1,5.2920955E-1,-3.4585348E-1,-2.8794636E-3,2.8797722E-1,7.6599884E-1,-1.8936503E-1,-7.644338E-1,1.1290781E0,-3.6472313E-2,8.4346074E-1,8.10657E-2,8.4981257E-1,1.5478358E-1,-3.8813534E-1,7.172905E-2,-8.2818216E-1,1.7361984E-1,8.627843E-1,2.0582097E0,9.889993E-2,-2.1932591E-1,3.8003966E-1,9.784845E-1,8.717845E-1,-4.819513E-2,2.9710862E-1,8.897739E-1,-1.5870703E0,3.036576E-1,-1.06967546E-1,-6.2989706E-1,6.8464315E-1,-2.219241E-1,-8.4415334E-1,4.571797E-1,-4.6118572E-1,2.064197E0,-3.9638484E-1,1.0018729E0,2.7456532E0,1.2722151E0,2.8891211E-2,6.1287534E-1,-6.225319E-1,-8.85176E-2,9.0734357E-1,-5.490873E-1,9.86426E-1,1.07307E-2,-2.1724522E-1,9.352694E-1,-1.9154629E-1,5.683478E-1,8.516195E-1,-1.2746043E0,9.236349E-1,3.4623447E-1,4.53051E-2,-2.2747157E0,6.985101E-1,-1.24266714E-1,-1.53657E-1,1.5873662E-1,9.427169E-2,-1.9650751E-1,3.994846E-1,1.0242391E-1,-8.823975E-2,4.752502E-1,-7.0301846E-2,-2.5488567E-1,1.9195035E-1,-2.1285343E-1,7.540926E-1,-1.580355E-1,-2.6934132E-1,1.9987622E-1,2.0844686E-1,4.2076135E-1,2.9521644E-1,8.556659E-1,1.6288975E-1,3.9613846E-1,-5.766181E-3,2.0657298E-1,4.2248085E-1,1.3374658E-1,-2.1497855E-1,1.9708414E-1,-4.6212647E-2,1.5086317E-1,4.4083297E-2,2.810961E-1,-4.943109E-1,1.5372355E-1,3.0989977E-2,2.854192E-1,9.5892206E-2,2.9094893E-1,-3.135454E-2,-4.191096E-1,-6.331337E-2,2.3375472E-1,-2.1463215E-1,2.81667E-1,-5.353206E-1,2.003109E-1,2.1732685E-1,2.8527957E-1,-4.6064922E-1,2.671998E-1,-6.955428E-2,-8.407899E-1,2.5295708E-1,1.4173108E-2,1.2281272E-1,-2.4359241E-1],"categories":[],"categories_nodes":[],"categories_segments":[],"categories_sizes":[],"default_left":[0,0,0,0,0,0,0,0,0,0,0,0,0,0,0,0,0,0,0,0,0,0,0,0,0,0,0,0,0,0,0,0,0,0,0,0,0,0,0,0,0,0,0,0,0,0,0,0,0,0,0,0,0,0,0,0,0,0,0,0,0,0,0,0,0,0,0,0,0,0,0,0,0,0,0,0,0,0,0,0,0,0,0,0,0,0,0,0,0,0,0,0,0,0,0,0,0,0,0,0,0,0,0,0,0,0,0,0,0,0,0,0,0,0,0,0,0,0,0],"id":12,"left_children":[1,3,5,7,9,11,13,15,17,19,21,23,25,27,29,31,33,35,37,39,41,43,45,47,49,51,53,55,57,59,61,63,65,67,69,71,-1,73,75,77,79,81,83,85,87,89,91,93,95,97,-1,-1,99,101,103,105,107,109,111,-1,113,115,117,-1,-1,-1,-1,-1,-1,-1,-1,-1,-1,-1,-1,-1,-1,-1,-1,-1,-1,-1,-1,-1,-1,-1,-1,-1,-1,-1,-1,-1,-1,-1,-1,-1,-1,-1,-1,-1,-1,-1,-1,-1,-1,-1,-1,-1,-1,-1,-1,-1,-1,-1,-1,-1,-1,-1,-1],"loss_changes":[3.6916647E2,1.256951E2,6.3048615E1,1.0111478E2,1.3167482E2,6.3177395E1,2.847226E1,5.849274E1,2.5279663E1,2.2917557E1,8.3264595E1,8.966202E0,4.113357E1,1.0575928E1,1.8259506E1,4.342095E1,8.794391E1,1.6556854E1,3.404518E1,1.4284046E1,8.129562E0,6.9537796E1,7.5413246E1,1.7795824E1,8.221512E-1,6.5499496E0,3.0732819E1,3.1235723E1,8.095062E0,7.0275955E0,1.0900158E1,8.406004E1,1.7992172E1,3.614939E1,5.330262E1,9.84903E0,0E0,7.26889E0,1.1858583E1,5.7340264E0,8.102257E0,1.1722183E0,1.1117363E-1,5.7519444E1,2.8601883E1,5.8082397E1,4.8061275E1,1.0735989E0,1.7939373E1,5.771179E-1,0E0,0E0,2.211258E0,2.9279675E1,1.2864441E1,6.1117153E0,1.2228682E1,4.2217712E0,3.3813957E1,0E0,4.6555977E0,3.9023724E0,1.2958025E1,0E0,0E0,0E0,0E0,0E0,0E0,0E0,0E0,0E0,0E0,0E0,0E0,0E0,0E0,0E0,0E0,0E0,0E0,0E0,0E0,0E0,0E0,0E0,0E0,0E0,0E0,0E0,0E0,0E0,0E0,0E0,0E0,0E0,0E0,0E0,0E0,0E0,0E0,0E0,0E0,0E0,0E0,0E0,0E0,0E0,0E0,0E0,0E0,0E0,0E0,0E0,0E0,0E0,0E0,0E0,0E0],"parents":[2147483647,0,0,1,1,2,2,3,3,4,4,5,5,6,6,7,7,8,8,9,9,10,10,11,11,12,12,13,13,14,14,15,15,16,16,17,17,18,18,19,19,20,20,21,21,22,22,23,23,24,24,25,25,26,26,27,27,28,28,29,29,30,30,31,31,32,32,33,33,34,34,35,35,37,37,38,38,39,39,40,40,41,41,42,42,43,43,44,44,45,45,46,46,47,47,48,48,49,49,52,52,53,53,54,54,55,55,56,56,57,57,58,58,60,60,61,61,62,62],"right_children":[2,4,6,8,10,12,14,16,18,20,22,24,26,28,30,32,34,36,38,40,42,44,46,48,50,52,54,56,58,60,62,64,66,68,70,72,-1,74,76,78,80,82,84,86,88,90,92,94,96,98,-1,-1,100,102,104,106,108,110,112,-1,114,116,118,-1,-1,-1,-1,-1,-1,-1,-1,-1,-1,-1,-1,-1,-1,-1,-1,-1,-1,-1,-1,-1,-1,-1,-1,-1,-1,-1,-1,-1,-1,-1,-1,-1,-1,-1,-1,-1,-1,-1,-1,-1,-1,-1,-1,-1,-1,-1,-1,-1,-1,-1,-1,-1,-1,-1,-1],"split_conditions":[9.9738914E-1,9.882824E-1,4.8928935E-4,9.92953E-1,9.964237E-1,2E0,5.4974123E-3,9.8148936E-1,9.99261E-1,9.028162E-1,9.983788E-1,2.4752296E-4,9.9916774E-1,5.219695E1,2.1839574E-2,9.913668E-1,9.950804E-1,9.9859613E-1,7.128906E-2,1.6282588E-3,9.900924E-1,9.878203E-1,9.93858E-1,2E0,3.4179688E-3,-5.3222656E-2,9.998886E-1,9.948178E-1,9.9890375E-1,9.996434E-1,9.995318E-1,9.686599E-1,9.830315E-1,2.3049316E0,9.6672696E-1,9.9214494E-1,4.571797E-1,9.955541E-1,9.956455E-1,1.5588873E-3,9.9354434E-1,9.949355E-1,4E0,2.8E1,9.948804E-1,9.882568E-1,9.9399203E-1,-6.3476562E-3,9.9983734E-1,-3.491211E-2,1.07307E-2,-2.1724522E-1,9.9743724E-1,6.139883E1,-1.6601562E-2,-1.4990234E-1,1.0000389E0,1.6288628E-3,9.953783E-1,4.53051E-2,1.0498047E-2,1.6E1,4E0,-1.53657E-1,1.5873662E-1,9.427169E-2,-1.9650751E-1,3.994846E-1,1.0242391E-1,-8.823975E-2,4.752502E-1,-7.0301846E-2,-2.5488567E-1,1.9195035E-1,-2.1285343E-1,7.540926E-1,-1.580355E-1,-2.6934132E-1,1.9987622E-1,2.0844686E-1,4.2076135E-1,2.9521644E-1,8.556659E-1,1.6288975E-1,3.9613846E-1,-5.766181E-3,2.0657298E-1,4.2248085E-1,1.3374658E-1,-2.1497855E-1,1.9708414E-1,-4.6212647E-2,1.5086317E-1,4.4083297E-2,2.810961E-1,-4.943109E-1,1.5372355E-1,3.0989977E-2,2.854192E-1,9.5892206E-2,2.9094893E-1,-3.135454E-2,-4.191096E-1,-6.331337E-2,2.3375472E-1,-2.1463215E-1,2.81667E-1,-5.353206E-1,2.003109E-1,2.1732685E-1,2.8527957E-1,-4.6064922E-1,2.671998E-1,-6.955428E-2,-8.407899E-1,2.5295708E-1,1.4173108E-2,1.2281272E-1,-2.4359241E-1],